svm_type c_svc
kernel_type rbf
gamma 0.051000
nr_class 2
total_sv 546
rho 0.468261
label 1 -1
probA -4.131129
probB -0.002722
nr_sv 230 316
SV
0.413600 1:-1.311111 2:-1.266667 3:-1.266667 4:-1.222222 5:-1.111111 6:-0.255556 7:-0.255556 8:-0.255556 9:-0.011111 10:0.877778 11:1.177778 12:0.244444 13:0.844444 14:-0.055556 15:-0.055556 16:0.455556 17:0.355556 18:0.322222 19:0.022222 20:0.577778 21:0.622222 22:0.366667 23:0.355556 24:0.388889 25:-0.422222 26:0.033333 27:0.122222 28:0.122222 29:-0.388889 30:-0.088889 31:0.311111 32:1.033333 33:0.811111 34:1.155556 35:0.755556 36:1.155556 37:0.866667 38:1.333333 39:1.922222 40:1.877778 41:2.022222 42:1.655556 43:2.166667 44:2.677778 45:2.566667 46:3.122222 47:3.200000 48:3.200000 49:3.388889 50:3.388889 51:3.333333 52:2.477778 
1.470589 1:-0.800000 2:-0.188889 3:0.666667 4:0.655556 5:0.611111 6:0.555556 7:1.133333 8:1.088889 9:0.200000 10:0.500000 11:-0.400000 12:-0.400000 13:0.155556 14:0.100000 15:0.066667 16:-0.233333 17:0.666667 18:0.666667 19:0.411111 20:0.400000 21:0.433333 22:0.388889 23:0.844444 24:1.488889 25:0.900000 26:0.044444 27:0.344444 28:0.588889 29:0.955556 30:0.877778 31:0.277778 32:0.466667 33:0.500000 34:0.500000 35:1.311111 36:0.966667 37:1.266667 38:1.300000 39:1.300000 40:1.388889 41:1.311111 42:1.122222 43:1.711111 44:1.600000 45:2.455556 46:1.877778 47:1.822222 48:1.711111 49:2.222222 50:2.155556 51:2.122222 52:1.833333 
1.762760 1:-0.444444 2:-0.744444 3:-0.100000 4:-0.100000 5:0.577778 6:0.500000 7:0.800000 8:0.844444 9:0.333333 10:0.633333 11:0.944444 12:0.944444 13:0.855556 14:0.855556 15:1.122222 16:1.677778 17:1.422222 18:1.977778 19:2.533333 20:3.033333 21:3.288889 22:3.888889 23:3.888889 24:3.244444 25:3.200000 26:3.266667 27:3.000000 28:2.433333 29:1.911111 30:1.344444 31:1.122222 32:1.122222 33:0.866667 34:0.011111 35:-0.655556 36:-1.288889 37:-1.266667 38:-1.344444 39:-1.422222 40:-1.266667 41:-1.944444 42:-1.900000 43:-1.000000 44:-0.111111 45:0.744444 46:0.433333 47:0.533333 48:0.266667 49:0.111111 50:0.600000 51:1.200000 52:1.088889 
0.216704 1:0.188889 2:-0.100000 3:0.655556 4:0.600000 5:0.388889 6:-0.422222 7:-0.766667 8:-0.544444 9:-0.277778 10:-0.988889 11:-0.433333 12:-1.188889 13:-1.177778 14:-0.888889 15:-0.300000 16:-0.200000 17:-0.700000 18:-0.244444 19:-0.200000 20:-0.711111 21:-0.655556 22:-0.655556 23:-0.600000 24:-0.888889 25:-0.644444 26:-0.655556 27:-0.433333 28:-0.133333 29:-0.266667 30:-0.322222 31:0.188889 32:-0.155556 33:0.355556 34:0.577778 35:0.622222 36:0.622222 37:0.911111 38:1.288889 39:2.155556 40:2.233333 41:2.477778 42:2.555556 43:2.411111 44:2.655556 45:2.355556 46:2.577778 47:1.933333 48:1.433333 49:0.500000 50:0.200000 51:0.166667 52:0.200000 
0.364037 1:0.177778 2:0.233333 3:0.344444 4:0.844444 5:0.466667 6:-0.244444 7:-0.022222 8:-0.777778 9:-1.066667 10:-1.066667 11:-0.766667 12:-1.122222 13:-1.633333 14:-1.844444 15:-1.800000 16:-2.022222 17:-1.755556 18:-1.088889 19:-0.233333 20:-0.533333 21:-0.566667 22:-0.622222 23:0.188889 24:0.488889 25:-0.144444 26:0.533333 27:-0.188889 28:-0.744444 29:-0.444444 30:-0.455556 31:-0.700000 32:-1.511111 33:-1.000000 34:-0.144444 35:-0.822222 36:-0.555556 37:-0.555556 38:-0.544444 39:-0.544444 40:0.266667 41:1.122222 42:1.122222 43:1.200000 44:1.277778 45:1.955556 46:2.255556 47:2.255556 48:2.766667 49:2.766667 50:1.911111 51:1.688889 52:1.611111 
0.773187 1:-0.588889 2:-0.088889 3:-0.144444 4:0.500000 5:-0.388889 6:0.255556 7:0.066667 8:0.177778 9:0.877778 10:1.222222 11:0.411111 12:0.466667 13:0.311111 14:1.122222 15:0.733333 16:0.022222 17:-0.022222 18:0.088889 19:-0.200000 20:0.388889 21:0.700000 22:0.588889 23:0.444444 24:0.233333 25:0.622222 26:-0.188889 27:-0.188889 28:0.111111 29:-0.177778 30:-0.188889 31:-0.433333 32:-0.788889 33:-0.488889 34:-0.533333 35:-0.233333 36:-1.088889 37:-1.044444 38:-0.455556 39:0.133333 40:0.488889 41:0.422222 42:0.977778 43:1.488889 44:1.888889 45:2.233333 46:2.777778 47:2.700000 48:2.055556 49:2.166667 50:2.811111 51:2.655556 52:2.088889 
1.217437 1:0.011111 2:0.122222 3:-0.222222 4:-0.888889 5:-1.400000 6:-1.077778 7:-1.288889 8:-1.877778 9:-1.088889 10:-1.133333 11:-1.833333 12:-1.488889 13:-1.488889 14:-1.833333 15:-2.500000 16:-2.555556 17:-2.344444 18:-2.277778 19:-2.233333 20:-2.277778 21:-2.411111 22:-2.411111 23:-2.155556 24:-2.200000 25:-2.200000 26:-2.411111 27:-2.877778 28:-2.288889 29:-1.933333 30:-1.288889 31:-0.433333 32:-0.300000 33:0.333333 34:0.688889 35:1.500000 36:2.044444 37:1.666667 38:2.244444 39:2.200000 40:1.655556 41:1.900000 42:1.900000 43:1.911111 44:1.688889 45:1.388889 46:2.066667 47:1.988889 48:1.122222 49:1.155556 50:0.511111 51:0.266667 52:0.766667 
0.633695 1:0.655556 2:0.655556 3:-0.244444 4:-1.133333 5:-1.177778 6:-0.877778 7:-1.222222 8:-0.588889 9:-0.866667 10:-1.411111 11:-1.488889 12:-0.855556 13:-0.544444 14:-0.188889 15:-0.177778 16:0.133333 17:-0.500000 18:-0.222222 19:-0.577778 20:-1.166667 21:-1.800000 22:-2.111111 23:-2.211111 24:-2.522222 25:-2.622222 26:-2.233333 27:-2.866667 28:-2.522222 29:-2.222222 30:-1.588889 31:-1.000000 32:-0.622222 33:0.233333 34:0.322222 35:0.566667 36:0.922222 37:0.966667 38:1.477778 39:1.700000 40:1.922222 41:2.144444 42:2.100000 43:2.388889 44:2.388889 45:2.388889 46:2.344444 47:2.388889 48:1.888889 49:1.666667 50:1.444444 51:0.933333 52:1.155556 
0.887639 1:-0.733333 2:-0.588889 3:-0.666667 4:-0.666667 5:0.000000 6:0.611111 7:0.666667 8:1.200000 9:0.644444 10:1.000000 11:0.933333 12:0.333333 13:0.333333 14:0.333333 15:0.066667 16:0.877778 17:0.088889 18:0.088889 19:0.366667 20:0.211111 21:0.588889 22:1.177778 23:0.822222 24:0.233333 25:-0.633333 26:-0.633333 27:-0.344444 28:-0.722222 29:-1.011111 30:-0.788889 31:-1.133333 32:-1.133333 33:-1.133333 34:-1.077778 35:-1.088889 36:-1.088889 37:-0.955556 38:-0.444444 39:-0.366667 40:0.277778 41:0.177778 42:0.988889 43:1.688889 44:2.555556 45:2.822222 46:3.288889 47:3.066667 48:2.477778 49:1.533333 50:1.633333 51:0.822222 52:0.933333 
0.692127 1:-0.733333 2:-0.700000 3:-0.777778 4:-0.177778 5:0.488889 6:1.100000 7:1.155556 8:1.688889 9:1.133333 10:1.488889 11:1.533333 12:0.933333 13:0.333333 14:0.333333 15:0.366667 16:0.966667 17:0.222222 18:0.222222 19:0.500000 20:0.055556 21:0.433333 22:0.733333 23:0.666667 24:-0.277778 25:-0.933333 26:-0.933333 27:-0.933333 28:-0.933333 29:-0.933333 30:-0.711111 31:-0.266667 32:-0.277778 33:0.666667 34:1.066667 35:1.066667 36:1.355556 37:1.066667 38:1.577778 39:1.577778 40:1.722222 41:1.433333 42:1.355556 43:1.822222 44:2.677778 45:2.677778 46:3.188889 47:2.966667 48:2.455556 49:1.866667 50:1.866667 51:1.055556 52:0.833333 
1.070525 1:0.933333 2:1.800000 3:1.688889 4:2.000000 5:1.655556 6:1.222222 7:0.866667 8:0.166667 9:0.111111 10:-0.466667 11:-0.422222 12:-0.811111 13:-0.777778 14:0.033333 15:-0.322222 16:-0.666667 17:-0.722222 18:-0.966667 19:-0.533333 20:-0.577778 21:-0.888889 22:-0.533333 23:-1.044444 24:-0.255556 25:-0.255556 26:-0.200000 27:0.144444 28:-0.288889 29:-0.288889 30:0.011111 31:-0.388889 32:-0.344444 33:-0.388889 34:0.422222 35:0.422222 36:0.077778 37:-0.277778 38:-0.233333 39:-0.244444 40:0.311111 41:0.566667 42:0.677778 43:0.722222 44:1.033333 45:1.333333 46:2.188889 47:2.188889 48:2.488889 49:2.444444 50:1.844444 51:1.622222 52:1.577778 
1.253926 1:2.700000 2:2.666667 3:2.233333 4:2.233333 5:1.488889 6:1.533333 7:1.033333 8:0.733333 9:0.766667 10:-0.100000 11:-0.955556 12:-1.322222 13:-1.666667 14:-1.722222 15:-2.166667 16:-1.733333 17:-1.522222 18:-2.411111 19:-1.655556 20:-1.355556 21:-0.555556 22:0.333333 23:0.388889 24:0.433333 25:0.000000 26:0.600000 27:0.900000 28:0.500000 29:0.544444 30:0.500000 31:0.422222 32:0.422222 33:0.933333 34:0.577778 35:0.355556 36:0.344444 37:0.388889 38:0.644444 39:0.755556 40:0.800000 41:1.111111 42:0.555556 43:1.411111 44:1.677778 45:1.977778 46:2.444444 47:1.844444 48:1.622222 49:1.577778 50:1.511111 51:1.522222 52:1.522222 
1.137814 1:-1.944444 2:-2.244444 3:-2.244444 4:-1.433333 5:-2.244444 6:-1.888889 7:-2.177778 8:-2.177778 9:-2.177778 10:-1.322222 11:-1.377778 12:-1.122222 13:-1.122222 14:-1.122222 15:-1.511111 16:-0.655556 17:-0.311111 18:-0.355556 19:-1.266667 20:-1.211111 21:-0.566667 22:-0.677778 23:-0.722222 24:-0.633333 25:-0.700000 26:-0.455556 27:-0.200000 28:0.200000 29:0.200000 30:0.155556 31:0.266667 32:0.611111 33:1.122222 34:0.588889 35:0.811111 36:0.811111 37:0.777778 38:1.588889 39:1.588889 40:1.633333 41:1.544444 42:1.044444 43:1.644444 44:1.144444 45:1.600000 46:2.100000 47:2.144444 48:1.922222 49:1.066667 50:1.555556 51:2.055556 52:1.244444 
0.046820 1:-1.988889 2:-2.288889 3:-2.288889 4:-1.433333 5:-2.244444 6:-1.888889 7:-2.177778 8:-2.177778 9:-2.177778 10:-1.322222 11:-1.377778 12:-1.122222 13:-1.122222 14:-1.122222 15:-1.511111 16:-0.655556 17:-0.311111 18:-0.311111 19:-1.222222 20:-1.166667 21:-0.522222 22:-0.633333 23:-0.688889 24:-0.600000 25:-0.666667 26:-0.422222 27:-0.122222 28:0.277778 29:0.222222 30:0.177778 31:0.288889 32:0.644444 33:1.155556 34:0.622222 35:0.844444 36:0.755556 37:0.722222 38:1.588889 39:1.588889 40:1.633333 41:1.544444 42:1.044444 43:1.644444 44:1.144444 45:1.600000 46:2.100000 47:2.144444 48:1.922222 49:1.366667 50:1.855556 51:2.355556 52:2.288889 
0.679330 1:-0.400000 2:-0.055556 3:-0.944444 4:-0.555556 5:-0.200000 6:-0.800000 7:-0.488889 8:-1.422222 9:-0.822222 10:-0.122222 11:0.233333 12:0.233333 13:0.233333 14:-0.466667 15:-0.677778 16:-0.322222 17:0.311111 18:0.311111 19:-0.177778 20:-0.922222 21:-0.177778 22:0.177778 23:0.388889 24:0.344444 25:-0.366667 26:-0.655556 27:-1.166667 28:-1.033333 29:-0.244444 30:-1.044444 31:-1.800000 32:-1.666667 33:-0.733333 34:-0.388889 35:0.166667 36:0.166667 37:0.422222 38:-0.022222 39:0.733333 40:1.644444 41:2.000000 42:1.700000 43:1.711111 44:1.744444 45:2.033333 46:2.022222 47:2.422222 48:2.311111 49:2.266667 50:2.166667 51:2.177778 52:1.866667 
0.356887 1:0.177778 2:-0.766667 3:-0.800000 4:-0.444444 5:-0.088889 6:-0.088889 7:-0.088889 8:-0.788889 9:-1.000000 10:-0.288889 11:-0.233333 12:-0.277778 13:-0.766667 14:-1.511111 15:-1.266667 16:-0.911111 17:-0.700000 18:-0.744444 19:-1.455556 20:-1.155556 21:-1.666667 22:-1.533333 23:-0.888889 24:-1.188889 25:-1.077778 26:-0.988889 27:-0.600000 28:0.333333 29:-0.022222 30:0.377778 31:0.844444 32:0.455556 33:0.811111 34:0.888889 35:1.400000 36:1.866667 37:1.566667 38:2.511111 39:2.122222 40:1.622222 41:2.111111 42:2.555556 43:2.255556 44:2.333333 45:1.833333 46:1.244444 47:0.300000 48:0.800000 49:1.300000 50:0.911111 51:0.511111 52:0.777778 
0.101990 1:-0.066667 2:-0.355556 3:-0.355556 4:-0.066667 5:0.211111 6:0.211111 7:0.511111 8:0.233333 9:0.344444 10:0.344444 11:0.044444 12:-0.255556 13:-0.533333 14:-0.266667 15:-0.266667 16:-0.266667 17:0.011111 18:-0.033333 19:-0.122222 20:0.188889 21:0.488889 22:0.488889 23:0.222222 24:0.777778 25:1.366667 26:1.077778 27:0.577778 28:1.066667 29:1.055556 30:0.755556 31:0.788889 32:0.500000 33:-0.011111 34:-0.900000 35:-0.344444 36:0.155556 37:-0.544444 38:-0.255556 39:0.088889 40:-0.300000 41:-0.300000 42:0.211111 43:0.911111 44:0.944444 45:0.722222 46:1.311111 47:1.577778 48:1.822222 49:2.455556 50:2.755556 51:2.711111 52:2.900000 
0.666928 1:-0.811111 2:-0.500000 3:0.311111 4:-0.500000 5:-0.366667 6:-0.366667 7:-1.011111 8:-0.311111 9:0.500000 10:0.544444 11:0.444444 12:-0.022222 13:0.288889 14:0.533333 15:1.344444 16:1.344444 17:1.388889 18:0.577778 19:0.066667 20:0.155556 21:0.411111 22:0.100000 23:-0.188889 24:-0.655556 25:-0.011111 26:0.100000 27:0.311111 28:0.555556 29:0.922222 30:0.911111 31:0.855556 32:0.855556 33:0.822222 34:0.777778 35:0.222222 36:0.866667 37:0.622222 38:0.811111 39:0.522222 40:0.922222 41:0.933333 42:1.433333 43:1.477778 44:1.988889 45:1.944444 46:1.600000 47:1.088889 48:1.377778 49:0.977778 50:1.011111 51:0.900000 52:0.633333 
0.069865 1:-0.900000 2:-0.766667 3:-1.066667 4:-0.466667 5:-0.166667 6:0.644444 7:-0.211111 8:-0.077778 9:-0.077778 10:-0.722222 11:-0.366667 12:0.444444 13:-0.366667 14:-0.366667 15:-1.177778 16:-0.833333 17:-0.433333 18:-0.133333 19:-0.344444 20:-1.088889 21:-1.200000 22:-1.200000 23:-1.200000 24:-0.855556 25:-0.300000 26:-0.188889 27:-0.177778 28:0.411111 29:0.800000 30:0.688889 31:0.900000 32:0.900000 33:0.855556 34:0.000000 35:-0.266667 36:0.277778 37:0.277778 38:0.744444 39:0.455556 40:0.588889 41:0.600000 42:1.111111 43:1.700000 44:1.922222 45:1.877778 46:2.100000 47:1.633333 48:1.333333 49:0.933333 50:1.433333 51:1.322222 52:1.588889 
1.405107 1:0.344444 2:0.300000 3:1.111111 4:0.300000 5:0.433333 6:0.477778 7:-0.166667 8:-0.322222 9:0.488889 10:0.533333 11:0.444444 12:-0.022222 13:0.566667 14:0.522222 15:0.477778 16:1.077778 17:0.377778 18:-0.433333 19:-1.288889 20:-0.688889 21:-0.722222 22:-1.311111 23:-1.311111 24:-0.922222 25:-0.877778 26:-0.177778 27:0.033333 28:0.622222 29:0.477778 30:0.377778 31:0.588889 32:0.588889 33:0.455556 34:0.411111 35:0.300000 36:0.688889 37:0.444444 38:0.377778 39:0.466667 40:0.600000 41:0.611111 42:1.211111 43:0.988889 44:1.211111 45:1.422222 46:1.077778 47:0.822222 48:1.111111 49:0.711111 50:0.744444 51:0.633333 52:0.933333 
0.935090 1:-1.255556 2:-1.122222 3:-0.766667 4:-0.166667 5:0.133333 6:0.944444 7:0.444444 8:0.577778 9:0.577778 10:-0.066667 11:0.288889 12:0.800000 13:0.733333 14:0.733333 15:-0.077778 16:-0.088889 17:-0.433333 18:-0.133333 19:-0.344444 20:-0.455556 21:-1.022222 22:-1.766667 23:-1.766667 24:-1.422222 25:-0.866667 26:-0.011111 27:0.577778 28:1.166667 29:0.888889 30:1.233333 31:2.044444 32:2.044444 33:1.911111 34:1.400000 35:0.844444 36:0.544444 37:0.300000 38:0.800000 39:0.511111 40:0.044444 41:0.055556 42:0.655556 43:0.900000 44:1.411111 45:1.633333 46:2.100000 47:1.633333 48:2.077778 49:1.677778 50:2.177778 51:2.066667 52:2.333333 
0.047702 1:-0.633333 2:0.177778 3:0.322222 4:0.277778 5:-0.422222 6:-0.122222 7:-0.122222 8:-0.200000 9:-0.500000 10:-0.566667 11:-0.677778 12:-0.822222 13:-0.111111 14:-0.155556 15:-0.500000 16:-0.500000 17:-0.500000 18:0.166667 19:-0.077778 20:-0.077778 21:-0.744444 22:-1.411111 23:-1.366667 24:-0.511111 25:-0.511111 26:-1.322222 27:-1.644444 28:-1.300000 29:-1.688889 30:-1.388889 31:-0.577778 32:-0.277778 33:-1.088889 34:-1.133333 35:-0.822222 36:-0.311111 37:0.200000 38:0.700000 39:1.211111 40:1.255556 41:1.266667 42:2.077778 43:2.933333 44:3.433333 45:3.166667 46:2.900000 47:2.677778 48:2.155556 49:1.966667 50:2.466667 51:2.400000 52:1.800000 
0.355323 1:-1.233333 2:-0.533333 3:-1.200000 4:-0.788889 5:0.155556 6:-0.244444 7:-0.300000 8:-0.300000 9:-0.155556 10:0.433333 11:-0.266667 12:-0.311111 13:-1.055556 14:-1.133333 15:-1.477778 16:-1.177778 17:-1.177778 18:-1.322222 19:-1.244444 20:-1.300000 21:-1.300000 22:-1.255556 23:-1.255556 24:-0.544444 25:-0.788889 26:-0.833333 27:-1.200000 28:-1.866667 29:-1.222222 30:-0.866667 31:0.022222 32:-0.488889 33:-0.855556 34:-0.511111 35:-0.511111 36:-0.500000 37:0.088889 38:0.311111 39:0.811111 40:0.777778 41:1.366667 42:1.877778 43:2.344444 44:3.200000 45:3.744444 46:3.744444 47:3.244444 48:2.722222 49:2.611111 50:2.422222 51:2.277778 52:2.277778 
0.323149 1:-1.655556 2:-1.244444 3:-0.300000 4:-0.244444 5:-0.244444 6:-0.300000 7:-0.155556 8:-0.155556 9:-0.855556 10:-0.855556 11:-1.255556 12:-1.333333 13:-1.677778 14:-1.433333 15:-1.377778 16:-1.522222 17:-0.855556 18:-0.911111 19:-0.955556 20:-1.255556 21:-1.255556 22:-0.544444 23:-0.788889 24:-0.444444 25:-0.900000 26:-1.566667 27:-1.511111 28:-1.466667 29:-1.122222 30:-1.622222 31:-1.700000 32:-0.888889 33:-0.922222 34:-0.788889 35:-0.844444 36:-0.533333 37:0.322222 38:0.788889 39:1.288889 40:1.555556 41:1.333333 42:1.233333 43:1.700000 44:2.566667 45:2.844444 46:2.577778 47:2.355556 48:1.488889 49:0.633333 50:0.855556 51:1.311111 52:1.311111 
0.519773 1:0.355556 2:0.500000 3:0.500000 4:0.800000 5:1.433333 6:0.733333 7:0.700000 8:-0.111111 9:-0.166667 10:-0.166667 11:-0.311111 12:0.355556 13:-0.533333 14:-0.533333 15:-0.533333 16:-0.577778 17:0.088889 18:-0.155556 19:-0.144444 20:-0.511111 21:-0.477778 22:-0.477778 23:-1.066667 24:-1.111111 25:-1.711111 26:-2.377778 27:-2.377778 28:-1.988889 29:-1.700000 30:-1.511111 31:-1.211111 32:-0.400000 33:0.455556 34:0.588889 35:0.544444 36:0.855556 37:1.100000 38:1.322222 39:1.244444 40:1.800000 41:1.300000 42:0.788889 43:1.300000 44:2.155556 45:2.433333 46:2.433333 47:2.511111 48:2.511111 49:1.611111 50:1.511111 51:1.877778 52:1.722222 
0.227410 1:-0.744444 2:-0.744444 3:-0.600000 4:-0.600000 5:-1.300000 6:-0.944444 7:-0.888889 8:-0.966667 9:-1.311111 10:-1.066667 11:-0.322222 12:-0.466667 13:-0.100000 14:-0.144444 15:-0.500000 16:-0.500000 17:-0.500000 18:0.211111 19:-0.033333 20:0.077778 21:-0.633333 22:-1.300000 23:-0.400000 24:0.455556 25:0.455556 26:-0.355556 27:-0.677778 28:-0.333333 29:-0.877778 30:-0.522222 31:0.288889 32:-0.266667 33:-1.122222 34:-1.166667 35:-0.855556 36:-0.311111 37:0.155556 38:0.655556 39:1.155556 40:1.200000 41:1.211111 42:1.466667 43:2.211111 44:2.711111 45:2.411111 46:2.188889 47:1.966667 48:1.444444 49:0.888889 50:0.522222 51:1.055556 52:0.566667 
0.739877 1:-0.744444 2:-0.744444 3:-0.744444 4:-0.600000 5:-0.600000 6:-1.300000 7:-0.944444 8:-0.888889 9:-0.966667 10:-1.311111 11:-1.066667 12:-0.322222 13:-0.466667 14:-0.100000 15:-0.144444 16:-0.500000 17:-0.500000 18:-0.500000 19:0.211111 20:-0.033333 21:0.077778 22:-0.588889 23:-1.300000 24:-0.911111 25:0.022222 26:0.022222 27:-0.788889 28:-0.566667 29:-0.611111 30:-1.522222 31:-1.211111 32:-0.277778 33:-0.322222 34:-1.211111 35:-1.255556 36:-0.666667 37:-0.744444 38:0.111111 39:0.977778 40:1.477778 41:1.177778 42:1.688889 43:2.388889 44:3.244444 45:3.511111 46:3.011111 47:2.788889 48:2.266667 49:1.455556 50:1.566667 51:0.966667 52:1.077778 
0.656603 1:-1.200000 2:-1.477778 3:-1.188889 4:-1.488889 5:-1.133333 6:-0.644444 7:0.211111 8:0.511111 9:0.511111 10:0.977778 11:1.255556 12:1.322222 13:1.077778 14:0.355556 15:-0.344444 16:-1.200000 17:-1.200000 18:-0.311111 19:-0.266667 20:-0.900000 21:-0.911111 22:-0.366667 23:0.000000 24:0.855556 25:1.155556 26:1.444444 27:0.855556 28:0.344444 29:0.700000 30:0.700000 31:0.022222 32:0.055556 33:0.011111 34:0.011111 35:0.011111 36:0.055556 37:0.300000 38:0.300000 39:0.855556 40:0.988889 41:1.533333 42:1.322222 43:1.911111 44:1.666667 45:2.177778 46:2.400000 47:2.944444 48:2.433333 49:2.944444 50:2.644444 51:2.855556 52:2.855556 
0.277263 1:-1.144444 2:-0.788889 3:-0.355556 4:0.000000 5:0.311111 6:0.011111 7:-0.033333 8:0.255556 9:0.322222 10:0.077778 11:-0.644444 12:-1.388889 13:-1.755556 14:-1.755556 15:-1.444444 16:-0.888889 17:-1.533333 18:-1.244444 19:-0.700000 20:-0.333333 21:0.522222 22:0.877778 23:0.566667 24:0.844444 25:0.800000 26:1.711111 27:1.111111 28:0.566667 29:0.555556 30:0.000000 31:-0.088889 32:0.255556 33:0.477778 34:-0.033333 35:-0.300000 36:-0.355556 37:-0.111111 38:-0.100000 39:0.455556 40:0.544444 41:1.088889 42:0.877778 43:1.466667 44:1.222222 45:2.133333 46:2.355556 47:2.633333 48:1.722222 49:2.277778 50:1.977778 51:2.188889 52:2.188889 
1.008378 1:-0.288889 2:-1.144444 3:-1.144444 4:-1.144444 5:-0.544444 6:0.344444 7:0.344444 8:0.244444 9:0.244444 10:-0.066667 11:0.244444 12:-0.033333 13:-0.022222 14:-0.033333 15:-0.111111 16:-0.611111 17:-0.644444 18:-0.355556 19:-0.400000 20:-0.366667 21:-0.466667 22:-0.433333 23:-0.433333 24:-0.388889 25:0.044444 26:-0.166667 27:-0.111111 28:-0.066667 29:-0.111111 30:0.022222 31:0.266667 32:-0.033333 33:-0.944444 34:-1.744444 35:-1.400000 36:-1.444444 37:-0.777778 38:-0.488889 39:-0.544444 40:-0.322222 41:0.200000 42:0.844444 43:1.711111 44:1.577778 45:2.088889 46:2.011111 47:1.422222 48:1.944444 49:1.722222 50:0.855556 51:0.266667 52:0.155556 
0.095590 1:-0.877778 2:-1.155556 3:-0.844444 4:-1.133333 5:-1.044444 6:-0.233333 7:0.044444 8:-0.055556 9:-0.155556 10:-0.244444 11:-0.244444 12:-0.244444 13:-0.588889 14:0.000000 15:-0.144444 16:-0.733333 17:-0.733333 18:-0.600000 19:-0.811111 20:-0.311111 21:-0.277778 22:0.066667 23:-0.477778 24:-0.800000 25:-0.455556 26:-0.455556 27:-0.500000 28:0.388889 29:0.388889 30:0.744444 31:1.255556 32:1.222222 33:1.177778 34:1.688889 35:1.688889 36:2.244444 37:1.666667 38:1.666667 39:1.822222 40:1.822222 41:2.100000 42:2.388889 43:2.122222 44:2.500000 45:2.233333 46:2.233333 47:2.011111 48:1.155556 49:0.344444 50:0.566667 51:0.788889 52:1.088889 
0.043546 1:0.277778 2:0.577778 3:0.333333 4:-0.211111 5:-0.755556 6:-0.755556 7:-1.300000 8:-0.955556 9:-0.866667 10:-1.266667 11:-1.566667 12:-1.566667 13:-1.022222 14:-1.422222 15:-0.533333 16:-0.666667 17:-1.011111 18:-0.422222 19:-0.422222 20:-0.422222 21:0.166667 22:-0.477778 23:0.166667 24:-0.777778 25:-0.644444 26:-0.300000 27:-0.844444 28:-0.555556 29:-0.255556 30:-0.533333 31:-0.477778 32:-1.066667 33:-0.422222 34:-0.100000 35:-0.088889 36:0.377778 37:0.088889 38:0.377778 39:0.955556 40:0.955556 41:1.266667 42:1.566667 43:1.500000 44:2.077778 45:1.566667 46:2.077778 47:1.800000 48:1.500000 49:1.144444 50:1.133333 51:0.544444 52:0.755556 
0.320032 1:0.277778 2:0.577778 3:0.333333 4:-0.211111 5:-0.755556 6:-0.755556 7:-1.300000 8:-0.955556 9:-0.866667 10:-1.266667 11:-1.566667 12:-1.566667 13:-1.022222 14:-1.422222 15:-0.533333 16:-0.666667 17:-1.011111 18:-0.422222 19:-0.422222 20:-0.422222 21:-0.122222 22:-0.766667 23:-0.122222 24:-1.066667 25:-0.933333 26:-0.588889 27:-1.133333 28:-0.844444 29:-0.544444 30:-0.533333 31:-0.477778 32:-1.066667 33:-0.422222 34:-0.100000 35:-0.088889 36:0.377778 37:0.088889 38:0.377778 39:0.955556 40:0.955556 41:1.266667 42:1.566667 43:1.500000 44:2.077778 45:1.566667 46:2.077778 47:1.800000 48:1.500000 49:1.144444 50:1.133333 51:0.544444 52:0.755556 
0.046503 1:1.066667 2:0.822222 3:0.277778 4:-0.266667 5:-0.266667 6:-0.777778 7:-0.133333 8:-0.133333 9:-0.688889 10:-0.400000 11:-0.400000 12:0.111111 13:-0.288889 14:0.566667 15:1.033333 16:0.755556 17:0.466667 18:0.466667 19:0.222222 20:1.077778 21:0.166667 22:0.811111 23:-0.088889 24:-0.900000 25:-0.866667 26:-1.166667 27:-0.655556 28:-0.700000 29:-0.700000 30:-0.644444 31:-1.233333 32:-0.888889 33:-0.677778 34:-0.811111 35:-0.466667 36:-0.466667 37:-0.177778 38:-0.744444 39:-0.433333 40:0.155556 41:0.666667 42:1.155556 43:1.755556 44:1.711111 45:1.711111 46:1.722222 47:2.288889 48:2.188889 49:1.900000 50:1.788889 51:1.300000 52:1.300000 
0.947071 1:1.788889 2:1.544444 3:1.000000 4:0.455556 5:0.455556 6:-0.055556 7:-0.411111 8:-0.411111 9:-0.966667 10:-1.055556 11:-1.055556 12:-0.511111 13:-0.911111 14:-0.055556 15:-0.188889 16:-0.200000 17:-0.544444 18:-0.255556 19:-0.122222 20:0.222222 21:-0.711111 22:0.200000 23:-0.344444 24:-0.255556 25:0.033333 26:-0.211111 27:-0.500000 28:-0.533333 29:-0.066667 30:0.722222 31:0.466667 32:0.855556 33:0.855556 34:0.577778 35:0.877778 36:0.877778 37:0.866667 38:0.355556 39:0.466667 40:0.177778 41:0.288889 42:0.800000 43:1.300000 44:1.855556 45:2.366667 46:2.666667 47:3.222222 48:2.577778 49:2.566667 50:2.066667 51:1.555556 52:1.033333 
0.148484 1:1.011111 2:0.455556 3:0.211111 4:-0.333333 5:-0.877778 6:-0.877778 7:-1.388889 8:-1.022222 9:-1.022222 10:-0.966667 11:-0.966667 12:-0.966667 13:-0.422222 14:-0.822222 15:0.033333 16:-0.100000 17:-0.111111 18:-0.455556 19:-0.166667 20:-0.122222 21:0.222222 22:-0.711111 23:0.233333 24:-0.311111 25:-0.222222 26:0.066667 27:-0.177778 28:-0.466667 29:-0.500000 30:-0.033333 31:0.755556 32:0.166667 33:0.666667 34:0.666667 35:0.033333 36:0.322222 37:0.322222 38:0.311111 39:0.355556 40:-0.077778 41:0.433333 42:0.433333 43:0.944444 44:1.577778 45:2.100000 46:2.400000 47:2.911111 48:2.266667 49:2.255556 50:1.744444 51:1.233333 52:0.711111 
0.116298 1:0.444444 2:0.744444 3:0.500000 4:0.033333 5:-0.511111 6:-0.511111 7:-1.055556 8:-0.700000 9:-0.711111 10:-1.266667 11:-1.566667 12:-1.566667 13:-1.022222 14:-1.422222 15:-0.533333 16:-0.666667 17:-1.011111 18:-0.711111 19:-0.711111 20:-0.411111 21:0.400000 22:-0.188889 23:0.166667 24:0.133333 25:0.266667 26:1.166667 27:0.566667 28:1.155556 29:1.666667 30:0.811111 31:0.722222 32:0.722222 33:0.177778 34:-0.166667 35:-0.322222 36:0.488889 37:-0.088889 38:-0.300000 39:0.600000 40:0.733333 41:1.133333 42:1.522222 43:1.766667 44:1.733333 45:1.622222 46:2.166667 47:2.455556 48:1.600000 49:1.466667 50:1.577778 51:1.177778 52:0.877778 
0.098474 1:-1.533333 2:-0.588889 3:0.222222 4:0.577778 5:0.288889 6:0.044444 7:-0.655556 8:-0.866667 9:-0.144444 10:0.766667 11:0.477778 12:-0.122222 13:-0.522222 14:-0.311111 15:-0.655556 16:-0.655556 17:0.044444 18:-0.411111 19:-1.322222 20:-1.111111 21:-1.111111 22:-1.455556 23:-1.366667 24:-0.777778 25:-0.033333 26:-0.433333 27:-0.344444 28:0.011111 29:-0.500000 30:-0.411111 31:-0.066667 32:0.222222 33:0.488889 34:0.633333 35:0.633333 36:0.633333 37:1.188889 38:1.188889 39:1.744444 40:2.300000 41:2.411111 42:2.222222 43:2.033333 44:2.544444 45:3.055556 46:2.944444 47:3.388889 48:3.344444 49:3.300000 50:3.411111 51:3.555556 52:3.711111 
0.197345 1:-0.166667 2:0.088889 3:0.477778 4:0.011111 5:-0.300000 6:-0.166667 7:0.188889 8:-0.488889 9:-0.188889 10:-1.088889 11:-0.444444 12:-0.088889 13:0.266667 14:0.266667 15:0.266667 16:-0.433333 17:-0.644444 18:-0.277778 19:0.066667 20:0.022222 21:-0.466667 22:-0.855556 23:0.033333 24:0.500000 25:0.711111 26:1.311111 27:0.588889 28:0.588889 29:0.077778 30:-0.133333 31:0.300000 32:-0.644444 33:-1.500000 34:-0.966667 35:-0.677778 36:-0.322222 37:0.233333 38:0.633333 39:1.444444 40:1.511111 41:2.155556 42:3.011111 43:2.477778 44:2.444444 45:2.955556 46:2.688889 47:2.800000 48:2.800000 49:2.877778 50:3.100000 51:2.233333 52:2.611111 
1.075071 1:0.466667 2:0.511111 3:-0.355556 4:-0.666667 5:-0.533333 6:-0.177778 7:-0.855556 8:-0.266667 9:-1.166667 10:-0.900000 11:-0.011111 12:0.744444 13:0.744444 14:0.744444 15:0.044444 16:-0.166667 17:-0.088889 18:0.766667 19:0.722222 20:0.044444 21:-0.655556 22:0.155556 23:0.622222 24:0.833333 25:1.433333 26:1.355556 27:0.844444 28:0.377778 29:0.511111 30:0.455556 31:-0.411111 32:-1.222222 33:-1.088889 34:-1.100000 35:-0.800000 36:-0.788889 37:-0.277778 38:0.188889 39:0.544444 40:1.300000 41:2.188889 42:2.155556 43:2.266667 44:1.622222 45:2.166667 46:1.900000 47:1.677778 48:2.077778 49:1.977778 50:1.944444 51:2.444444 52:2.555556 
0.356009 1:-0.500000 2:-0.222222 3:-0.222222 4:-0.233333 5:-0.333333 6:-0.877778 7:-0.288889 8:-0.300000 9:0.255556 10:0.844444 11:0.555556 12:0.255556 13:0.844444 14:0.944444 15:0.633333 16:0.388889 17:0.088889 18:0.122222 19:-0.766667 20:-0.477778 21:-0.266667 22:-1.155556 23:-1.155556 24:-0.300000 25:-0.400000 26:-0.400000 27:-1.288889 28:-0.977778 29:-1.566667 30:-1.777778 31:-1.188889 32:-1.155556 33:-1.422222 34:-1.711111 35:-1.122222 36:-0.533333 37:0.011111 38:0.355556 39:0.955556 40:0.711111 41:0.955556 42:0.711111 43:1.344444 44:1.566667 45:1.566667 46:1.566667 47:1.811111 48:1.800000 49:2.044444 50:1.700000 51:2.166667 52:2.388889 
0.479918 1:0.966667 2:0.322222 3:1.222222 4:0.677778 5:0.333333 6:0.055556 7:0.055556 8:0.911111 9:0.111111 10:0.000000 11:0.000000 12:0.033333 13:-0.333333 14:0.022222 15:0.011111 16:0.011111 17:-0.844444 18:-0.833333 19:-1.233333 20:-1.444444 21:-2.122222 22:-2.066667 23:-2.066667 24:-2.022222 25:-1.988889 26:-1.988889 27:-2.000000 28:-2.100000 29:-1.211111 30:-1.177778 31:-0.833333 32:-0.400000 33:-0.433333 34:-0.111111 35:0.700000 36:1.644444 37:1.711111 38:1.633333 39:1.700000 40:2.211111 41:2.277778 42:2.711111 43:2.900000 44:2.688889 45:2.611111 46:2.600000 47:2.600000 48:3.177778 49:2.666667 50:2.100000 51:2.166667 52:1.622222 
2.042625 1:-0.633333 2:-0.977778 3:-1.022222 4:-1.600000 5:-1.166667 6:-0.611111 7:-0.666667 8:-0.711111 9:0.188889 10:-0.622222 11:-0.277778 12:0.466667 13:0.744444 14:0.666667 15:0.155556 16:0.500000 17:0.844444 18:-0.011111 19:0.733333 20:0.722222 21:0.833333 22:0.833333 23:0.166667 24:0.711111 25:0.711111 26:0.366667 27:0.366667 28:-0.377778 29:0.144444 30:-0.722222 31:-1.366667 32:-1.366667 33:-1.555556 34:-1.844444 35:-1.800000 36:-1.211111 37:-1.211111 38:-2.022222 39:-1.077778 40:-0.722222 41:-0.422222 42:-0.311111 43:0.200000 44:0.200000 45:0.466667 46:1.277778 47:1.622222 48:1.322222 49:1.611111 50:1.311111 51:0.811111 52:-0.000000 
0.192202 1:0.455556 2:0.100000 3:-0.244444 4:-0.033333 5:0.822222 6:0.266667 7:-0.100000 8:-0.444444 9:-0.166667 10:-1.022222 11:-1.033333 12:-0.677778 13:-0.300000 14:-0.844444 15:-0.844444 16:-0.288889 17:0.066667 18:-0.222222 19:0.077778 20:0.366667 21:0.355556 22:-0.288889 23:0.255556 24:0.844444 25:-0.011111 26:0.533333 27:0.544444 28:0.555556 29:-0.033333 30:0.011111 31:0.655556 32:-0.200000 33:-1.133333 34:-0.433333 35:-1.288889 36:-1.600000 37:-1.566667 38:-0.711111 39:-0.355556 40:-0.600000 41:-0.011111 42:0.622222 43:0.511111 44:1.400000 45:1.988889 46:1.988889 47:1.722222 48:1.611111 49:1.855556 50:2.077778 51:2.300000 52:2.522222 
0.605710 1:0.511111 2:1.188889 3:0.600000 4:0.222222 5:0.800000 6:0.422222 7:0.066667 8:0.355556 9:0.700000 10:0.144444 11:-0.155556 12:-0.144444 13:-0.055556 14:-0.055556 15:0.322222 16:1.111111 17:0.822222 18:0.822222 19:1.111111 20:0.822222 21:0.755556 22:0.766667 23:0.733333 24:0.444444 25:0.588889 26:0.288889 27:0.300000 28:-0.288889 29:-0.244444 30:0.100000 31:0.033333 32:-0.822222 33:-0.422222 34:-1.311111 35:-1.355556 36:-1.666667 37:-1.666667 38:-1.122222 39:-1.011111 40:-0.911111 41:-0.600000 42:-0.711111 43:0.177778 44:1.077778 45:1.666667 46:2.522222 47:2.488889 48:2.377778 49:2.844444 50:3.344444 51:3.566667 52:3.488889 
0.432909 1:-1.000000 2:-1.244444 3:-1.455556 4:-1.366667 5:-1.300000 6:-0.955556 7:-1.544444 8:-1.511111 9:-0.922222 10:-0.677778 11:-0.677778 12:-0.366667 13:-0.711111 14:-0.811111 15:-0.411111 16:-0.200000 17:-0.233333 18:-0.822222 19:-0.600000 20:-0.355556 21:-0.455556 22:0.400000 23:0.933333 24:1.077778 25:1.177778 26:1.211111 27:1.555556 28:1.044444 29:0.400000 30:0.777778 31:0.311111 32:0.155556 33:-0.388889 34:0.188889 35:0.733333 36:0.700000 37:0.988889 38:1.933333 39:2.233333 40:2.233333 41:2.533333 42:2.488889 43:2.488889 44:2.488889 45:2.766667 46:2.844444 47:2.544444 48:2.466667 49:2.411111 50:2.333333 51:2.888889 52:2.244444 
1.067429 1:-2.088889 2:-2.000000 3:-2.288889 4:-1.900000 5:-1.900000 6:-1.311111 7:-1.311111 8:-1.066667 9:-1.066667 10:-0.777778 11:-1.077778 12:-0.733333 13:-0.777778 14:-0.466667 15:-0.744444 16:-0.744444 17:-0.477778 18:-0.011111 19:-0.611111 20:-0.611111 21:-0.911111 22:-0.400000 23:-0.711111 24:-0.133333 25:-0.177778 26:-1.077778 27:-1.544444 28:-1.544444 29:-1.600000 30:-1.011111 31:-1.477778 32:-0.888889 33:-1.188889 34:-0.255556 35:0.677778 36:0.644444 37:1.233333 38:2.144444 39:2.444444 40:2.911111 41:2.622222 42:2.888889 43:2.811111 44:2.233333 45:2.266667 46:2.022222 47:1.755556 48:1.722222 49:1.200000 50:1.500000 51:1.455556 52:1.344444 
0.595054 1:-0.688889 2:-1.233333 3:-0.722222 4:-1.144444 5:-1.422222 6:-1.422222 7:-0.777778 8:-0.566667 9:-0.522222 10:-0.488889 11:0.022222 12:-0.833333 13:-0.788889 14:-0.211111 15:-0.155556 16:-1.066667 17:-0.966667 18:-0.155556 19:0.188889 20:-0.666667 21:-0.666667 22:-0.211111 23:-0.800000 24:-0.800000 25:-0.155556 26:-0.222222 27:-0.688889 28:-0.611111 29:-0.666667 30:-0.366667 31:-1.166667 32:-0.877778 33:-0.577778 34:-0.822222 35:-0.477778 36:-0.577778 37:-1.033333 38:-0.388889 39:0.122222 40:0.988889 41:1.211111 42:1.766667 43:2.233333 44:2.455556 45:2.800000 46:3.288889 47:3.288889 48:3.288889 49:2.688889 50:1.877778 51:1.322222 52:1.322222 
0.295772 1:0.177778 2:-0.077778 3:-0.666667 4:-0.311111 5:0.266667 6:0.655556 7:0.866667 8:1.000000 9:1.000000 10:0.211111 11:-0.177778 12:0.377778 13:0.055556 14:-0.833333 15:-1.588889 16:-1.488889 17:-1.833333 18:-1.822222 19:-0.922222 20:-0.022222 21:-0.877778 22:-0.922222 23:-0.611111 24:-0.555556 25:-0.011111 26:0.577778 27:0.855556 28:0.344444 29:-0.511111 30:0.077778 31:0.088889 32:0.077778 33:0.022222 34:-0.533333 35:-0.311111 36:-0.600000 37:-1.000000 38:-0.655556 39:-0.544444 40:-0.188889 41:0.366667 42:0.733333 43:1.322222 44:1.111111 45:1.700000 46:2.566667 47:3.077778 48:2.688889 49:2.722222 50:2.166667 51:2.744444 52:2.666667 
0.589807 1:-0.311111 2:-0.244444 3:-0.555556 4:-0.555556 5:-0.855556 6:-0.966667 7:-0.755556 8:-1.133333 9:-1.133333 10:-1.133333 11:-0.633333 12:-0.288889 13:-0.422222 14:0.166667 15:-0.233333 16:-0.233333 17:0.366667 18:0.711111 19:0.466667 20:-0.344444 21:-0.100000 22:-0.311111 23:-0.311111 24:-0.666667 25:0.011111 26:0.088889 27:0.444444 28:0.400000 29:0.644444 30:0.800000 31:1.611111 32:1.233333 33:2.177778 34:2.100000 35:1.800000 36:1.311111 37:1.822222 38:2.166667 39:2.233333 40:1.733333 41:2.333333 42:2.255556 43:1.444444 44:1.666667 45:2.266667 46:2.266667 47:1.677778 48:1.611111 49:1.300000 50:0.433333 51:0.433333 52:1.244444 
0.959596 1:0.211111 2:0.111111 3:0.000000 4:0.588889 5:0.988889 6:1.888889 7:1.000000 8:0.900000 9:0.155556 10:-0.144444 11:-0.400000 12:-1.200000 13:-0.977778 14:-1.722222 15:-1.988889 16:-1.988889 17:-2.200000 18:-1.988889 19:-1.988889 20:-1.088889 21:-1.033333 22:-0.988889 23:-0.177778 24:-0.022222 25:0.277778 26:1.166667 27:1.300000 28:2.044444 29:1.488889 30:2.077778 31:1.811111 32:1.211111 33:0.411111 34:0.922222 35:0.733333 36:0.600000 37:0.666667 38:1.222222 39:0.922222 40:0.922222 41:1.566667 42:2.433333 43:2.433333 44:2.544444 45:2.544444 46:2.544444 47:2.500000 48:3.022222 49:3.244444 50:2.388889 51:1.888889 52:1.077778 
0.441765 1:-0.400000 2:-0.488889 3:-0.033333 4:0.033333 5:-0.222222 6:0.588889 7:-0.200000 8:0.066667 9:-0.033333 10:0.866667 11:0.611111 12:0.155556 13:-0.344444 14:0.000000 15:-0.511111 16:-0.122222 17:-0.733333 18:-0.977778 19:-1.533333 20:-1.277778 21:-1.488889 22:-1.588889 23:-1.188889 24:-0.677778 25:-0.711111 26:-0.955556 27:-0.955556 28:-0.955556 29:-1.166667 30:-1.222222 31:-0.766667 32:-1.122222 33:-1.344444 34:-1.655556 35:-1.311111 36:-1.100000 37:-0.733333 38:0.077778 39:0.722222 40:0.911111 41:1.377778 42:1.388889 43:2.200000 44:2.666667 45:3.266667 46:3.455556 47:3.344444 48:3.566667 49:3.522222 50:3.300000 51:3.044444 52:3.088889 
0.310803 1:-1.166667 2:-0.811111 3:-0.211111 4:-0.477778 5:0.333333 6:-0.300000 7:-0.300000 8:-0.055556 9:0.855556 10:0.588889 11:0.133333 12:-0.366667 13:-0.311111 14:-1.122222 15:-0.766667 16:-0.811111 17:-0.811111 18:-1.666667 19:-1.022222 20:-1.022222 21:-1.333333 22:-1.122222 23:-0.233333 24:0.155556 25:-0.344444 26:-0.288889 27:-0.288889 28:-0.877778 29:-0.788889 30:-0.122222 31:-0.033333 32:-0.622222 33:-1.111111 34:-1.077778 35:-1.033333 36:-0.366667 37:-0.422222 38:0.088889 39:0.122222 40:0.633333 41:0.633333 42:0.733333 43:1.277778 44:1.144444 45:1.333333 46:2.200000 47:1.677778 48:1.288889 49:1.288889 50:1.800000 51:1.833333 52:1.244444 
0.457798 1:-0.000000 2:-0.000000 3:-0.311111 4:-0.266667 5:-0.522222 6:0.366667 7:-0.333333 8:0.211111 9:0.422222 10:0.077778 11:-0.133333 12:0.566667 13:-0.288889 14:0.100000 15:-0.788889 16:-0.788889 17:-1.433333 18:-2.244444 19:-1.388889 20:-1.177778 21:-1.922222 22:-1.111111 23:-1.455556 24:-1.500000 25:-1.200000 26:-0.522222 27:-0.222222 28:-0.733333 29:-0.633333 30:-0.288889 31:-0.888889 32:-0.933333 33:-0.944444 34:-1.244444 35:-1.388889 36:-0.877778 37:-1.011111 38:-0.511111 39:-0.222222 40:0.422222 41:0.811111 42:1.755556 43:2.344444 44:2.300000 45:2.188889 46:2.788889 47:2.577778 48:2.300000 49:2.144444 50:2.611111 51:2.311111 52:2.022222 
0.836732 1:0.233333 2:0.744444 3:1.411111 4:1.411111 5:0.555556 6:0.611111 7:-0.255556 8:-0.300000 9:-0.855556 10:-1.155556 11:-1.711111 12:-1.788889 13:-1.711111 14:-1.455556 15:-0.600000 16:-0.200000 17:0.144444 18:0.055556 19:0.400000 20:0.100000 21:-0.188889 22:-0.588889 23:-0.488889 24:-1.044444 25:-1.044444 26:-1.055556 27:-1.322222 28:-1.322222 29:-0.977778 30:-1.277778 31:-1.311111 32:-1.411111 33:-1.411111 34:-1.544444 35:-1.022222 36:-0.300000 37:0.166667 38:0.633333 39:1.444444 40:1.944444 41:2.544444 42:3.055556 43:3.655556 44:3.655556 45:3.877778 46:3.877778 47:3.011111 48:3.011111 49:3.011111 50:2.144444 51:2.222222 52:2.222222 
0.152667 1:0.800000 2:0.455556 3:-0.444444 4:-0.333333 5:-0.333333 6:-0.277778 7:-0.544444 8:-0.433333 9:-1.288889 10:-1.077778 11:-1.133333 12:-1.088889 13:-1.944444 14:-1.633333 15:-1.333333 16:-1.177778 17:-1.988889 18:-1.400000 19:-1.611111 20:-1.344444 21:-1.044444 22:-1.100000 23:-1.111111 24:-1.411111 25:-1.300000 26:-1.000000 27:-1.277778 28:-0.977778 29:-0.844444 30:-0.333333 31:-0.333333 32:0.111111 33:0.111111 34:-0.433333 35:-0.433333 36:-0.800000 37:-0.888889 38:-0.422222 39:-0.422222 40:0.222222 41:0.288889 42:1.100000 43:1.600000 44:2.111111 45:2.833333 46:3.511111 47:3.000000 48:3.000000 49:2.655556 50:2.655556 51:2.655556 52:2.655556 
0.676759 1:0.800000 2:0.455556 3:-0.400000 4:-1.188889 5:-0.333333 6:-0.277778 7:-1.133333 8:-1.533333 9:-0.722222 10:-1.577778 11:-1.366667 12:-0.777778 13:-0.733333 14:-1.588889 15:-1.277778 16:-0.422222 17:0.022222 18:-0.788889 19:-0.488889 20:-0.111111 21:-0.700000 22:-0.488889 23:-0.188889 24:-0.555556 25:-1.066667 26:-1.811111 27:-1.811111 28:-1.522222 29:-1.522222 30:-1.522222 31:-1.422222 32:-1.511111 33:-1.511111 34:-0.966667 35:-0.755556 36:-0.455556 37:-1.100000 38:-0.877778 39:-0.066667 40:0.211111 41:0.888889 42:1.755556 43:1.677778 44:2.166667 45:2.677778 46:3.544444 47:3.322222 48:3.111111 49:3.333333 50:3.255556 51:2.755556 52:2.755556 
0.596388 1:0.388889 2:1.322222 3:1.277778 4:1.488889 5:1.477778 6:1.411111 7:1.411111 8:1.455556 9:1.488889 10:0.933333 11:0.255556 12:0.544444 13:0.544444 14:0.900000 15:0.366667 16:0.922222 17:0.066667 18:-0.122222 19:-0.422222 20:-0.633333 21:-0.877778 22:-0.877778 23:-0.588889 24:0.011111 25:-0.255556 26:-0.044444 27:-0.155556 28:0.055556 29:0.944444 30:0.900000 31:1.033333 32:0.744444 33:0.788889 34:0.144444 35:0.744444 36:0.500000 37:0.633333 38:0.411111 39:0.355556 40:0.866667 41:1.422222 42:1.377778 43:1.777778 44:1.777778 45:2.288889 46:2.755556 47:2.433333 48:3.000000 49:2.811111 50:2.544444 51:2.022222 52:2.377778 
1.054521 1:-1.444444 2:-0.544444 3:-0.500000 4:-0.722222 5:-0.411111 6:-1.266667 7:-1.166667 8:-0.222222 9:0.455556 10:1.200000 11:1.200000 12:2.088889 13:1.422222 14:1.355556 15:1.566667 16:2.033333 17:1.955556 18:1.066667 19:0.322222 20:-0.577778 21:-1.466667 22:-0.611111 23:0.000000 24:0.644444 25:0.422222 26:-0.044444 27:0.300000 28:0.600000 29:0.888889 30:1.700000 31:1.055556 32:0.200000 33:-0.355556 34:-0.644444 35:-0.100000 36:0.222222 37:0.811111 38:1.455556 39:1.455556 40:1.833333 41:1.833333 42:2.344444 43:2.933333 44:2.644444 45:2.866667 46:2.288889 47:2.255556 48:2.033333 49:1.400000 50:2.100000 51:2.100000 52:1.211111 
0.660852 1:0.077778 2:-0.811111 3:-1.166667 4:-0.222222 5:0.455556 6:1.200000 7:1.200000 8:1.800000 9:1.133333 10:1.066667 11:1.922222 12:2.277778 13:1.988889 14:1.055556 15:0.311111 16:-0.200000 17:-0.800000 18:0.088889 19:0.700000 20:0.700000 21:0.344444 22:0.088889 23:0.344444 24:0.344444 25:0.344444 26:0.933333 27:0.388889 28:-0.466667 29:-1.322222 30:-0.811111 31:-0.566667 32:-0.477778 33:0.222222 34:0.466667 35:0.733333 36:1.244444 37:1.833333 38:2.133333 39:1.866667 40:2.022222 41:2.533333 42:2.688889 43:2.955556 44:2.911111 45:2.644444 46:2.366667 47:2.922222 48:2.277778 49:1.822222 50:1.822222 51:1.777778 52:1.666667 
1.701401 1:0.266667 2:0.222222 3:-0.588889 4:-1.133333 5:-0.622222 6:-0.922222 7:0.011111 8:0.322222 9:0.355556 10:0.366667 11:0.066667 12:0.411111 13:0.911111 14:0.644444 15:1.500000 16:0.911111 17:0.911111 18:0.911111 19:0.900000 20:1.200000 21:1.555556 22:1.044444 23:0.666667 24:0.022222 25:0.066667 26:0.000000 27:-0.888889 28:-0.333333 29:-0.333333 30:-0.333333 31:0.033333 32:0.633333 33:1.277778 34:1.533333 35:2.144444 36:2.955556 37:2.911111 38:3.311111 39:3.200000 40:3.388889 41:2.577778 42:2.033333 43:1.777778 44:1.733333 45:1.166667 46:1.055556 47:0.655556 48:0.922222 49:0.022222 50:0.333333 51:0.022222 52:0.566667 
0.116227 1:-1.255556 2:-0.866667 3:-1.777778 4:-1.411111 5:-0.522222 6:-0.766667 7:-0.466667 8:-0.122222 9:0.233333 10:-0.066667 11:-0.200000 12:0.444444 13:-0.222222 14:-0.766667 15:-0.766667 16:-1.155556 17:-1.444444 18:-2.144444 19:-2.144444 20:-1.500000 21:-1.500000 22:-1.555556 23:-1.200000 24:-0.955556 25:-0.577778 26:0.011111 27:0.600000 28:1.200000 29:0.644444 30:0.400000 31:1.044444 32:0.688889 33:0.655556 34:0.355556 35:0.355556 36:0.355556 37:0.044444 38:-0.044444 39:0.311111 40:0.533333 41:1.000000 42:1.088889 43:1.611111 44:1.611111 45:1.833333 46:2.144444 47:2.744444 48:2.855556 49:2.333333 50:2.333333 51:2.844444 52:2.333333 
0.602828 1:-1.777778 2:-1.411111 3:-0.522222 4:-0.766667 5:-0.466667 6:-0.122222 7:0.233333 8:-0.066667 9:-0.111111 10:0.255556 11:-0.411111 12:-0.955556 13:-0.955556 14:-1.344444 15:-1.633333 16:-2.333333 17:-2.333333 18:-1.777778 19:-1.233333 20:-1.277778 21:-0.922222 22:-0.677778 23:-0.300000 24:0.000000 25:0.700000 26:1.300000 27:0.755556 28:0.200000 29:0.588889 30:0.200000 31:0.811111 32:0.433333 33:0.877778 34:0.766667 35:0.755556 36:1.300000 37:1.811111 38:2.277778 39:2.822222 40:2.177778 41:2.266667 42:2.333333 43:2.333333 44:1.955556 45:1.955556 46:1.955556 47:1.444444 48:1.400000 49:1.477778 50:1.988889 51:1.388889 52:1.144444 
0.415672 1:-0.133333 2:-1.022222 3:-0.722222 4:-0.422222 5:-1.355556 6:-1.366667 7:-1.611111 8:-1.400000 9:-1.844444 10:-2.244444 11:-1.944444 12:-2.233333 13:-2.533333 14:-2.188889 15:-1.677778 16:-1.677778 17:-1.033333 18:-1.377778 19:-1.077778 20:-1.166667 21:-0.822222 22:-0.522222 23:-0.822222 24:-1.633333 25:-1.688889 26:-2.544444 27:-2.500000 28:-2.744444 29:-2.611111 30:-2.600000 31:-2.011111 32:-1.422222 33:-0.722222 34:-0.711111 35:-0.400000 36:-0.100000 37:0.244444 38:0.600000 39:1.144444 40:1.144444 41:1.366667 42:1.477778 43:2.411111 44:2.400000 45:2.700000 46:3.244444 47:3.133333 48:2.866667 49:2.322222 50:2.400000 51:2.400000 52:2.322222 
0.916923 1:-1.355556 2:-0.755556 3:-0.400000 4:0.455556 5:0.155556 6:0.155556 7:0.077778 8:0.133333 9:0.477778 10:0.177778 11:-0.633333 12:-0.944444 13:-1.755556 14:-2.344444 15:-1.755556 16:-2.566667 17:-2.566667 18:-2.911111 19:-2.955556 20:-2.955556 21:-2.955556 22:-2.144444 23:-2.188889 24:-2.833333 25:-2.877778 26:-2.133333 27:-2.188889 28:-2.144444 29:-1.844444 30:-1.255556 31:-1.766667 32:-0.833333 33:-0.477778 34:-0.088889 35:-0.622222 36:0.244444 37:1.055556 38:0.966667 39:1.188889 40:1.233333 41:1.155556 42:1.522222 43:1.988889 44:2.588889 45:2.477778 46:2.366667 47:2.466667 48:2.355556 49:2.311111 50:2.311111 51:2.344444 52:2.233333 
0.658962 1:-0.844444 2:-0.844444 3:-0.844444 4:-0.933333 5:-0.944444 6:-0.655556 7:-0.311111 8:-0.900000 9:-0.888889 10:-0.888889 11:-0.377778 12:0.133333 13:-0.122222 14:-0.122222 15:-0.122222 16:0.166667 17:0.466667 18:0.744444 19:0.755556 20:0.244444 21:-0.266667 22:0.077778 23:-0.222222 24:-0.511111 25:-0.800000 26:-0.800000 27:-1.433333 28:-1.444444 29:-1.788889 30:-1.744444 31:-1.455556 32:-0.866667 33:-0.822222 34:-0.233333 35:0.355556 36:0.400000 37:0.988889 38:1.244444 39:1.711111 40:2.011111 41:2.122222 42:1.722222 43:1.422222 44:1.344444 45:1.933333 46:1.044444 47:1.644444 48:1.077778 49:0.188889 50:0.300000 51:1.211111 52:1.433333 
0.954946 1:0.533333 2:1.422222 3:0.866667 4:0.566667 5:0.566667 6:0.566667 7:0.500000 8:-0.244444 9:-1.100000 10:-1.766667 11:-2.311111 12:-1.800000 13:-1.455556 14:-1.211111 15:-0.911111 16:-0.855556 17:-0.111111 18:0.822222 19:1.133333 20:1.100000 21:0.244444 22:0.200000 23:0.211111 24:0.500000 25:0.788889 26:0.255556 27:-0.422222 28:-0.433333 29:-0.077778 30:0.311111 31:0.822222 32:0.522222 33:0.144444 34:0.366667 35:0.966667 36:1.611111 37:2.122222 38:2.311111 39:2.822222 40:2.322222 41:2.611111 42:3.211111 43:2.700000 44:2.200000 45:2.155556 46:2.155556 47:1.600000 48:1.555556 49:1.555556 50:0.966667 51:0.466667 52:0.466667 
0.002388 1:-1.388889 2:-1.433333 3:-2.177778 4:-2.522222 5:-2.222222 6:-1.366667 7:-1.511111 8:-1.266667 9:-0.922222 10:-1.222222 11:-0.866667 12:-0.866667 13:-0.055556 14:-0.044444 15:-0.544444 16:-1.211111 17:-1.144444 18:-0.844444 19:-0.633333 20:-0.944444 21:-0.944444 22:-1.800000 23:-1.800000 24:-1.411111 25:-0.555556 26:-0.866667 27:-1.466667 28:-1.722222 29:-1.133333 30:-0.544444 31:-0.155556 32:-0.166667 33:-0.922222 34:-1.033333 35:-1.088889 36:-0.500000 37:0.133333 38:-0.511111 39:-0.211111 40:0.255556 41:0.166667 42:0.811111 43:0.922222 44:1.188889 45:1.488889 46:1.755556 47:2.622222 48:2.544444 49:1.688889 50:2.288889 51:2.511111 52:2.466667 
0.065160 1:-0.944444 2:-1.800000 3:-1.500000 4:-1.544444 5:-1.544444 6:-1.077778 7:-1.588889 8:-0.944444 9:-0.866667 10:-0.166667 11:0.144444 12:-0.155556 13:0.700000 14:1.011111 15:0.511111 16:0.211111 17:0.500000 18:0.722222 19:0.233333 20:0.266667 21:0.566667 22:-0.244444 23:-0.600000 24:-0.055556 25:0.833333 26:-0.100000 27:-0.777778 28:-0.988889 29:-1.033333 30:-0.988889 31:-0.777778 32:-0.433333 33:-1.344444 34:-1.644444 35:-1.655556 36:-1.655556 37:-1.355556 38:-1.066667 39:-0.822222 40:-0.222222 41:-0.211111 42:0.700000 43:0.922222 44:1.277778 45:1.922222 46:2.433333 47:2.444444 48:2.666667 49:1.811111 50:1.500000 51:1.233333 52:1.233333 
0.696062 1:-0.611111 2:-0.911111 3:-1.800000 4:-1.500000 5:-1.544444 6:-1.544444 7:-1.077778 8:-1.588889 9:-0.944444 10:-0.866667 11:-0.166667 12:0.144444 13:-0.155556 14:0.700000 15:1.011111 16:0.511111 17:0.211111 18:0.500000 19:0.133333 20:-0.355556 21:-0.322222 22:-0.022222 23:-0.877778 24:-1.233333 25:-0.688889 26:0.200000 27:-0.733333 28:-0.222222 29:-0.188889 30:-0.233333 31:-0.188889 32:0.155556 33:0.866667 34:-0.044444 35:-0.344444 36:-0.355556 37:-0.355556 38:-0.300000 39:-0.288889 40:-0.044444 41:0.466667 42:0.111111 43:0.755556 44:0.977778 45:1.244444 46:1.244444 47:1.755556 48:2.044444 49:2.311111 50:1.811111 51:2.311111 52:2.311111 
1.030661 1:0.833333 2:-0.033333 3:0.355556 4:1.100000 5:0.811111 6:-0.077778 7:0.144444 8:0.255556 9:0.600000 10:0.000000 11:0.055556 12:-0.355556 13:-0.888889 14:-0.444444 15:-0.233333 16:-0.733333 17:-0.733333 18:-0.444444 19:0.411111 20:1.011111 21:1.311111 22:1.844444 23:1.100000 24:0.888889 25:0.577778 26:-0.122222 27:-0.500000 28:-0.766667 29:-0.511111 30:-1.155556 31:-1.688889 32:-1.688889 33:-1.477778 34:-1.188889 35:-0.333333 36:-0.333333 37:-0.622222 38:-0.666667 39:0.088889 40:0.177778 41:0.844444 42:0.944444 43:1.466667 44:0.822222 45:1.422222 46:2.011111 47:2.011111 48:2.122222 49:2.633333 50:2.266667 51:2.766667 52:2.244444 
0.309999 1:1.377778 2:0.511111 3:0.355556 4:1.100000 5:0.455556 6:-0.433333 7:-0.211111 8:-0.100000 9:0.244444 10:-0.355556 11:-0.300000 12:-0.711111 13:-0.866667 14:-0.811111 15:-0.511111 16:-1.011111 17:-1.011111 18:-1.011111 19:-0.155556 20:0.700000 21:0.411111 22:-0.177778 23:-0.177778 24:-0.477778 25:-0.488889 26:-1.188889 27:-1.277778 28:-1.544444 29:-1.588889 30:-1.644444 31:-0.833333 32:-0.833333 33:-0.622222 34:-0.977778 35:-0.166667 36:-0.166667 37:0.133333 38:0.133333 39:0.488889 40:0.377778 41:0.677778 42:1.355556 43:2.222222 44:1.622222 45:2.222222 46:2.222222 47:2.222222 48:2.733333 49:2.033333 50:2.044444 51:1.966667 52:1.444444 
0.596195 1:-0.055556 2:-0.144444 3:0.166667 4:0.122222 5:0.088889 6:-0.022222 7:0.322222 8:-0.422222 9:-1.233333 10:-1.288889 11:-0.688889 12:-0.188889 13:-0.200000 14:-0.711111 15:-1.000000 16:-1.033333 17:-1.088889 18:-0.277778 19:0.077778 20:-0.433333 21:-1.244444 22:-0.877778 23:-0.922222 24:-0.922222 25:-1.022222 26:-0.377778 27:-0.600000 28:-0.688889 29:-0.322222 30:0.422222 31:0.111111 32:0.400000 33:0.688889 34:0.777778 35:1.000000 36:1.222222 37:1.011111 38:1.155556 39:0.700000 40:1.511111 41:1.133333 42:0.755556 43:0.766667 44:0.766667 45:0.544444 46:1.400000 47:1.400000 48:1.411111 49:1.344444 50:1.833333 51:2.222222 52:2.511111 
0.632560 1:0.333333 2:1.088889 3:1.011111 4:0.500000 5:0.844444 6:0.788889 7:0.411111 8:-0.266667 9:0.588889 10:0.811111 11:0.922222 12:0.333333 13:0.033333 14:0.500000 15:0.211111 16:0.211111 17:0.000000 18:-0.511111 19:-1.322222 20:-1.922222 21:-1.922222 22:-1.177778 23:-1.688889 24:-0.877778 25:-0.277778 26:-0.277778 27:0.233333 28:0.533333 29:0.622222 30:0.933333 31:0.533333 32:0.177778 33:-0.044444 34:-0.044444 35:-0.044444 36:-0.955556 37:-1.311111 38:-1.311111 39:-0.811111 40:-0.344444 41:0.011111 42:0.311111 43:0.311111 44:0.522222 45:1.433333 46:2.300000 47:2.588889 48:2.588889 49:1.988889 50:2.277778 51:2.200000 52:2.200000 
0.540970 1:-1.711111 2:-1.700000 3:-0.833333 4:-0.133333 5:0.177778 6:-0.544444 7:-0.544444 8:-0.922222 9:-0.955556 10:-0.088889 11:-0.044444 12:-0.511111 13:-0.622222 14:-0.044444 15:0.011111 16:0.600000 17:1.088889 18:0.422222 19:-0.088889 20:0.722222 21:0.377778 22:-0.000000 23:-0.588889 24:0.266667 25:0.488889 26:-0.211111 27:-0.211111 28:-0.511111 29:-1.011111 30:-0.422222 31:-0.288889 32:0.077778 33:-0.111111 34:-0.222222 35:-0.011111 36:-0.066667 37:0.788889 38:0.777778 39:0.477778 40:0.944444 41:0.522222 42:0.444444 43:0.555556 44:0.655556 45:1.300000 46:1.255556 47:1.544444 48:2.066667 49:1.255556 50:1.600000 51:1.822222 52:1.822222 
0.004947 1:-0.544444 2:-0.544444 3:-0.922222 4:-0.955556 5:-0.088889 6:-0.044444 7:-0.511111 8:-0.622222 9:-0.044444 10:0.011111 11:0.600000 12:1.088889 13:0.422222 14:-0.088889 15:0.211111 16:-0.133333 17:-0.511111 18:-1.100000 19:-0.244444 20:-0.022222 21:-0.722222 22:-0.722222 23:-1.022222 24:-1.033333 25:-1.033333 26:-1.033333 27:-1.088889 28:-1.944444 29:-2.755556 30:-2.166667 31:-1.822222 32:-1.155556 33:-0.777778 34:-0.077778 35:0.522222 36:0.566667 37:1.422222 38:1.722222 39:1.433333 40:1.688889 41:1.322222 42:1.544444 43:1.655556 44:1.155556 45:1.455556 46:1.411111 47:1.700000 48:2.211111 49:1.611111 50:1.900000 51:1.822222 52:1.822222 
0.124396 1:0.333333 2:0.122222 3:-0.522222 4:-1.011111 5:-0.511111 6:-0.300000 7:-0.677778 8:0.177778 9:-0.377778 10:-0.100000 11:-0.155556 12:0.222222 13:0.222222 14:-0.277778 15:-0.177778 16:-0.077778 17:-0.722222 18:-0.677778 19:-1.055556 20:-1.000000 21:-1.288889 22:-1.188889 23:-1.155556 24:-1.466667 25:-1.822222 26:-1.733333 27:-1.866667 28:-2.077778 29:-1.733333 30:-2.033333 31:-2.033333 32:-2.433333 33:-1.577778 34:-0.944444 35:-0.433333 36:-0.344444 37:0.466667 38:0.933333 39:1.744444 40:1.733333 41:2.377778 42:2.222222 43:2.222222 44:1.722222 45:2.277778 46:2.166667 47:1.944444 48:1.433333 49:1.944444 50:2.166667 51:2.277778 52:2.500000 
0.161729 1:-1.822222 2:-1.266667 3:-0.622222 4:-0.111111 5:-0.111111 6:0.100000 7:0.744444 8:0.388889 9:1.244444 10:1.166667 11:0.311111 12:0.533333 13:0.066667 14:0.277778 15:0.955556 16:0.677778 17:0.677778 18:-0.233333 19:-0.744444 20:-0.444444 21:-0.666667 22:-0.711111 23:-0.066667 24:-0.955556 25:-0.377778 26:-0.011111 27:0.044444 28:0.088889 29:0.100000 30:-0.277778 31:-0.277778 32:-0.822222 33:-0.233333 34:-0.777778 35:-0.388889 36:0.422222 37:0.888889 38:1.166667 39:1.244444 40:1.155556 41:1.444444 42:1.666667 43:2.133333 44:2.244444 45:1.644444 46:1.722222 47:1.944444 48:2.466667 49:2.844444 50:2.244444 51:2.244444 52:2.133333 
0.468204 1:-1.288889 2:-1.377778 3:-1.100000 4:-0.511111 5:-0.455556 6:-0.455556 7:-0.088889 8:-0.444444 9:0.111111 10:0.922222 11:0.711111 12:1.011111 13:0.466667 14:0.677778 15:0.755556 16:0.755556 17:0.766667 18:-0.133333 19:-0.644444 20:0.211111 21:-0.677778 22:-1.022222 23:-1.022222 24:-1.911111 25:-1.911111 26:-1.566667 27:-1.522222 28:-1.477778 29:-2.022222 30:-1.811111 31:-1.866667 32:-2.077778 33:-1.766667 34:-1.733333 35:-1.333333 36:-0.522222 37:-0.055556 38:0.222222 39:0.300000 40:0.566667 41:0.877778 42:1.266667 43:1.622222 44:1.733333 45:1.133333 46:1.177778 47:1.288889 48:1.811111 49:2.188889 50:2.166667 51:2.277778 52:2.277778 
0.800163 1:-1.822222 2:-1.477778 3:-1.400000 4:-1.400000 5:-1.100000 6:-1.400000 7:-1.744444 8:-1.744444 9:-0.888889 10:-0.833333 11:-1.188889 12:-1.855556 13:-0.966667 14:-1.255556 15:-1.255556 16:-1.044444 17:-1.044444 18:-1.944444 19:-1.544444 20:-1.277778 21:-0.466667 22:-0.500000 23:0.055556 24:0.355556 25:0.488889 26:0.844444 27:1.477778 28:1.077778 29:1.466667 30:0.611111 31:0.055556 32:-0.488889 33:-0.477778 34:0.033333 35:0.577778 36:0.877778 37:0.866667 38:1.077778 39:1.333333 40:1.888889 41:1.877778 42:2.233333 43:2.188889 44:2.188889 45:1.644444 46:1.644444 47:1.044444 48:1.122222 49:1.077778 50:1.588889 51:0.866667 52:0.755556 
0.685738 1:0.888889 2:0.244444 3:-0.400000 4:-0.322222 5:-0.833333 6:-0.911111 7:-0.911111 8:-1.511111 9:-1.555556 10:-1.344444 11:-0.622222 12:0.022222 13:-0.344444 14:0.166667 15:0.244444 16:1.155556 17:1.244444 18:1.233333 19:1.233333 20:0.511111 21:-0.077778 22:-0.433333 23:-1.344444 24:-1.700000 25:-2.555556 26:-2.188889 27:-1.888889 28:-1.433333 29:-1.166667 30:-0.577778 31:0.288889 32:1.044444 33:0.733333 34:1.077778 35:1.000000 36:0.355556 37:0.500000 38:0.233333 39:0.311111 40:0.166667 41:0.055556 42:0.866667 43:1.377778 44:1.644444 45:2.366667 46:2.144444 47:2.544444 48:2.466667 49:2.388889 50:2.011111 51:1.788889 52:1.277778 
0.001256 1:0.366667 2:0.366667 3:0.366667 4:-0.488889 5:-0.444444 6:-0.411111 7:-1.022222 8:-0.466667 9:-0.155556 10:-0.077778 11:-0.566667 12:-0.355556 13:-0.066667 14:0.444444 15:0.100000 16:0.711111 17:0.522222 18:0.211111 19:-0.111111 20:-0.322222 21:0.055556 22:-0.188889 23:-0.455556 24:0.433333 25:-0.466667 26:-1.133333 27:-0.788889 28:-0.788889 29:-0.788889 30:-0.788889 31:-0.200000 32:-0.444444 33:-1.388889 34:-1.400000 35:-1.055556 36:-1.188889 37:-1.588889 38:-1.000000 39:-1.000000 40:-1.277778 41:-1.033333 42:-0.166667 43:0.744444 44:1.255556 45:1.633333 46:2.277778 47:2.500000 48:2.722222 49:3.000000 50:3.266667 51:3.044444 52:3.000000 
1.438790 1:0.655556 2:0.688889 3:0.022222 4:0.722222 5:0.133333 6:0.477778 7:-0.411111 8:0.222222 9:0.466667 10:-0.388889 11:-0.966667 12:-0.377778 13:-0.488889 14:0.111111 15:-0.288889 16:-0.344444 17:-0.644444 18:-1.288889 19:-1.288889 20:-1.655556 21:-1.644444 22:-1.922222 23:-1.933333 24:-1.066667 25:-0.422222 26:-0.400000 27:0.511111 28:0.822222 29:1.466667 30:1.455556 31:1.955556 32:2.177778 33:1.711111 34:2.011111 35:2.555556 36:2.511111 37:2.788889 38:2.788889 39:2.800000 40:2.577778 41:2.655556 42:3.122222 43:3.088889 44:3.088889 45:2.566667 46:2.788889 47:3.011111 48:3.222222 49:3.522222 50:2.944444 51:3.022222 52:2.377778 
0.235579 1:-1.233333 2:-1.600000 3:-1.644444 4:-1.288889 5:-1.300000 6:-1.844444 7:-1.933333 8:-1.066667 9:-0.711111 10:-0.266667 11:0.022222 12:0.533333 13:0.444444 14:0.844444 15:1.344444 16:1.433333 17:0.622222 18:0.311111 19:-0.433333 20:-0.677778 21:-1.488889 22:-1.744444 23:-1.777778 24:-2.288889 25:-2.000000 26:-1.411111 27:-1.111111 28:-0.444444 29:-0.577778 30:-0.577778 31:-0.322222 32:-0.422222 33:-0.411111 34:-0.300000 35:-0.077778 36:0.433333 37:-0.022222 38:0.577778 39:1.388889 40:1.988889 41:2.477778 42:2.977778 43:2.866667 44:2.866667 45:2.366667 46:3.011111 47:2.788889 48:1.922222 49:1.322222 50:0.566667 51:0.044444 52:-0.600000 
0.091678 1:-1.233333 2:-1.600000 3:-1.644444 4:-1.288889 5:-1.288889 6:-1.833333 7:-1.922222 8:-1.066667 9:-0.711111 10:-0.266667 11:0.022222 12:0.533333 13:0.444444 14:0.844444 15:1.344444 16:1.433333 17:0.622222 18:0.311111 19:-0.433333 20:-0.677778 21:-1.488889 22:-1.744444 23:-1.777778 24:-2.288889 25:-2.000000 26:-1.411111 27:-1.100000 28:-0.433333 29:-0.566667 30:-0.566667 31:-0.311111 32:0.122222 33:0.122222 34:0.233333 35:0.344444 36:0.844444 37:0.988889 38:1.477778 39:2.288889 40:2.933333 41:2.500000 42:3.011111 43:3.166667 44:3.277778 45:3.055556 46:2.833333 47:2.722222 48:1.855556 49:1.211111 50:0.844444 51:0.322222 52:-0.588889 
0.860131 1:-1.233333 2:-1.600000 3:-1.644444 4:-1.288889 5:-1.288889 6:-1.833333 7:-1.922222 8:-1.066667 9:-0.133333 10:0.311111 11:0.600000 12:1.111111 13:1.022222 14:1.422222 15:1.922222 16:2.011111 17:1.200000 18:0.311111 19:-0.433333 20:-0.677778 21:-1.488889 22:-1.744444 23:-1.777778 24:-2.288889 25:-2.000000 26:-1.411111 27:-1.100000 28:-1.155556 29:-1.288889 30:-1.288889 31:-1.033333 32:-0.600000 33:-0.655556 34:-0.544444 35:-0.433333 36:0.066667 37:0.933333 38:1.422222 39:2.233333 40:2.722222 41:2.288889 42:2.855556 43:3.011111 44:3.122222 45:2.900000 46:2.677778 47:2.566667 48:1.700000 49:1.211111 50:0.844444 51:0.322222 52:-0.588889 
0.316946 1:-2.022222 2:-2.022222 3:-2.400000 4:-2.400000 5:-2.666667 6:-2.877778 7:-2.477778 8:-1.877778 9:-1.744444 10:-0.833333 11:-1.100000 12:-0.966667 13:-0.566667 14:-0.211111 15:0.133333 16:0.088889 17:-0.133333 18:-0.533333 19:-1.144444 20:-1.088889 21:-1.433333 22:-1.433333 23:-1.788889 24:-1.833333 25:-2.188889 26:-2.777778 27:-1.911111 28:-1.811111 29:-1.511111 30:-1.211111 31:-0.700000 32:-0.300000 33:0.211111 34:1.011111 35:1.322222 36:0.722222 37:1.188889 38:1.744444 39:2.255556 40:2.211111 41:2.677778 42:2.677778 43:2.144444 44:2.133333 45:2.511111 46:2.511111 47:1.966667 48:1.966667 49:1.966667 50:2.011111 51:2.011111 52:1.744444 
0.107888 1:-2.022222 2:-2.022222 3:-2.400000 4:-2.400000 5:-2.666667 6:-2.877778 7:-2.477778 8:-1.877778 9:-1.744444 10:-0.833333 11:-1.100000 12:-0.966667 13:-0.566667 14:-0.211111 15:0.133333 16:0.088889 17:-0.133333 18:-0.533333 19:-1.144444 20:-1.088889 21:-1.433333 22:-1.433333 23:-1.788889 24:-1.833333 25:-2.188889 26:-2.777778 27:-1.911111 28:-1.811111 29:-1.511111 30:-1.211111 31:-0.700000 32:-0.300000 33:0.211111 34:1.011111 35:1.600000 36:1.000000 37:0.600000 38:1.155556 39:1.555556 40:1.588889 41:2.055556 42:2.055556 43:1.522222 44:1.233333 45:1.611111 46:2.477778 47:1.933333 48:2.044444 49:1.966667 50:1.500000 51:1.500000 52:1.233333 
0.271567 1:-1.300000 2:-0.933333 3:-1.066667 4:-1.066667 5:-1.411111 6:-1.377778 7:-1.377778 8:-1.377778 9:-1.377778 10:-0.788889 11:-1.144444 12:-1.355556 13:-0.911111 14:-0.611111 15:-0.966667 16:-1.011111 17:-0.955556 18:-0.366667 19:-0.955556 20:-1.266667 21:-1.311111 22:-1.466667 23:-1.766667 24:-1.811111 25:-1.177778 26:-1.133333 27:-1.377778 28:-0.788889 29:-0.044444 30:0.588889 31:0.000000 32:0.588889 33:0.244444 34:-0.133333 35:-0.233333 36:0.233333 37:0.455556 38:0.300000 39:0.300000 40:1.111111 41:1.188889 42:2.122222 43:2.722222 44:3.177778 45:3.177778 46:2.955556 47:3.222222 48:2.633333 49:2.166667 50:1.500000 51:0.900000 52:0.033333 
0.510214 1:-0.600000 2:-0.088889 3:0.277778 4:0.144444 5:0.155556 6:-0.188889 7:-0.155556 8:-0.755556 9:-0.055556 10:0.800000 11:0.255556 12:-0.100000 13:-0.311111 14:-0.033333 15:0.177778 16:0.066667 17:0.922222 18:0.222222 19:-0.422222 20:-0.733333 21:-1.100000 22:-1.155556 23:-1.744444 24:-1.955556 25:-2.544444 26:-3.100000 27:-2.800000 28:-2.422222 29:-2.122222 30:-2.111111 31:-1.355556 32:-1.055556 33:-0.755556 34:-0.455556 35:0.055556 36:0.644444 37:0.355556 38:0.344444 39:0.688889 40:0.800000 41:1.355556 42:1.722222 43:2.022222 44:2.066667 45:1.988889 46:2.277778 47:2.800000 48:2.500000 49:1.633333 50:1.588889 51:1.166667 52:0.511111 
0.174135 1:-0.644444 2:-0.288889 3:-0.544444 4:-0.844444 5:-0.788889 6:-1.155556 7:-0.844444 8:-1.066667 9:-1.433333 10:-2.155556 11:-2.455556 12:-2.200000 13:-1.855556 14:-1.544444 15:-1.544444 16:-1.555556 17:-1.844444 18:-1.577778 19:-1.222222 20:-0.922222 21:-0.833333 22:-0.877778 23:-0.888889 24:-0.888889 25:-0.522222 26:-0.577778 27:-0.833333 28:-0.388889 29:0.200000 30:-0.100000 31:-0.055556 32:0.344444 33:0.788889 34:0.466667 35:0.522222 36:1.377778 37:1.488889 38:1.455556 39:2.266667 40:2.622222 41:2.777778 42:2.333333 43:2.800000 44:2.800000 45:2.800000 46:2.833333 47:2.788889 48:2.788889 49:2.433333 50:2.388889 51:2.900000 52:2.088889 
0.984949 1:-1.477778 2:-1.477778 3:-1.966667 4:-1.966667 5:-1.377778 6:-1.877778 7:-1.877778 8:-1.877778 9:-1.566667 10:-1.266667 11:-1.266667 12:-1.477778 13:-1.688889 14:-2.577778 15:-2.588889 16:-1.700000 17:-1.400000 18:-1.711111 19:-1.122222 20:-0.811111 21:-0.511111 22:-0.211111 23:0.377778 24:0.288889 25:-0.388889 26:-0.388889 27:-0.088889 28:-0.233333 29:0.344444 30:0.855556 31:0.766667 32:0.133333 33:-0.077778 34:0.522222 35:0.522222 36:0.511111 37:0.433333 38:0.355556 39:0.244444 40:0.844444 41:1.700000 42:2.000000 43:2.077778 44:2.477778 45:2.488889 46:1.822222 47:1.755556 48:1.344444 49:0.488889 50:-0.077778 51:0.433333 52:0.355556 
0.724373 1:-0.266667 2:0.666667 3:1.255556 4:0.944444 5:1.288889 6:1.555556 7:1.366667 8:2.255556 9:1.400000 10:1.322222 11:1.133333 12:1.355556 13:1.311111 14:1.177778 15:0.533333 16:0.466667 17:-0.422222 18:-0.111111 19:-0.700000 20:-1.400000 21:-2.000000 22:-1.955556 23:-1.277778 24:-0.788889 25:-1.144444 26:-1.144444 27:-0.866667 28:-0.566667 29:-0.355556 30:-0.266667 31:0.044444 32:-0.033333 33:-0.433333 34:-0.088889 35:0.222222 36:0.233333 37:0.633333 38:1.311111 39:1.866667 40:1.855556 41:1.933333 42:2.444444 43:2.555556 44:3.055556 45:3.344444 46:3.533333 47:2.944444 48:2.388889 49:2.944444 50:2.644444 51:2.133333 52:2.244444 
0.421624 1:-0.988889 2:-0.088889 3:0.588889 4:0.844444 5:1.488889 6:1.000000 7:1.433333 8:1.422222 9:1.166667 10:1.377778 11:0.822222 12:-0.066667 13:0.033333 14:-0.511111 15:-0.722222 16:-1.166667 17:-1.166667 18:-1.466667 19:-1.377778 20:-0.822222 21:-0.611111 22:-0.611111 23:-0.033333 24:-0.033333 25:-0.022222 26:-0.322222 27:-0.622222 28:-0.922222 29:-1.433333 30:-1.344444 31:-1.355556 32:-1.355556 33:-0.500000 34:-0.500000 35:-0.155556 36:0.188889 37:0.144444 38:0.100000 39:0.688889 40:1.200000 41:1.011111 42:0.500000 43:1.000000 44:1.544444 45:2.055556 46:2.400000 47:2.700000 48:2.666667 49:2.711111 50:2.822222 51:3.177778 52:2.966667 
2.938092 1:-0.211111 2:-0.322222 3:0.477778 4:0.288889 5:0.866667 6:0.866667 7:0.544444 8:0.888889 9:0.922222 10:1.622222 11:1.577778 12:1.044444 13:0.377778 14:-0.166667 15:-0.511111 16:-0.644444 17:-0.133333 18:-0.477778 19:-0.511111 20:-0.866667 21:-1.077778 22:-0.377778 23:-0.133333 24:0.166667 25:0.655556 26:-0.200000 27:0.088889 28:-0.577778 29:-0.577778 30:-0.333333 31:-0.688889 32:-0.966667 33:-0.522222 34:-1.222222 35:-0.877778 36:-0.922222 37:-0.622222 38:-0.666667 39:-0.611111 40:-1.011111 41:-1.366667 42:-1.222222 43:-0.911111 44:-1.255556 45:-0.911111 46:-0.622222 47:-0.066667 48:0.444444 49:1.311111 50:2.055556 51:1.411111 52:1.044444 
0.138694 1:-0.211111 2:-0.322222 3:0.477778 4:0.288889 5:0.866667 6:0.866667 7:0.544444 8:0.888889 9:0.922222 10:1.622222 11:1.577778 12:1.044444 13:0.377778 14:0.188889 15:-0.155556 16:-0.288889 17:-0.633333 18:-0.977778 19:-1.011111 20:-1.366667 21:-1.577778 22:-0.877778 23:-0.988889 24:-0.400000 25:0.088889 26:0.088889 27:0.677778 28:0.011111 29:0.011111 30:0.255556 31:-0.100000 32:-0.377778 33:-0.222222 34:-0.033333 35:-0.088889 36:-0.433333 37:-0.133333 38:-0.477778 39:-0.422222 40:-0.822222 41:-1.133333 42:-0.988889 43:-1.566667 44:-1.511111 45:-1.166667 46:-0.877778 47:-0.022222 48:0.488889 49:1.355556 50:2.055556 51:1.411111 52:1.044444 
1.433226 1:-0.466667 2:-0.322222 3:0.477778 4:0.288889 5:0.866667 6:0.866667 7:0.544444 8:0.888889 9:0.922222 10:1.166667 11:1.122222 12:0.588889 13:-0.077778 14:-0.377778 15:-0.422222 16:-0.555556 17:-0.900000 18:-1.244444 19:-0.822222 20:-1.177778 21:-1.388889 22:-0.688889 23:-0.977778 24:-0.933333 25:-0.444444 26:-0.444444 27:-0.155556 28:-0.522222 29:-0.522222 30:-0.277778 31:-0.633333 32:-0.622222 33:-0.222222 34:-0.066667 35:0.277778 36:0.233333 37:0.233333 38:0.188889 39:0.244444 40:-0.155556 41:-0.466667 42:-0.322222 43:-0.866667 44:-1.211111 45:-0.866667 46:-0.577778 47:-0.022222 48:0.488889 49:1.355556 50:2.055556 51:1.411111 52:1.044444 
0.836553 1:1.022222 2:1.122222 3:0.566667 4:1.144444 5:0.633333 6:0.644444 7:0.688889 8:0.788889 9:1.300000 10:0.755556 11:0.755556 12:0.766667 13:0.733333 14:0.733333 15:0.988889 16:1.533333 17:1.177778 18:0.666667 19:0.944444 20:1.488889 21:1.133333 22:0.233333 23:0.200000 24:0.200000 25:-0.388889 26:0.400000 27:0.100000 28:-0.488889 29:-0.788889 30:-0.744444 31:0.044444 32:0.544444 33:0.033333 34:0.333333 35:-0.111111 36:0.188889 37:0.888889 38:0.611111 39:0.911111 40:1.055556 41:1.055556 42:1.055556 43:0.800000 44:1.311111 45:1.822222 46:1.433333 47:1.977778 48:2.488889 49:2.488889 50:1.966667 51:2.322222 52:2.788889 
0.823684 1:-0.933333 2:-0.233333 3:-0.133333 4:-0.988889 5:-1.066667 6:-1.022222 7:-1.022222 8:-1.388889 9:-0.533333 10:-0.477778 11:-0.366667 12:-0.011111 13:-0.011111 14:-0.288889 15:0.600000 16:0.900000 17:1.166667 18:1.166667 19:1.833333 20:1.233333 21:0.744444 22:1.333333 23:1.688889 24:1.144444 25:0.255556 26:0.633333 27:0.022222 28:0.244444 29:0.622222 30:0.755556 31:0.755556 32:0.088889 33:-0.255556 34:0.600000 35:0.311111 36:0.655556 37:0.077778 38:-0.211111 39:0.144444 40:0.144444 41:0.955556 42:1.811111 43:1.300000 44:1.888889 45:1.600000 46:1.877778 47:1.522222 48:1.633333 49:1.855556 50:1.744444 51:1.477778 52:1.077778 
1.310984 1:-2.811111 2:-2.144444 3:-2.144444 4:-1.500000 5:-0.911111 6:-1.155556 7:-1.544444 8:-0.688889 9:-0.588889 10:-0.588889 11:-0.666667 12:-0.677778 13:-1.266667 14:-1.855556 15:-1.000000 16:-0.955556 17:-0.955556 18:-0.600000 19:-0.600000 20:-0.877778 21:0.066667 22:0.955556 23:1.166667 24:1.166667 25:1.833333 26:1.233333 27:0.744444 28:1.333333 29:1.688889 30:1.144444 31:0.255556 32:0.633333 33:0.022222 34:-0.300000 35:-0.166667 36:-0.377778 37:-0.377778 38:-0.455556 39:-0.800000 40:0.088889 41:-0.200000 42:-0.133333 43:-0.177778 44:0.077778 45:0.666667 46:0.888889 47:1.188889 48:2.000000 49:2.000000 50:2.000000 51:2.000000 52:2.588889 
1.740592 1:-0.555556 2:0.333333 3:1.011111 4:1.011111 5:0.622222 6:0.933333 7:1.288889 8:1.866667 9:1.777778 10:1.777778 11:1.188889 12:0.644444 13:0.577778 14:0.566667 15:0.200000 16:0.277778 17:-0.666667 18:-0.633333 19:-0.344444 20:0.166667 21:0.711111 22:0.177778 23:0.766667 24:1.033333 25:1.100000 26:1.744444 27:2.355556 28:2.655556 29:2.155556 30:1.577778 31:2.033333 32:2.033333 33:2.677778 34:2.677778 35:2.333333 36:2.077778 37:1.188889 38:1.222222 39:1.800000 40:1.944444 41:1.011111 42:0.822222 43:0.011111 44:-0.288889 45:-0.933333 46:-0.722222 47:-1.066667 48:-2.011111 49:-2.511111 50:-2.466667 51:-2.833333 52:-2.833333 
1.021262 1:-1.000000 2:-0.755556 3:-1.300000 4:-0.944444 5:-0.088889 6:0.500000 7:0.344444 8:0.100000 9:-0.288889 10:0.522222 11:0.622222 12:1.166667 13:0.811111 14:-0.044444 15:-0.044444 16:-0.333333 17:0.477778 18:1.377778 19:1.377778 20:1.733333 21:0.822222 22:0.722222 23:1.066667 24:0.777778 25:1.333333 26:0.466667 27:-0.044444 28:0.033333 29:-0.666667 30:-0.266667 31:-0.177778 32:0.366667 33:0.366667 34:0.322222 35:0.966667 36:1.477778 37:0.800000 38:1.611111 39:1.555556 40:2.066667 41:1.988889 42:2.277778 43:2.055556 44:1.766667 45:1.722222 46:2.211111 47:2.066667 48:2.588889 49:2.588889 50:2.077778 51:1.444444 52:1.522222 
0.612917 1:0.388889 2:0.788889 3:1.644444 4:1.188889 5:1.266667 6:0.922222 7:0.222222 8:-0.233333 9:-0.444444 10:-0.144444 11:-0.544444 12:-1.400000 13:-1.666667 14:-2.244444 15:-1.900000 16:-1.233333 17:-0.777778 18:-0.477778 19:-1.366667 20:-1.311111 21:-0.500000 22:0.222222 23:-0.088889 24:0.200000 25:0.122222 26:0.311111 27:0.222222 28:0.533333 29:1.122222 30:0.655556 31:0.288889 32:0.600000 33:0.300000 34:0.022222 35:-0.233333 36:0.144444 37:0.177778 38:0.444444 39:0.911111 40:1.422222 41:1.811111 42:1.822222 43:2.322222 44:2.022222 45:1.733333 46:2.244444 47:2.277778 48:2.277778 49:1.466667 50:1.077778 51:1.588889 52:1.588889 
0.477632 1:-1.255556 2:-0.711111 3:-0.711111 4:-0.411111 5:-0.311111 6:-0.311111 7:-0.311111 8:0.544444 9:0.511111 10:-0.233333 11:-0.422222 12:-0.055556 13:-0.355556 14:-0.388889 15:-0.688889 16:0.122222 17:-0.066667 18:-0.377778 19:-0.377778 20:-1.100000 21:-0.955556 22:-0.100000 23:-0.111111 24:0.477778 25:0.255556 26:-0.200000 27:0.144444 28:0.888889 29:1.533333 30:1.533333 31:1.488889 32:1.488889 33:1.200000 34:1.466667 35:1.566667 36:2.033333 37:1.633333 38:1.855556 39:1.633333 40:1.133333 41:1.133333 42:1.644444 43:1.088889 44:1.588889 45:1.588889 46:1.555556 47:1.600000 48:1.611111 49:1.888889 50:2.400000 51:2.255556 52:2.766667 
1.030101 1:0.011111 2:0.644444 3:0.644444 4:0.866667 5:0.566667 6:1.166667 7:0.655556 8:0.877778 9:1.255556 10:1.544444 11:1.544444 12:1.500000 13:1.466667 14:1.711111 15:1.566667 16:1.888889 17:1.000000 18:0.711111 19:0.822222 20:1.044444 21:1.411111 22:0.555556 23:1.200000 24:0.833333 25:0.511111 26:0.811111 27:0.811111 28:0.411111 29:0.455556 30:-0.255556 31:0.333333 32:-0.255556 33:-0.311111 34:-0.066667 35:0.488889 36:1.000000 37:1.288889 38:1.244444 39:1.633333 40:1.933333 41:2.444444 42:3.055556 43:2.766667 44:2.611111 45:2.655556 46:2.311111 47:2.355556 48:2.822222 49:1.877778 50:1.655556 51:0.744444 52:0.444444 
0.566287 1:-0.077778 2:0.477778 3:0.266667 4:0.533333 5:0.211111 6:0.855556 7:0.555556 8:0.644444 9:1.244444 10:1.244444 11:1.277778 12:1.577778 13:1.388889 14:1.711111 15:0.855556 16:0.566667 17:0.966667 18:1.177778 19:1.500000 20:0.611111 21:1.011111 22:0.644444 23:0.566667 24:1.155556 25:0.855556 26:0.500000 27:0.033333 28:0.177778 29:0.122222 30:0.011111 31:0.011111 32:0.277778 33:0.000000 34:0.811111 35:1.277778 36:1.277778 37:1.055556 38:1.455556 39:1.677778 40:2.188889 41:2.144444 42:2.133333 43:2.133333 44:2.133333 45:2.000000 46:2.000000 47:2.466667 48:2.466667 49:1.600000 50:1.488889 51:1.533333 52:0.933333 
0.680319 1:-0.066667 2:-0.366667 3:0.233333 4:-0.655556 5:-0.511111 6:-0.377778 7:0.177778 8:0.766667 9:1.066667 10:1.066667 11:1.066667 12:0.555556 13:0.800000 14:0.655556 15:0.977778 16:0.122222 17:-0.166667 18:-0.166667 19:-0.322222 20:0.344444 21:0.044444 22:0.500000 23:0.133333 24:0.055556 25:0.644444 26:0.688889 27:1.200000 28:0.844444 29:0.988889 30:0.933333 31:0.822222 32:0.822222 33:1.122222 34:0.744444 35:1.211111 36:1.211111 37:1.211111 38:1.211111 39:1.611111 40:1.833333 41:2.344444 42:2.266667 43:2.355556 44:2.355556 45:2.355556 46:2.600000 47:2.600000 48:3.066667 49:2.255556 50:2.255556 51:1.744444 52:1.655556 
1.049607 1:0.388889 2:-0.311111 3:0.077778 4:-0.622222 5:-0.400000 6:0.200000 7:-0.044444 8:0.266667 9:-0.233333 10:0.622222 11:0.622222 12:0.877778 13:0.877778 14:0.300000 15:-0.211111 16:0.111111 17:0.466667 18:0.111111 19:-0.744444 20:-0.744444 21:-0.788889 22:-0.122222 23:-0.433333 24:-0.144444 25:-0.600000 26:-0.566667 27:-0.222222 28:0.088889 29:0.433333 30:-0.033333 31:-0.400000 32:-0.088889 33:-0.388889 34:-0.288889 35:-0.388889 36:-0.377778 37:-0.744444 38:-0.233333 39:0.233333 40:0.744444 41:1.244444 42:0.955556 43:1.455556 44:1.200000 45:1.188889 46:2.100000 47:1.944444 48:1.944444 49:1.133333 50:0.633333 51:1.444444 52:1.444444 
0.495949 1:-0.100000 2:0.544444 3:0.944444 4:0.900000 5:1.088889 6:0.388889 7:0.388889 8:0.733333 9:1.377778 10:1.377778 11:0.733333 12:1.244444 13:0.544444 14:0.511111 15:0.511111 16:0.877778 17:1.200000 18:0.311111 19:-0.544444 20:-0.500000 21:-0.544444 22:0.122222 23:-0.733333 24:-0.388889 25:-0.466667 26:-0.833333 27:0.022222 28:0.655556 29:1.000000 30:0.133333 31:-0.233333 32:-0.022222 33:-0.077778 34:-0.077778 35:0.433333 36:0.166667 37:-0.077778 38:-0.077778 39:0.788889 40:1.300000 41:1.900000 42:1.911111 43:2.133333 44:1.666667 45:1.288889 46:1.533333 47:2.000000 48:2.000000 49:1.477778 50:1.255556 51:1.300000 52:0.700000 
1.005370 1:-0.066667 2:0.200000 3:-0.100000 4:0.611111 5:0.455556 6:0.155556 7:0.511111 8:1.066667 9:0.644444 10:-0.211111 11:-0.077778 12:-0.133333 13:-0.500000 14:-1.244444 15:-0.500000 16:-0.222222 17:-0.777778 18:-0.711111 19:-0.400000 20:-0.444444 21:-0.022222 22:0.344444 23:0.388889 24:-0.111111 25:-0.700000 26:-0.188889 27:0.166667 28:-0.144444 29:-0.144444 30:-0.222222 31:-0.588889 32:0.222222 33:0.566667 34:1.455556 35:0.855556 36:0.777778 37:1.088889 38:1.600000 39:1.600000 40:2.111111 41:1.888889 42:1.511111 43:1.477778 44:2.077778 45:2.300000 46:2.577778 47:2.077778 48:2.300000 49:1.777778 50:1.533333 51:2.133333 52:2.088889 
0.123212 1:-0.422222 2:-0.155556 3:-0.455556 4:0.255556 5:0.100000 6:0.155556 7:0.511111 8:1.066667 9:0.644444 10:-0.211111 11:-0.077778 12:-0.133333 13:-0.500000 14:-1.244444 15:-0.500000 16:-0.222222 17:-0.777778 18:-0.433333 19:-0.122222 20:-0.166667 21:0.255556 22:0.622222 23:0.666667 24:0.166667 25:-0.177778 26:0.333333 27:0.411111 28:0.100000 29:0.144444 30:0.066667 31:-0.255556 32:0.444444 33:0.788889 34:0.855556 35:0.255556 36:0.444444 37:0.755556 38:1.222222 39:1.222222 40:1.688889 41:1.844444 42:1.466667 43:1.744444 44:2.344444 45:2.300000 46:2.577778 47:2.077778 48:2.188889 49:1.666667 50:1.111111 51:1.711111 52:1.933333 
0.350265 1:1.100000 2:1.400000 3:0.811111 4:0.811111 5:1.022222 6:0.211111 7:-0.644444 8:-0.944444 9:-0.633333 10:-0.633333 11:-1.022222 12:-0.166667 13:-1.022222 14:-1.277778 15:-0.466667 16:-0.466667 17:-0.122222 18:-0.133333 19:-0.355556 20:-0.622222 21:-1.166667 22:-0.466667 23:-0.177778 24:-0.644444 25:0.100000 26:0.055556 27:-0.300000 28:-0.377778 29:-0.111111 30:-0.122222 31:0.066667 32:0.566667 33:1.033333 34:0.288889 35:0.877778 36:1.277778 37:1.277778 38:1.877778 39:2.388889 40:2.088889 41:1.644444 42:1.644444 43:2.233333 44:1.644444 45:2.111111 46:2.377778 47:2.266667 48:1.755556 49:1.977778 50:2.422222 51:1.822222 52:2.044444 
0.619723 1:-2.011111 2:-1.655556 3:-1.411111 4:-0.600000 5:-0.255556 6:0.322222 7:0.622222 8:0.266667 9:0.266667 10:0.266667 11:0.255556 12:-0.033333 13:-0.533333 14:-0.533333 15:-1.122222 16:-1.111111 17:-0.722222 18:-0.422222 19:0.077778 20:0.077778 21:-0.011111 22:-0.011111 23:-0.011111 24:-0.011111 25:-0.022222 26:-0.066667 27:-0.355556 28:-1.222222 29:-1.566667 30:-1.777778 31:-2.088889 32:-2.044444 33:-2.000000 34:-1.555556 35:-1.855556 36:-1.355556 37:-1.300000 38:-1.044444 39:-0.833333 40:-0.133333 41:0.222222 42:0.466667 43:-0.333333 44:0.366667 45:0.444444 46:0.755556 47:1.133333 48:1.811111 49:1.811111 50:1.855556 51:2.011111 52:2.955556 
1.770850 1:-1.100000 2:-1.744444 3:-1.655556 4:-1.866667 5:-2.211111 6:-1.866667 7:-2.366667 8:-2.366667 9:-1.511111 10:-1.144444 11:-0.788889 12:-0.422222 13:-0.111111 14:0.188889 15:0.188889 16:0.533333 17:0.833333 18:0.277778 19:-0.177778 20:-0.266667 21:-0.588889 22:-0.311111 23:-0.400000 24:-0.400000 25:-0.777778 26:-0.266667 27:0.288889 28:0.666667 29:1.044444 30:1.011111 31:1.022222 32:1.622222 33:2.088889 34:2.688889 35:2.688889 36:2.044444 37:1.666667 38:1.888889 39:1.877778 40:1.488889 41:1.022222 42:0.800000 43:0.800000 44:0.277778 45:0.377778 46:0.755556 47:0.533333 48:0.233333 49:0.611111 50:1.077778 51:0.800000 52:0.800000 
0.381400 1:0.266667 2:0.311111 3:-0.000000 4:-0.377778 5:0.488889 6:1.077778 7:0.788889 8:0.566667 9:-0.288889 10:-0.955556 11:-0.444444 12:-0.100000 13:-0.100000 14:-0.566667 15:-0.944444 16:-0.944444 17:-1.188889 18:-1.244444 19:-0.944444 20:-1.455556 21:-1.211111 22:-1.422222 23:-1.766667 24:-1.633333 25:-0.822222 26:-0.577778 27:0.333333 28:0.700000 29:0.655556 30:0.733333 31:1.044444 32:1.344444 33:1.000000 34:0.777778 35:0.933333 36:0.022222 37:0.166667 38:0.455556 39:0.600000 40:0.500000 41:0.500000 42:1.311111 43:1.533333 44:1.600000 45:2.466667 46:1.966667 47:1.588889 48:1.588889 49:2.188889 50:2.177778 51:1.711111 52:1.711111 
2.873759 1:-0.033333 2:-0.322222 3:-0.611111 4:-1.355556 5:-1.722222 6:-1.766667 7:-1.755556 8:-1.411111 9:-1.722222 10:-1.077778 11:-0.766667 12:-0.866667 13:-0.566667 14:-0.555556 15:-0.544444 16:-0.855556 17:-0.888889 18:-0.033333 19:-0.077778 20:-0.044444 21:0.055556 22:0.066667 23:-0.033333 24:-0.044444 25:0.266667 26:0.555556 27:0.044444 28:-0.466667 29:-0.500000 30:0.000000 31:-0.311111 32:0.366667 33:0.277778 34:0.266667 35:0.255556 36:0.222222 37:-0.077778 38:-0.088889 39:-0.311111 40:-0.011111 41:-0.088889 42:-0.000000 43:0.400000 44:0.111111 45:0.388889 46:0.388889 47:0.944444 48:0.666667 49:1.177778 50:1.177778 51:1.222222 52:1.111111 
0.829103 1:-1.244444 2:-1.088889 3:-0.733333 4:-0.444444 5:0.055556 6:0.511111 7:0.211111 8:0.466667 9:0.155556 10:0.055556 11:-0.377778 12:-1.088889 13:-1.377778 14:-1.844444 15:-1.766667 16:-1.766667 17:-1.977778 18:-2.022222 19:-2.233333 20:-1.877778 21:-1.244444 22:-0.344444 23:0.122222 24:0.266667 25:0.855556 26:1.711111 27:2.100000 28:2.688889 29:2.366667 30:2.077778 31:1.166667 32:0.566667 33:-0.011111 34:-0.011111 35:-0.922222 36:-0.966667 37:-0.700000 38:-0.344444 39:-0.300000 40:0.611111 41:0.988889 42:1.266667 43:0.888889 44:1.611111 45:2.200000 46:2.155556 47:2.044444 48:2.511111 49:2.466667 50:2.622222 51:2.733333 52:2.833333 
0.933256 1:-1.955556 2:-1.988889 3:-1.988889 4:-1.933333 5:-1.633333 6:-1.633333 7:-2.422222 8:-2.633333 9:-1.966667 10:-1.655556 11:-1.966667 12:-1.922222 13:-1.922222 14:-2.266667 15:-2.266667 16:-2.222222 17:-1.555556 18:-1.877778 19:-1.600000 20:-0.744444 21:-0.777778 22:-0.477778 23:0.377778 24:1.188889 25:1.488889 26:0.822222 27:0.777778 28:0.488889 29:-0.366667 30:0.211111 31:0.500000 32:-0.011111 33:0.066667 34:-0.233333 35:-0.277778 36:0.122222 37:0.677778 38:1.533333 39:1.455556 40:1.755556 41:1.755556 42:1.455556 43:1.411111 44:2.266667 45:2.422222 46:2.377778 47:1.822222 48:1.711111 49:1.411111 50:2.000000 51:2.111111 52:3.044444 
0.193326 1:-1.955556 2:-1.988889 3:-1.988889 4:-1.933333 5:-1.633333 6:-1.633333 7:-2.422222 8:-2.633333 9:-1.966667 10:-1.655556 11:-1.966667 12:-1.922222 13:-1.922222 14:-2.266667 15:-2.266667 16:-2.222222 17:-1.555556 18:-1.877778 19:-1.600000 20:-1.011111 21:-1.044444 22:-0.744444 23:0.111111 24:0.922222 25:0.922222 26:0.255556 27:0.211111 28:-0.077778 29:-0.666667 30:-0.088889 31:0.200000 32:-0.311111 33:-0.233333 34:-0.233333 35:-0.277778 36:0.122222 37:0.677778 38:1.533333 39:1.455556 40:1.755556 41:1.755556 42:1.455556 43:1.766667 44:2.622222 45:2.777778 46:2.733333 47:2.177778 48:2.066667 49:1.766667 50:2.355556 51:2.466667 52:3.044444 
0.718972 1:-1.100000 2:-1.988889 3:-2.488889 4:-1.622222 5:-1.277778 6:-0.411111 7:-0.066667 8:0.744444 9:0.744444 10:0.277778 11:0.622222 12:1.200000 13:0.600000 14:0.255556 15:-0.211111 16:-0.311111 17:-0.311111 18:0.544444 19:1.011111 20:0.666667 21:0.588889 22:0.677778 23:1.533333 24:1.188889 25:0.944444 26:0.444444 27:0.400000 28:-0.111111 29:0.233333 30:-0.266667 31:-0.355556 32:-0.544444 33:0.266667 34:1.077778 35:1.111111 36:0.511111 37:0.555556 38:0.422222 39:0.966667 40:1.566667 41:1.211111 42:1.255556 43:1.255556 44:1.500000 45:2.100000 46:2.566667 47:3.166667 48:2.900000 49:2.388889 50:2.388889 51:2.344444 52:2.122222 
0.372376 1:-0.377778 2:-0.722222 3:-1.388889 4:-1.388889 5:-1.677778 6:-1.333333 7:-1.622222 8:-1.577778 9:-1.900000 10:-2.255556 11:-2.300000 12:-1.411111 13:-1.100000 14:-0.733333 15:-1.077778 16:-0.711111 17:-0.400000 18:-0.788889 19:-0.533333 20:-0.488889 21:-1.077778 22:-1.144444 23:-1.600000 24:-0.788889 25:-0.755556 26:-1.066667 27:-0.677778 28:0.000000 29:0.700000 30:1.066667 31:1.122222 32:1.211111 33:0.700000 34:0.000000 35:0.700000 36:1.166667 37:0.622222 38:0.811111 39:0.444444 40:0.844444 41:1.355556 42:1.866667 43:2.755556 44:2.866667 45:2.655556 46:3.122222 47:3.122222 48:3.633333 49:3.177778 50:2.666667 51:2.555556 52:2.555556 
0.326897 1:0.355556 2:0.277778 3:-0.022222 4:-0.833333 5:-0.477778 6:0.333333 7:0.266667 8:0.555556 9:0.244444 10:-0.044444 11:-0.855556 12:-0.255556 13:0.555556 14:-0.144444 15:-0.744444 16:-1.033333 17:-1.322222 18:-1.400000 19:-1.188889 20:-0.888889 21:-0.677778 22:-0.900000 23:-0.688889 24:-0.555556 25:-0.555556 26:-0.200000 27:-0.411111 28:-0.411111 29:-0.755556 30:-0.977778 31:-0.966667 32:-0.588889 33:-0.622222 34:-0.622222 35:-0.122222 36:0.177778 37:0.177778 38:0.511111 39:0.222222 40:0.433333 41:0.655556 42:1.233333 43:1.811111 44:1.700000 45:2.211111 46:2.666667 47:3.077778 48:3.666667 49:3.666667 50:3.444444 51:2.900000 52:1.955556 
0.715350 1:0.444444 2:-0.155556 3:0.200000 4:1.011111 5:0.944444 6:0.400000 7:0.655556 8:0.366667 9:-0.144444 10:0.166667 11:0.977778 12:0.277778 13:-0.322222 14:-0.622222 15:-0.377778 16:-0.633333 17:-0.044444 18:-0.133333 19:0.366667 20:0.144444 21:0.744444 22:0.833333 23:0.833333 24:0.588889 25:0.555556 26:0.277778 27:0.066667 28:0.066667 29:-0.577778 30:-0.588889 31:-0.577778 32:-0.288889 33:-0.322222 34:-0.322222 35:0.177778 36:1.066667 37:1.066667 38:1.788889 39:1.866667 40:2.366667 41:2.588889 42:3.166667 43:3.744444 44:3.744444 45:3.066667 46:2.922222 47:2.955556 48:3.177778 49:3.177778 50:2.577778 51:2.033333 52:2.033333 
0.690168 1:-0.200000 2:-0.122222 3:-0.933333 4:-1.033333 5:-0.100000 6:-0.888889 7:-1.188889 8:-1.544444 9:-1.833333 10:-1.166667 11:-1.877778 12:-1.577778 13:-1.477778 14:-2.155556 15:-1.444444 16:-0.700000 17:0.155556 18:0.200000 19:-0.466667 20:-0.122222 21:0.166667 22:0.422222 23:0.555556 24:-0.111111 25:-0.555556 26:-1.155556 27:-0.344444 28:-0.044444 29:0.244444 30:0.511111 31:0.200000 32:0.155556 33:0.966667 34:1.477778 35:2.077778 36:2.077778 37:2.588889 38:2.288889 39:2.133333 40:2.655556 41:3.211111 42:3.255556 43:2.388889 44:2.166667 45:2.055556 46:1.455556 47:1.166667 48:0.811111 49:0.211111 50:-0.300000 51:-0.344444 52:0.522222 
1.768219 1:-1.833333 2:-0.900000 3:-0.888889 4:-1.188889 5:-1.544444 6:-1.833333 7:-1.166667 8:-1.888889 9:-1.588889 10:-1.488889 11:-2.166667 12:-1.455556 13:-1.166667 14:-0.311111 15:0.077778 16:-0.288889 17:0.066667 18:0.355556 19:0.222222 20:0.355556 21:-0.011111 22:0.588889 23:0.077778 24:0.322222 25:0.322222 26:0.688889 27:0.400000 28:1.000000 29:1.466667 30:1.977778 31:1.900000 32:2.411111 33:2.633333 34:3.033333 35:3.177778 36:3.733333 37:3.733333 38:3.222222 39:3.000000 40:3.000000 41:2.400000 42:1.588889 43:0.888889 44:0.288889 45:-0.222222 46:-0.222222 47:-0.522222 48:-1.111111 49:-1.111111 50:-1.011111 51:-1.066667 52:-0.400000 
0.714210 1:-1.011111 2:-0.933333 3:-1.744444 4:-1.844444 5:-0.911111 6:-0.900000 7:-1.200000 8:-0.900000 9:-1.144444 10:-0.477778 11:-1.188889 12:-0.888889 13:-1.188889 14:-1.866667 15:-1.155556 16:-0.411111 17:-0.200000 18:-0.200000 19:-0.866667 20:-0.522222 21:-0.233333 22:0.122222 23:0.500000 24:-0.166667 25:-0.911111 26:-1.777778 27:-0.966667 28:-0.666667 29:-0.655556 30:-0.655556 31:-0.666667 32:-0.955556 33:-0.144444 34:0.666667 35:1.533333 36:1.533333 37:2.044444 38:2.322222 39:2.433333 40:2.955556 41:3.244444 42:3.288889 43:2.822222 44:2.222222 45:2.111111 46:1.511111 47:1.266667 48:0.866667 49:0.266667 50:0.022222 51:-0.022222 52:0.333333 
0.570070 1:-0.122222 2:0.144444 3:-0.144444 4:-1.088889 5:-1.133333 6:-2.066667 7:-2.066667 8:-2.877778 9:-2.177778 10:-2.477778 11:-2.022222 12:-1.277778 13:-0.977778 14:-0.633333 15:-0.244444 16:-0.244444 17:0.066667 18:-0.633333 19:-0.044444 20:-0.122222 21:-0.822222 22:-0.211111 23:-0.211111 24:-0.255556 25:0.255556 26:0.288889 27:0.588889 28:-0.055556 29:-0.644444 30:-0.344444 31:-0.533333 32:0.022222 33:0.022222 34:0.022222 35:0.377778 36:0.888889 37:1.800000 38:2.655556 39:3.166667 40:3.311111 41:2.800000 42:3.311111 43:3.311111 44:3.466667 45:2.655556 46:1.800000 47:1.755556 48:1.255556 49:1.255556 50:1.500000 51:0.688889 52:0.088889 
0.984473 1:-1.333333 2:-0.988889 3:-1.600000 4:-1.844444 5:-1.844444 6:-0.911111 7:-1.066667 8:-0.200000 9:-0.511111 10:-0.211111 11:-0.344444 12:-0.633333 13:-0.688889 14:-0.733333 15:-1.666667 16:-2.066667 17:-2.877778 18:-2.633333 19:-2.933333 20:-2.477778 21:-1.622222 22:-1.322222 23:-0.977778 24:-0.633333 25:-0.344444 26:-0.000000 27:0.066667 28:0.011111 29:-0.655556 30:-1.166667 31:-0.744444 32:-0.188889 33:-0.188889 34:0.033333 35:0.388889 36:0.888889 37:1.800000 38:2.655556 39:3.166667 40:2.811111 41:2.255556 42:2.766667 43:2.766667 44:2.922222 45:2.111111 46:2.066667 47:2.022222 48:1.877778 49:2.377778 50:2.666667 51:1.855556 52:1.255556 
0.490334 1:-0.588889 2:-0.644444 3:-0.688889 4:-1.622222 5:-2.022222 6:-2.833333 7:-2.133333 8:-2.433333 9:-1.977778 10:-1.277778 11:-0.977778 12:-0.933333 13:-0.544444 14:-0.544444 15:0.044444 16:-0.655556 17:-0.344444 18:-0.155556 19:-0.855556 20:-0.211111 21:-0.211111 22:0.144444 23:0.144444 24:0.444444 25:0.744444 26:0.777778 27:0.222222 28:0.166667 29:-0.722222 30:-0.422222 31:-0.455556 32:0.100000 33:-0.488889 34:0.022222 35:0.377778 36:0.888889 37:1.800000 38:2.655556 39:3.166667 40:3.311111 41:2.800000 42:3.311111 43:3.311111 44:3.466667 45:2.655556 46:1.800000 47:1.755556 48:1.255556 49:1.255556 50:1.500000 51:0.688889 52:0.088889 
1.292448 1:-0.822222 2:-0.822222 3:-0.011111 4:0.288889 5:0.288889 6:1.033333 7:1.488889 8:2.422222 9:2.066667 10:1.511111 11:1.855556 12:0.988889 13:0.400000 14:-0.066667 15:-0.466667 16:-1.222222 17:-1.811111 18:-1.766667 19:-1.177778 20:-1.266667 21:-0.911111 22:-0.400000 23:-0.077778 24:0.511111 25:1.377778 26:1.366667 27:1.366667 28:0.722222 29:1.100000 30:1.011111 31:0.500000 32:0.722222 33:0.133333 34:0.066667 35:0.122222 36:1.011111 37:1.511111 38:1.666667 39:2.155556 40:2.166667 41:1.222222 42:1.588889 43:1.544444 44:1.866667 45:1.644444 46:0.855556 47:0.922222 48:0.966667 49:0.600000 50:1.244444 51:1.466667 52:1.355556 
0.657262 1:-0.422222 2:0.144444 3:0.733333 4:0.144444 5:0.144444 6:-0.100000 7:-0.100000 8:-0.611111 9:-0.900000 10:-1.455556 11:-2.355556 12:-2.355556 13:-1.766667 14:-1.022222 15:-0.322222 16:0.533333 17:0.888889 18:0.877778 19:0.888889 20:1.233333 21:1.233333 22:0.644444 23:0.111111 24:-0.277778 25:-0.544444 26:-0.355556 27:-0.088889 28:0.188889 29:0.200000 30:0.422222 31:0.766667 32:0.900000 33:0.888889 34:0.600000 35:0.022222 36:0.111111 37:-0.233333 38:-0.233333 39:-0.233333 40:0.277778 41:0.233333 42:0.744444 43:1.255556 44:1.644444 45:1.644444 46:1.988889 47:2.533333 48:2.033333 49:1.988889 50:2.500000 51:2.500000 52:2.500000 
1.685680 1:0.522222 2:0.622222 3:0.622222 4:0.266667 5:-0.588889 6:-0.588889 7:-0.877778 8:-0.066667 9:0.188889 10:0.188889 11:-0.155556 12:-0.255556 13:-0.355556 14:-0.055556 15:-0.333333 16:-0.044444 17:-0.855556 18:-0.822222 19:-1.288889 20:-0.400000 21:-0.300000 22:-0.166667 23:-0.166667 24:0.111111 25:-0.477778 26:0.377778 27:0.944444 28:1.300000 29:0.711111 30:1.066667 31:1.011111 32:0.955556 33:1.177778 34:2.033333 35:1.988889 36:1.488889 37:1.600000 38:1.600000 39:1.233333 40:1.644444 41:1.711111 42:1.200000 43:1.233333 44:1.122222 45:1.055556 46:1.055556 47:0.711111 48:0.411111 49:0.300000 50:0.877778 51:1.388889 52:0.500000 
0.465765 1:0.855556 2:0.400000 3:0.244444 4:0.833333 5:1.077778 6:0.533333 7:0.933333 8:1.155556 9:1.155556 10:1.155556 11:0.944444 12:0.311111 13:0.533333 14:0.233333 15:0.588889 16:0.244444 17:-0.644444 18:-0.866667 19:-1.188889 20:-0.888889 21:-0.177778 22:-0.644444 23:-0.288889 24:-0.955556 25:-0.655556 26:-0.311111 27:-0.900000 28:-0.900000 29:-0.611111 30:-1.066667 31:-1.200000 32:-0.755556 33:-0.411111 34:-0.411111 35:-0.544444 36:0.044444 37:0.511111 38:0.733333 39:1.333333 40:1.933333 41:1.500000 42:1.466667 43:1.977778 44:2.577778 45:2.333333 46:1.833333 47:1.611111 48:1.100000 49:0.500000 50:1.000000 51:1.544444 52:1.433333 
0.659054 1:-0.111111 2:-0.566667 3:-0.566667 4:0.022222 5:0.266667 6:-0.277778 7:0.122222 8:0.344444 9:0.566667 10:0.566667 11:0.355556 12:0.311111 13:0.533333 14:0.233333 15:0.588889 16:0.244444 17:-0.644444 18:-0.866667 19:-1.188889 20:-0.888889 21:-0.177778 22:-0.644444 23:-0.288889 24:-0.955556 25:-0.655556 26:-0.311111 27:-0.900000 28:-0.900000 29:-0.611111 30:-1.066667 31:-1.200000 32:-1.555556 33:-1.211111 34:-1.211111 35:-1.344444 36:-0.755556 37:-0.288889 38:-0.066667 39:0.533333 40:1.133333 41:1.500000 42:1.755556 43:2.266667 44:2.866667 45:2.622222 46:2.122222 47:1.900000 48:1.433333 49:0.833333 50:1.333333 51:1.588889 52:1.477778 
0.842966 1:-0.766667 2:-1.311111 3:-0.944444 4:-0.088889 5:-0.244444 6:0.055556 7:-0.188889 8:-0.577778 9:0.233333 10:0.333333 11:0.766667 12:0.411111 13:-0.444444 14:-0.444444 15:-0.444444 16:0.444444 17:1.088889 18:1.088889 19:1.444444 20:1.044444 21:0.944444 22:1.288889 23:1.288889 24:1.844444 25:1.255556 26:0.655556 27:0.700000 28:0.000000 29:-0.344444 30:-0.211111 31:-0.244444 32:-0.533333 33:-1.444444 34:-1.800000 35:-1.211111 36:-1.722222 37:-1.055556 38:-0.166667 39:-0.222222 40:0.277778 41:0.788889 42:1.055556 43:1.922222 44:2.144444 45:2.655556 46:2.800000 47:2.655556 48:3.177778 49:3.177778 50:3.177778 51:2.922222 52:2.811111 
0.449694 1:-1.555556 2:-2.100000 3:-1.733333 4:-0.877778 5:-0.244444 6:0.066667 7:-0.177778 8:-0.566667 9:0.244444 10:0.344444 11:0.033333 12:-0.322222 13:-1.177778 14:-1.177778 15:-1.188889 16:-0.300000 17:0.633333 18:0.633333 19:0.533333 20:0.877778 21:0.777778 22:1.122222 23:1.122222 24:1.677778 25:1.533333 26:0.644444 27:0.133333 28:0.233333 29:-0.111111 30:0.266667 31:0.511111 32:0.222222 33:-0.688889 34:-0.844444 35:-0.255556 36:0.033333 37:0.033333 38:0.844444 39:0.922222 40:1.144444 41:1.133333 42:1.777778 43:1.500000 44:1.722222 45:1.944444 46:2.188889 47:1.322222 48:1.466667 49:1.466667 50:1.988889 51:1.400000 52:1.788889 
0.036150 1:-1.555556 2:-2.100000 3:-1.733333 4:-0.877778 5:-0.244444 6:0.066667 7:-0.177778 8:-0.566667 9:0.244444 10:0.344444 11:0.922222 12:0.566667 13:-0.288889 14:-0.288889 15:-0.300000 16:0.588889 17:0.944444 18:0.944444 19:0.844444 20:0.300000 21:0.200000 22:0.544444 23:0.544444 24:1.100000 25:1.100000 26:0.788889 27:0.322222 28:0.933333 29:0.588889 30:0.677778 31:0.922222 32:0.633333 33:-0.277778 34:-0.577778 35:0.233333 36:0.477778 37:0.288889 38:1.100000 39:1.088889 40:1.311111 41:1.311111 42:1.711111 43:1.433333 44:1.433333 45:1.544444 46:1.466667 47:1.400000 48:1.811111 49:1.700000 50:2.288889 51:1.900000 52:2.288889 
0.008546 1:-1.555556 2:-2.100000 3:-1.733333 4:-0.877778 5:-0.244444 6:0.066667 7:-0.177778 8:-0.566667 9:0.244444 10:0.344444 11:0.033333 12:-0.322222 13:-1.177778 14:-1.177778 15:-1.188889 16:-0.300000 17:0.055556 18:0.055556 19:-0.044444 20:0.300000 21:0.200000 22:0.544444 23:0.544444 24:1.100000 25:1.100000 26:0.788889 27:0.322222 28:0.933333 29:0.588889 30:0.677778 31:0.922222 32:0.633333 33:-0.277778 34:-0.577778 35:0.233333 36:0.477778 37:0.288889 38:1.100000 39:1.088889 40:1.311111 41:1.311111 42:1.711111 43:1.433333 44:1.322222 45:1.433333 46:1.355556 47:1.288889 48:1.700000 49:1.588889 50:2.177778 51:1.788889 52:2.177778 
0.797684 1:0.500000 2:0.544444 3:-0.122222 4:-0.266667 5:-1.122222 6:-0.266667 7:-0.622222 8:-0.233333 9:-0.866667 10:-0.711111 11:-0.466667 12:-0.466667 13:-0.466667 14:0.433333 15:-0.077778 16:-0.433333 17:-0.566667 18:-0.522222 19:-0.677778 20:-0.711111 21:-0.366667 22:-0.722222 23:-1.233333 24:-1.233333 25:-1.188889 26:-1.088889 27:-0.877778 28:-1.166667 29:-1.377778 30:-1.422222 31:-1.433333 32:-1.077778 33:-0.777778 34:-0.777778 35:-0.744444 36:-0.355556 37:-0.355556 38:0.533333 39:1.122222 40:1.122222 41:1.311111 42:1.600000 43:2.188889 44:2.655556 45:2.866667 46:3.422222 47:3.422222 48:2.777778 49:3.333333 50:3.333333 51:3.300000 52:3.311111 
0.255098 1:-1.488889 2:-1.488889 3:-1.633333 4:-1.633333 5:-2.344444 6:-2.344444 7:-2.000000 8:-1.655556 9:-0.766667 10:-0.522222 11:-0.877778 12:-0.877778 13:-0.833333 14:-0.122222 15:-0.477778 16:-0.777778 17:-0.777778 18:-1.422222 19:-1.355556 20:-0.611111 21:-1.277778 22:-1.322222 23:-1.988889 24:-1.944444 25:-1.944444 26:-1.700000 27:-1.277778 28:-0.700000 29:-1.100000 30:-0.400000 31:-0.055556 32:0.755556 33:1.455556 34:1.455556 35:1.755556 36:1.900000 37:1.011111 38:1.522222 39:1.122222 40:1.711111 41:1.788889 42:1.788889 43:2.677778 44:2.677778 45:2.166667 46:2.977778 47:3.055556 48:3.000000 49:2.811111 50:2.166667 51:2.355556 52:2.355556 
1.557695 1:-0.877778 2:-0.333333 3:0.177778 4:0.722222 5:-0.022222 6:-0.366667 7:-0.366667 8:-0.022222 9:0.022222 10:-0.333333 11:-0.888889 12:-1.044444 13:-1.044444 14:-0.188889 15:0.622222 16:0.966667 17:0.666667 18:0.266667 19:0.311111 20:0.322222 21:0.477778 22:-0.377778 23:-1.233333 24:-2.044444 25:-2.433333 26:-1.622222 27:-0.755556 28:-0.755556 29:-1.066667 30:-1.322222 31:-0.733333 32:0.155556 33:0.822222 34:1.211111 35:1.255556 36:0.788889 37:0.733333 38:1.322222 39:0.722222 40:0.433333 41:0.355556 42:-0.366667 43:-0.766667 44:-1.311111 45:-0.844444 46:-0.200000 47:0.022222 48:0.833333 49:1.233333 50:1.233333 51:2.100000 52:2.855556 
0.831431 1:-2.444444 2:-2.655556 3:-2.444444 4:-2.655556 5:-2.444444 6:-2.655556 7:-2.444444 8:-2.655556 9:-2.444444 10:-2.655556 11:-2.444444 12:-2.655556 13:-2.444444 14:-2.655556 15:-2.444444 16:-2.655556 17:-2.444444 18:-2.655556 19:-2.444444 20:-2.655556 21:-2.444444 22:-2.655556 23:-2.444444 24:-2.655556 25:-2.444444 26:-2.655556 27:-2.444444 28:-2.655556 29:-2.444444 30:-2.311111 31:-1.722222 32:-1.344444 33:-1.033333 34:-0.433333 35:-0.477778 36:-0.388889 37:0.466667 38:0.844444 39:1.311111 40:0.933333 41:1.044444 42:1.322222 43:1.400000 44:2.033333 45:2.322222 46:2.322222 47:2.077778 48:2.077778 49:2.722222 50:2.611111 51:2.611111 52:2.422222 
0.416674 1:0.188889 2:0.233333 3:0.277778 4:0.244444 5:0.211111 6:-0.188889 7:-0.444444 8:-0.144444 9:-0.700000 10:-1.000000 11:-1.044444 12:-1.088889 13:-1.055556 14:-1.366667 15:-1.311111 16:-1.355556 17:-1.655556 18:-1.100000 19:-0.700000 20:-1.000000 21:-0.700000 22:-0.155556 23:0.544444 24:0.888889 25:0.888889 26:0.888889 27:0.622222 28:0.133333 29:0.433333 30:-0.222222 31:-0.900000 32:-1.655556 33:-1.188889 34:-1.177778 35:-0.366667 36:-0.144444 37:0.344444 38:0.344444 39:1.211111 40:1.811111 41:2.466667 42:2.544444 43:2.533333 44:2.577778 45:2.577778 46:2.177778 47:2.688889 48:2.177778 49:1.677778 50:1.888889 51:1.811111 52:2.322222 
3.054261 1:0.566667 2:-0.300000 3:-0.222222 4:-0.222222 5:-0.166667 6:-0.166667 7:-0.633333 8:-0.033333 9:-0.555556 10:-1.444444 11:-0.800000 12:-1.255556 13:-1.255556 14:-0.366667 15:-0.066667 16:0.255556 17:0.300000 18:0.222222 19:0.166667 20:-0.477778 21:-0.477778 22:0.111111 23:-0.833333 24:-0.544444 25:-0.400000 26:-1.311111 27:-1.222222 28:-0.566667 29:-0.200000 30:0.177778 31:-0.200000 32:-0.144444 33:-0.388889 34:-0.988889 35:-0.988889 36:-0.944444 37:-1.544444 38:-1.044444 39:-1.422222 40:-1.688889 41:-1.688889 42:-2.088889 43:-2.344444 44:-1.700000 45:-1.233333 46:-0.422222 47:-0.922222 48:-0.922222 49:-0.655556 50:-0.355556 51:-0.000000 52:0.855556 
0.342147 1:-0.177778 2:-0.177778 3:0.422222 4:1.011111 5:1.711111 6:2.300000 7:2.644444 8:2.422222 9:2.644444 10:1.900000 11:1.255556 12:0.900000 13:0.622222 14:-0.077778 15:-0.000000 16:-0.244444 17:-0.100000 18:-0.322222 19:-0.022222 20:-0.022222 21:0.322222 22:0.355556 23:0.355556 24:-0.011111 25:-0.055556 26:-0.277778 27:-0.011111 28:-0.011111 29:-0.011111 30:-0.255556 31:-0.355556 32:0.244444 33:0.244444 34:0.255556 35:0.477778 36:0.433333 37:0.800000 38:1.400000 39:1.866667 40:2.211111 41:1.955556 42:1.611111 43:1.900000 44:1.900000 45:1.688889 46:1.833333 47:1.622222 48:1.400000 49:1.400000 50:1.644444 51:1.688889 52:1.300000 
0.871005 1:1.777778 2:2.477778 3:2.755556 4:2.400000 5:2.211111 6:2.477778 7:1.733333 8:1.055556 9:0.700000 10:0.422222 11:-0.277778 12:-0.200000 13:-0.544444 14:-0.400000 15:-1.044444 16:-0.455556 17:-0.455556 18:-0.388889 19:-0.388889 20:0.200000 21:-0.155556 22:0.144444 23:0.222222 24:0.222222 25:-0.366667 26:0.011111 27:0.288889 28:0.722222 29:0.944444 30:1.222222 31:1.511111 32:0.922222 33:0.922222 34:1.133333 35:0.755556 36:0.977778 37:0.822222 38:0.822222 39:1.044444 40:1.044444 41:1.088889 42:1.466667 43:1.855556 44:2.455556 45:2.455556 46:2.677778 47:2.677778 48:2.455556 49:2.077778 50:2.044444 51:2.266667 52:1.911111 
1.119316 1:0.300000 2:0.144444 3:0.544444 4:0.544444 5:1.144444 6:1.733333 7:2.433333 8:2.722222 9:2.611111 10:2.422222 11:2.644444 12:1.900000 13:1.255556 14:0.900000 15:0.622222 16:0.511111 17:0.588889 18:0.000000 19:0.144444 20:-0.077778 21:0.133333 22:0.133333 23:0.477778 24:0.833333 25:0.555556 26:0.200000 27:0.200000 28:-0.022222 29:-0.022222 30:0.511111 31:0.511111 32:0.777778 33:0.700000 34:0.977778 35:0.966667 36:1.777778 37:1.400000 38:1.622222 39:1.688889 40:2.066667 41:1.555556 42:1.277778 43:1.500000 44:2.011111 45:2.011111 46:2.611111 47:2.144444 48:1.922222 49:1.633333 50:1.877778 51:2.155556 52:1.555556 
0.400479 1:-1.700000 2:-1.700000 3:-1.688889 4:-1.377778 5:-0.800000 6:-0.800000 7:-0.800000 8:-0.800000 9:-0.800000 10:-0.433333 11:-0.122222 12:-0.122222 13:-0.122222 14:-0.700000 15:-0.700000 16:-0.700000 17:-0.700000 18:-0.800000 19:-0.255556 20:0.177778 21:-0.133333 22:-0.144444 23:0.133333 24:-0.233333 25:-0.244444 26:0.255556 27:0.388889 28:-0.255556 29:-0.411111 30:-0.100000 31:0.188889 32:-0.188889 33:0.677778 34:0.966667 35:0.966667 36:1.211111 37:1.811111 38:2.033333 39:2.311111 40:2.066667 41:2.455556 42:2.455556 43:2.466667 44:2.466667 45:2.688889 46:2.688889 47:2.222222 48:2.222222 49:2.088889 50:2.077778 51:1.266667 52:0.966667 
0.504527 1:1.655556 2:1.011111 3:0.655556 4:0.377778 5:-0.322222 6:-0.244444 7:-0.244444 8:-0.100000 9:-0.322222 10:-0.111111 11:-0.111111 12:0.233333 13:-0.077778 14:-0.077778 15:-0.744444 16:-1.144444 17:-1.744444 18:-2.022222 19:-1.922222 20:-1.922222 21:-1.655556 22:-1.655556 23:-1.655556 24:-1.355556 25:-0.711111 26:-0.033333 27:-0.033333 28:0.255556 29:0.044444 30:-0.811111 31:0.044444 32:0.855556 33:1.366667 34:1.077778 35:1.000000 36:0.688889 37:0.900000 38:1.711111 39:2.566667 40:2.011111 41:1.800000 42:1.800000 43:2.311111 44:2.311111 45:3.166667 46:2.700000 47:2.200000 48:1.933333 49:2.444444 50:2.700000 51:2.744444 52:2.233333 
2.285066 1:-0.077778 2:-0.744444 3:-1.144444 4:-1.744444 5:-2.022222 6:-1.922222 7:-1.922222 8:-1.655556 9:-1.655556 10:-1.655556 11:-1.355556 12:-0.988889 13:-0.888889 14:-0.888889 15:-0.888889 16:-0.788889 17:-1.333333 18:-1.022222 19:-0.711111 20:-0.700000 21:-0.700000 22:-0.700000 23:-0.700000 24:-0.700000 25:-0.700000 26:-0.700000 27:-0.700000 28:-0.700000 29:-1.066667 30:-0.522222 31:-0.833333 32:-1.144444 33:-1.155556 34:-0.877778 35:-0.888889 36:-0.900000 37:-0.400000 38:0.000000 39:-0.644444 40:-0.055556 41:0.255556 42:0.544444 43:0.166667 44:0.677778 45:0.966667 46:0.444444 47:0.844444 48:0.877778 49:0.577778 50:0.477778 51:-0.166667 52:-0.433333 
2.105177 1:1.188889 2:1.777778 3:2.477778 4:2.755556 5:2.644444 6:2.422222 7:2.644444 8:1.900000 9:1.255556 10:0.900000 11:0.622222 12:0.511111 13:0.588889 14:0.000000 15:0.144444 16:-0.077778 17:0.133333 18:0.133333 19:0.477778 20:0.511111 21:0.233333 22:-0.122222 23:-0.122222 24:-0.344444 25:-0.344444 26:0.188889 27:0.188889 28:-0.055556 29:-0.188889 30:-0.200000 31:0.344444 32:1.200000 33:0.822222 34:0.822222 35:0.888889 36:1.488889 37:1.355556 38:1.955556 39:2.466667 40:2.200000 41:1.688889 42:1.788889 43:2.011111 44:2.011111 45:2.011111 46:2.611111 47:2.144444 48:1.644444 49:1.644444 50:1.611111 51:1.888889 52:1.288889 
0.529826 1:1.700000 2:2.211111 3:2.000000 4:1.400000 5:0.811111 6:0.066667 7:-0.500000 8:-0.422222 9:-0.955556 10:-0.555556 11:-0.555556 12:0.044444 13:0.633333 14:0.877778 15:1.466667 16:1.811111 17:1.588889 18:2.266667 19:1.866667 20:1.600000 21:1.000000 22:0.355556 23:0.111111 24:0.266667 25:0.344444 26:0.266667 27:-0.322222 28:-0.077778 29:-0.366667 30:-0.066667 31:0.288889 32:0.633333 33:0.188889 34:-0.266667 35:-0.555556 36:-0.644444 37:-0.888889 38:-0.977778 39:-0.466667 40:0.044444 41:0.511111 42:1.022222 43:1.622222 44:1.911111 45:2.511111 46:2.977778 47:2.977778 48:2.977778 49:2.511111 50:2.000000 51:2.000000 52:1.888889 
0.827556 1:1.077778 2:1.033333 3:1.144444 4:1.300000 5:1.700000 6:2.211111 7:2.000000 8:1.400000 9:0.811111 10:0.066667 11:-0.500000 12:-0.422222 13:-0.955556 14:-0.555556 15:-0.822222 16:-0.222222 17:0.366667 18:0.611111 19:1.200000 20:1.544444 21:1.322222 22:2.000000 23:1.600000 24:1.222222 25:0.622222 26:-0.022222 27:0.322222 28:0.477778 29:0.555556 30:0.188889 31:-0.400000 32:-0.155556 33:0.222222 34:0.166667 35:0.433333 36:0.433333 37:0.277778 38:-0.077778 39:0.211111 40:0.222222 41:0.444444 42:0.666667 43:0.933333 44:1.577778 45:1.800000 46:2.022222 47:2.522222 48:2.744444 49:3.244444 50:3.244444 51:3.244444 52:3.700000 
0.226768 1:1.700000 2:2.211111 3:2.744444 4:2.144444 5:1.555556 6:0.811111 7:0.244444 8:0.322222 9:-0.211111 10:0.188889 11:0.188889 12:0.044444 13:0.633333 14:0.877778 15:1.466667 16:1.811111 17:1.588889 18:2.266667 19:1.866667 20:1.600000 21:1.000000 22:1.222222 23:0.977778 24:1.133333 25:1.211111 26:1.133333 27:0.544444 28:0.788889 29:0.500000 30:0.800000 31:0.577778 32:0.922222 33:0.522222 34:0.066667 35:-0.222222 36:-0.311111 37:-0.555556 38:-0.644444 39:-0.133333 40:-0.022222 41:0.444444 42:0.911111 43:1.511111 44:1.800000 45:2.400000 46:2.266667 47:2.355556 48:2.355556 49:2.000000 50:2.077778 51:2.077778 52:1.966667 
