svm_type c_svc
kernel_type rbf
gamma 0.00390625
nr_class 2
total_sv 667
rho 7.1341
label 1 -1
nr_sv 115 552
SV
22077.44 1:0.006 2:0.002 3:0.004 4:0.002 5:0.002 6:0.008 8:0.006 9:0.004 10:0.01 11:0.004 12:0.006 13:0.002 15:0.004 16:0.004 17:0.006 18:0.014 19:0.002 20:0.006 24:0.002 25:0.002 26:0.002 35:0.002 38:0.002 41:0.004 43:0.002 44:0.006 46:0.004 47:0.004 48:0.006 49:0.002 53:0.006 54:0.006 56:0.004 57:0.002 58:0.002 59:0.002 60:0.004 61:0.002 63:0.002 64:0.002 65:0.004 66:0.006 67:0.006 68:0.004 69:0.008 70:0.004 71:0.004 72:0.002 74:0.002 75:0.008 76:0.002 77:0.006 78:0.014 80:0.002 81:0.002 84:0.002 86:0.006 90:0.002 91:0.004 92:0.002 94:0.002 95:0.002 96:0.002 97:0.002 99:0.002 101:0.012 102:0.002 103:0.002 104:0.006 105:0.002 106:0.006 108:0.008 109:0.004 110:0.012 111:0.002 113:0.002 114:0.004 115:0.002 116:0.002 117:0.012 118:0.004 119:0.004 121:0.002 123:0.006 128:0.002 130:0.002 137:0.002 138:0.004 141:0.008 142:0.002 143:0.002 144:0.004 145:0.002 146:0.004 147:0.002 148:0.004 150:0.004 152:0.002 153:0.004 154:0.002 155:0.006 156:0.006 157:0.002 158:0.006 159:0.004 160:0.004 161:0.008 164:0.004 166:0.002 169:0.004 170:0.002 171:0.004 172:0.002 173:0.004 175:0.004 176:0.002 178:0.004 179:0.002 180:0.002 181:0.006 182:0.002 183:0.01 184:0.01 185:0.006 186:0.006 187:0.002 188:0.004 189:0.002 190:0.004 191:0.004 193:0.002 194:0.002 195:0.004 197:0.004 198:0.004 201:0.006 203:0.002 204:0.002 209:0.002 210:0.008 212:0.002 214:0.004 217:0.002 221:0.006 223:0.002 225:0.002 226:0.004 227:0.002 228:0.006 230:0.002 232:0.002 234:0.002 237:0.008 240:0.004 241:0.002 244:0.004 246:0.004 248:0.004 249:0.002 251:0.002 255:0.002 257:0.002 260:0.006 261:0.004 262:0.002 264:0.002 265:0.002 266:0.004 268:0.004 270:0.002 272:0.004 274:0.002 275:0.004 276:0.004 277:0.004 279:0.002 281:0.008 283:0.006 284:0.012 286:0.006 288:0.002 290:0.002 292:0.002 293:0.004 295:0.006 296:0.004 297:0.004 298:0.006 300:0.002 303:0.004 304:0.006 306:0.006 308:0.004 312:0.002 314:0.002 315:0.006 316:0.008 317:0.002 318:0.002 321:0.004 323:0.002 324:0.004 326:0.012 328:0.004 329:0.004 330:0.006 331:0.002 332:0.008 334:0.004 335:0.008 336:0.002 337:0.008 338:0.002 339:0.002 340:0.002 341:0.004 343:0.004 344:0.008 345:0.002 346:0.002 347:0.002 348:0.004 349:0.008 350:0.006 351:0.002 352:0.004 353:0.002 354:0.002 355:0.004 356:0.002 357:0.004 358:0.004 359:0.004 360:0.004 361:0.002 363:0.004 364:0.004 368:0.002 369:0.004 370:0.004 374:0.004 378:0.002 381:0.006 383:0.002 385:0.004 386:0.004 388:0.004 390:0.002 392:0.002 393:0.002 394:0.002 395:0.002 397:0.002 398:0.002 399:0.002 
18766.80423708363 1:0.008929 3:0.005357 4:0.003571 5:0.001786 6:0.001786 8:0.007143 9:0.001786 10:0.008929 11:0.001786 12:0.008929 13:0.007143 14:0.001786 15:0.001786 16:0.003571 17:0.010714 18:0.007143 19:0.001786 20:0.003571 24:0.001786 26:0.001786 28:0.001786 33:0.001786 38:0.001786 41:0.003571 45:0.007143 46:0.010714 47:0.003571 48:0.001786 49:0.003571 50:0.008929 52:0.003571 53:0.005357 54:0.001786 55:0.005357 56:0.005357 60:0.001786 61:0.010714 63:0.003571 64:0.007143 66:0.001786 67:0.001786 68:0.001786 69:0.005357 70:0.003571 72:0.003571 73:0.001786 75:0.001786 76:0.001786 77:0.003571 78:0.001786 80:0.003571 81:0.003571 83:0.007143 84:0.001786 85:0.005357 86:0.010714 88:0.001786 89:0.001786 92:0.003571 94:0.005357 95:0.001786 96:0.003571 97:0.003571 98:0.003571 100:0.001786 101:0.008929 103:0.007143 104:0.003571 105:0.003571 106:0.008929 107:0.001786 108:0.007143 109:0.005357 110:0.005357 112:0.001786 113:0.007143 114:0.001786 115:0.007143 116:0.007143 117:0.005357 118:0.005357 119:0.001786 123:0.003571 126:0.003571 127:0.001786 128:0.001786 129:0.001786 132:0.001786 133:0.001786 139:0.001786 141:0.007143 142:0.001786 143:0.003571 144:0.001786 145:0.008929 146:0.005357 148:0.007143 149:0.003571 150:0.010714 152:0.001786 153:0.001786 154:0.003571 155:0.007143 156:0.007143 157:0.003571 158:0.005357 161:0.005357 163:0.007143 164:0.003571 165:0.007143 167:0.001786 168:0.0125 169:0.001786 170:0.001786 171:0.001786 172:0.001786 173:0.003571 174:0.005357 175:0.001786 176:0.001786 177:0.003571 178:0.007143 181:0.005357 182:0.003571 183:0.001786 184:0.005357 186:0.007143 188:0.005357 189:0.008929 190:0.001786 191:0.003571 194:0.001786 195:0.005357 196:0.008929 197:0.003571 198:0.005357 199:0.001786 200:0.003571 203:0.001786 205:0.001786 207:0.001786 208:0.001786 209:0.005357 210:0.003571 211:0.001786 213:0.001786 221:0.005357 222:0.001786 223:0.001786 225:0.005357 226:0.007143 228:0.005357 229:0.001786 230:0.003571 231:0.001786 233:0.003571 234:0.003571 235:0.001786 236:0.001786 240:0.001786 241:0.007143 243:0.005357 244:0.001786 245:0.001786 246:0.003571 250:0.003571 252:0.005357 254:0.001786 256:0.001786 257:0.005357 258:0.001786 260:0.003571 263:0.001786 264:0.003571 265:0.003571 266:0.001786 268:0.001786 269:0.001786 270:0.003571 272:0.001786 274:0.003571 275:0.001786 276:0.005357 277:0.001786 278:0.001786 284:0.001786 285:0.001786 286:0.001786 288:0.005357 289:0.005357 290:0.008929 292:0.005357 294:0.001786 296:0.003571 297:0.003571 298:0.003571 300:0.001786 301:0.005357 302:0.001786 303:0.003571 305:0.003571 306:0.008929 307:0.001786 308:0.007143 309:0.005357 310:0.001786 311:0.001786 312:0.001786 314:0.001786 315:0.001786 316:0.001786 317:0.005357 318:0.007143 320:0.001786 321:0.003571 323:0.001786 326:0.008929 328:0.003571 329:0.005357 330:0.001786 331:0.003571 332:0.001786 333:0.003571 335:0.003571 336:0.003571 338:0.008929 340:0.001786 341:0.003571 343:0.005357 344:0.0125 345:0.001786 346:0.005357 348:0.005357 349:0.007143 350:0.003571 351:0.001786 352:0.003571 353:0.001786 355:0.003571 356:0.005357 357:0.001786 358:0.003571 360:0.001786 361:0.001786 367:0.001786 369:0.001786 370:0.001786 381:0.007143 383:0.001786 384:0.005357 385:0.001786 387:0.001786 388:0.001786 391:0.001786 393:0.001786 397:0.001786 398:0.001786 
22077.44 1:0.006231 4:0.003115 6:0.006231 7:0.003115 8:0.003115 9:0.003115 10:0.009346 11:0.006231 12:0.009346 13:0.006231 14:0.003115 15:0.006231 16:0.003115 17:0.003115 18:0.012461 19:0.006231 41:0.009346 43:0.003115 44:0.003115 45:0.006231 46:0.003115 49:0.003115 52:0.006231 53:0.006231 54:0.003115 55:0.003115 56:0.003115 58:0.003115 63:0.003115 68:0.006231 70:0.003115 73:0.003115 74:0.003115 77:0.006231 80:0.003115 81:0.006231 83:0.003115 88:0.006231 89:0.006231 90:0.003115 91:0.003115 92:0.003115 96:0.006231 99:0.003115 100:0.003115 101:0.006231 103:0.009346 104:0.003115 105:0.006231 106:0.003115 107:0.003115 108:0.003115 109:0.003115 110:0.009346 112:0.003115 113:0.003115 114:0.009346 115:0.003115 116:0.006231 117:0.003115 118:0.009346 119:0.003115 120:0.006231 126:0.006231 128:0.003115 132:0.003115 134:0.003115 136:0.003115 140:0.003115 143:0.003115 146:0.006231 148:0.006231 150:0.006231 152:0.003115 156:0.003115 157:0.006231 158:0.003115 161:0.003115 165:0.003115 166:0.006231 167:0.003115 169:0.003115 171:0.003115 173:0.003115 174:0.003115 175:0.003115 177:0.006231 180:0.003115 181:0.009346 183:0.009346 184:0.003115 186:0.006231 189:0.003115 190:0.006231 191:0.006231 192:0.006231 193:0.006231 194:0.003115 195:0.009346 196:0.006231 197:0.003115 199:0.003115 201:0.009346 203:0.003115 206:0.009346 213:0.003115 214:0.003115 218:0.006231 221:0.003115 225:0.003115 226:0.012461 227:0.006231 229:0.003115 230:0.006231 232:0.003115 233:0.003115 234:0.006231 235:0.003115 238:0.006231 240:0.006231 243:0.003115 244:0.003115 246:0.003115 250:0.006231 252:0.012461 253:0.006231 254:0.006231 255:0.003115 256:0.006231 257:0.003115 258:0.003115 261:0.015576 263:0.003115 264:0.003115 265:0.006231 267:0.003115 270:0.009346 271:0.003115 272:0.003115 273:0.003115 274:0.012461 278:0.006231 280:0.009346 281:0.006231 283:0.003115 288:0.003115 289:0.003115 290:0.009346 294:0.003115 295:0.003115 298:0.006231 299:0.003115 300:0.006231 305:0.006231 306:0.009346 308:0.003115 310:0.003115 314:0.006231 316:0.003115 317:0.003115 318:0.009346 320:0.003115 325:0.003115 326:0.003115 327:0.003115 328:0.003115 329:0.003115 330:0.003115 333:0.006231 335:0.009346 336:0.003115 337:0.003115 341:0.009346 343:0.006231 344:0.006231 345:0.003115 346:0.006231 349:0.006231 350:0.003115 351:0.009346 352:0.003115 353:0.003115 354:0.006231 358:0.003115 359:0.003115 360:0.003115 363:0.003115 366:0.003115 370:0.003115 372:0.003115 374:0.006231 378:0.003115 380:0.003115 381:0.006231 384:0.003115 385:0.006231 386:0.009346 389:0.003115 392:0.003115 393:0.003115 394:0.003115 395:0.003115 396:0.003115 397:0.003115 399:0.003115 
18847.85390466394 1:0.012605 3:0.004202 5:0.008403 7:0.004202 10:0.004202 13:0.016807 16:0.016807 17:0.008403 18:0.004202 44:0.004202 46:0.004202 48:0.004202 50:0.008403 53:0.008403 56:0.008403 57:0.004202 58:0.008403 59:0.004202 61:0.008403 65:0.004202 68:0.004202 70:0.004202 72:0.004202 76:0.004202 77:0.004202 78:0.004202 79:0.004202 81:0.008403 83:0.004202 92:0.004202 94:0.004202 96:0.012605 97:0.012605 98:0.008403 100:0.004202 104:0.004202 105:0.004202 106:0.004202 108:0.008403 110:0.008403 112:0.004202 114:0.004202 115:0.004202 116:0.008403 118:0.008403 120:0.004202 123:0.004202 128:0.004202 136:0.004202 141:0.004202 143:0.004202 144:0.004202 146:0.004202 149:0.004202 150:0.004202 152:0.008403 153:0.004202 157:0.008403 158:0.004202 159:0.004202 161:0.004202 164:0.004202 177:0.008403 178:0.004202 180:0.008403 181:0.012605 185:0.008403 186:0.004202 188:0.004202 189:0.004202 190:0.004202 193:0.004202 194:0.004202 196:0.008403 197:0.004202 198:0.004202 200:0.004202 224:0.004202 225:0.004202 226:0.012605 229:0.004202 232:0.008403 233:0.004202 234:0.008403 236:0.008403 237:0.004202 240:0.004202 243:0.008403 244:0.004202 252:0.016807 253:0.004202 254:0.004202 256:0.008403 257:0.004202 258:0.004202 259:0.004202 266:0.004202 268:0.008403 269:0.004202 270:0.004202 273:0.004202 277:0.004202 279:0.004202 281:0.004202 287:0.004202 288:0.004202 298:0.004202 301:0.004202 303:0.012605 305:0.016807 306:0.004202 308:0.004202 309:0.004202 310:0.004202 312:0.012605 314:0.004202 316:0.008403 317:0.012605 318:0.02521 319:0.004202 320:0.004202 324:0.004202 325:0.008403 326:0.012605 327:0.004202 328:0.008403 329:0.004202 330:0.008403 336:0.012605 337:0.008403 338:0.004202 340:0.008403 341:0.016807 343:0.004202 344:0.012605 346:0.008403 349:0.004202 350:0.008403 352:0.004202 353:0.004202 354:0.004202 355:0.008403 356:0.008403 358:0.004202 360:0.004202 363:0.008403 366:0.004202 368:0.004202 376:0.004202 378:0.004202 381:0.004202 383:0.004202 385:0.004202 390:0.012605 393:0.008403 395:0.004202 396:0.004202 
12655.93246278752 2:0.007463 4:0.007463 5:0.007463 8:0.007463 10:0.007463 15:0.007463 16:0.007463 17:0.007463 23:0.007463 29:0.007463 30:0.007463 32:0.007463 36:0.007463 38:0.007463 41:0.014925 43:0.007463 47:0.007463 50:0.007463 56:0.014925 57:0.007463 59:0.007463 61:0.007463 62:0.007463 63:0.007463 69:0.007463 70:0.007463 76:0.007463 80:0.007463 86:0.007463 89:0.007463 90:0.007463 92:0.007463 95:0.007463 108:0.007463 110:0.007463 112:0.007463 116:0.007463 117:0.014925 118:0.007463 120:0.007463 129:0.007463 149:0.014925 151:0.007463 156:0.007463 160:0.007463 165:0.007463 166:0.014925 170:0.014925 172:0.014925 175:0.007463 176:0.007463 177:0.007463 178:0.007463 179:0.007463 182:0.014925 183:0.007463 185:0.007463 186:0.007463 188:0.007463 196:0.007463 199:0.007463 200:0.022388 216:0.007463 223:0.007463 224:0.007463 228:0.007463 233:0.007463 235:0.007463 240:0.007463 244:0.007463 256:0.007463 264:0.007463 265:0.007463 268:0.007463 269:0.014925 277:0.007463 282:0.007463 286:0.007463 294:0.014925 299:0.014925 301:0.007463 303:0.007463 304:0.007463 306:0.007463 309:0.014925 314:0.014925 315:0.014925 318:0.022388 321:0.007463 322:0.007463 323:0.014925 324:0.007463 330:0.014925 337:0.007463 341:0.007463 343:0.007463 353:0.007463 354:0.007463 356:0.007463 357:0.007463 360:0.007463 361:0.007463 364:0.007463 369:0.007463 376:0.007463 378:0.007463 381:0.007463 384:0.007463 385:0.007463 386:0.014925 389:0.007463 392:0.007463 394:0.007463 
20480 1:0.009174 6:0.022936 12:0.009174 13:0.009174 14:0.004587 16:0.004587 18:0.004587 19:0.004587 29:0.004587 30:0.004587 33:0.004587 38:0.004587 41:0.009174 46:0.004587 49:0.009174 58:0.009174 63:0.004587 65:0.009174 67:0.004587 68:0.004587 69:0.013761 72:0.004587 75:0.004587 76:0.004587 78:0.004587 80:0.009174 84:0.004587 87:0.004587 89:0.004587 95:0.004587 98:0.004587 103:0.004587 104:0.004587 106:0.013761 108:0.004587 109:0.004587 110:0.009174 112:0.013761 113:0.004587 115:0.004587 116:0.009174 118:0.004587 120:0.004587 121:0.004587 128:0.004587 130:0.004587 135:0.009174 136:0.004587 137:0.004587 138:0.004587 139:0.004587 144:0.004587 146:0.009174 149:0.004587 150:0.004587 151:0.004587 152:0.004587 154:0.004587 155:0.004587 156:0.004587 161:0.004587 164:0.009174 165:0.004587 166:0.004587 167:0.004587 171:0.004587 172:0.009174 174:0.004587 175:0.009174 178:0.013761 180:0.004587 181:0.004587 183:0.004587 187:0.004587 188:0.004587 189:0.013761 193:0.013761 194:0.004587 197:0.004587 200:0.004587 204:0.009174 213:0.004587 215:0.004587 221:0.004587 224:0.004587 226:0.009174 227:0.004587 229:0.004587 232:0.004587 233:0.004587 234:0.004587 236:0.004587 237:0.013761 238:0.004587 240:0.004587 241:0.018349 243:0.004587 246:0.004587 247:0.009174 248:0.004587 251:0.004587 256:0.004587 257:0.004587 260:0.009174 261:0.004587 264:0.004587 267:0.004587 273:0.004587 279:0.004587 281:0.004587 282:0.004587 284:0.004587 288:0.004587 290:0.004587 292:0.009174 293:0.004587 296:0.004587 299:0.004587 301:0.004587 303:0.009174 305:0.004587 308:0.009174 309:0.004587 310:0.004587 312:0.004587 313:0.004587 317:0.004587 318:0.004587 322:0.009174 323:0.004587 324:0.004587 325:0.004587 331:0.004587 332:0.004587 337:0.004587 338:0.013761 340:0.004587 342:0.004587 344:0.018349 346:0.004587 349:0.004587 350:0.013761 352:0.004587 353:0.009174 355:0.004587 357:0.004587 358:0.018349 360:0.004587 368:0.004587 370:0.009174 376:0.004587 377:0.004587 386:0.009174 387:0.004587 388:0.004587 389:0.004587 390:0.004587 396:0.004587 397:0.009174 399:0.004587 
22077.44 3:0.001552 4:0.002327 5:0.002327 6:0.003103 8:0.003103 9:0.002327 10:0.004655 12:0.003879 13:0.001552 14:0.001552 15:0.000776 16:0.003879 18:0.001552 20:0.000776 24:0.000776 28:0.002327 29:0.000776 31:0.000776 32:0.000776 33:0.000776 34:0.000776 36:0.000776 41:0.001552 43:0.003103 44:0.005431 45:0.006982 46:0.002327 48:0.008534 49:0.006982 50:0.005431 51:0.001552 52:0.006206 53:0.003879 55:0.003103 56:0.003103 57:0.001552 58:0.003103 60:0.003103 61:0.001552 63:0.003879 64:0.007758 65:0.002327 66:0.004655 67:0.000776 68:0.006206 69:0.008534 70:0.005431 71:0.001552 72:0.006206 73:0.000776 74:0.000776 75:0.003103 76:0.004655 77:0.002327 78:0.003103 79:0.000776 80:0.00931 81:0.003103 82:0.001552 83:0.003103 84:0.003103 85:0.004655 86:0.003879 88:0.004655 89:0.004655 90:0.003103 91:0.000776 92:0.011637 93:0.001552 94:0.000776 95:0.000776 96:0.005431 97:0.001552 98:0.002327 99:0.001552 100:0.002327 101:0.003103 102:0.001552 103:0.001552 104:0.003879 105:0.002327 106:0.001552 108:0.00931 109:0.002327 110:0.003879 111:0.000776 112:0.003879 113:0.001552 114:0.001552 115:0.000776 116:0.000776 117:0.000776 118:0.000776 119:0.002327 120:0.002327 124:0.000776 125:0.000776 126:0.000776 130:0.000776 132:0.000776 135:0.000776 138:0.000776 141:0.004655 142:0.000776 143:0.00931 144:0.005431 145:0.007758 146:0.004655 147:0.002327 148:0.010085 149:0.010085 150:0.005431 151:0.002327 152:0.013189 153:0.005431 154:0.004655 155:0.005431 156:0.008534 157:0.002327 158:0.005431 159:0.002327 160:0.005431 161:0.003103 163:0.006982 164:0.006982 165:0.003879 166:0.002327 168:0.00931 169:0.006982 170:0.010085 171:0.000776 172:0.008534 173:0.002327 174:0.002327 175:0.001552 176:0.007758 177:0.003879 178:0.005431 179:0.001552 180:0.007758 181:0.003103 183:0.005431 184:0.004655 185:0.004655 186:0.002327 187:0.000776 188:0.010861 189:0.004655 190:0.006982 191:0.003103 192:0.00931 193:0.002327 194:0.001552 195:0.000776 196:0.003879 197:0.003879 198:0.000776 200:0.004655 202:0.000776 203:0.001552 204:0.001552 205:0.002327 207:0.000776 208:0.002327 209:0.003103 211:0.000776 213:0.000776 214:0.001552 220:0.002327 221:0.003103 222:0.000776 223:0.006982 224:0.008534 225:0.003103 226:0.003879 227:0.000776 228:0.012413 229:0.013189 230:0.006206 232:0.007758 233:0.001552 234:0.003879 235:0.003879 236:0.006982 237:0.008534 238:0.002327 239:0.000776 240:0.005431 241:0.001552 243:0.000776 244:0.003103 245:0.001552 246:0.002327 248:0.003103 249:0.001552 250:0.003879 252:0.001552 253:0.001552 256:0.002327 257:0.000776 258:0.004655 260:0.002327 261:0.003879 263:0.000776 264:0.001552 265:0.003103 268:0.001552 270:0.000776 271:0.001552 272:0.005431 273:0.001552 276:0.003879 277:0.001552 279:0.000776 280:0.000776 281:0.000776 283:0.002327 284:0.002327 285:0.000776 286:0.003879 288:0.003879 289:0.003103 290:0.000776 292:0.000776 295:0.002327 296:0.000776 297:0.000776 298:0.002327 299:0.000776 300:0.003879 301:0.001552 302:0.000776 303:0.006206 304:0.004655 305:0.003879 306:0.003103 308:0.006982 309:0.007758 310:0.003879 311:0.000776 312:0.006206 313:0.000776 314:0.002327 315:0.000776 316:0.002327 317:0.003103 318:0.005431 320:0.003879 321:0.001552 323:0.006206 324:0.003103 325:0.002327 326:0.000776 328:0.008534 329:0.001552 330:0.001552 331:0.001552 332:0.003879 333:0.000776 334:0.003103 335:0.001552 336:0.001552 338:0.001552 340:0.001552 341:0.000776 342:0.001552 343:0.003103 344:0.005431 345:0.003103 346:0.002327 348:0.001552 349:0.003103 350:0.003103 352:0.003103 353:0.003103 354:0.000776 355:0.000776 356:0.002327 357:0.003103 358:0.001552 360:0.003879 365:0.000776 366:0.000776 368:0.001552 369:0.000776 370:0.000776 371:0.000776 374:0.000776 375:0.000776 376:0.000776 377:0.001552 378:0.000776 380:0.000776 383:0.003103 384:0.003103 385:0.003879 386:0.002327 388:0.00931 389:0.010085 390:0.006982 391:0.000776 392:0.006982 394:0.000776 395:0.002327 396:0.004655 397:0.005431 398:0.000776 400:0.002327 
22077.44 1:0.005731 3:0.005731 8:0.002865 9:0.008596 10:0.008596 12:0.005731 14:0.002865 15:0.005731 16:0.002865 17:0.005731 18:0.002865 20:0.002865 24:0.002865 27:0.002865 30:0.002865 40:0.002865 43:0.005731 45:0.002865 46:0.002865 47:0.002865 48:0.002865 49:0.008596 50:0.008596 52:0.002865 53:0.005731 54:0.005731 55:0.005731 57:0.002865 58:0.005731 61:0.011461 63:0.002865 64:0.008596 65:0.002865 67:0.002865 68:0.002865 69:0.005731 70:0.002865 72:0.002865 74:0.002865 75:0.002865 76:0.005731 77:0.002865 78:0.005731 80:0.002865 84:0.011461 88:0.002865 91:0.005731 92:0.002865 93:0.005731 95:0.011461 99:0.002865 101:0.002865 104:0.005731 105:0.002865 106:0.005731 108:0.002865 110:0.005731 111:0.002865 112:0.005731 113:0.002865 114:0.002865 115:0.002865 116:0.002865 118:0.008596 120:0.002865 129:0.002865 130:0.005731 133:0.002865 141:0.008596 143:0.002865 145:0.002865 148:0.002865 150:0.005731 152:0.005731 153:0.002865 157:0.002865 159:0.002865 161:0.005731 162:0.002865 163:0.002865 164:0.002865 165:0.002865 167:0.002865 168:0.002865 169:0.005731 170:0.002865 171:0.002865 175:0.008596 176:0.002865 177:0.002865 178:0.002865 180:0.011461 184:0.002865 185:0.005731 186:0.008596 188:0.002865 189:0.005731 190:0.005731 192:0.005731 193:0.005731 194:0.011461 195:0.011461 196:0.005731 197:0.011461 198:0.002865 200:0.002865 202:0.002865 203:0.002865 204:0.002865 205:0.002865 214:0.002865 215:0.002865 216:0.002865 217:0.002865 221:0.002865 223:0.005731 224:0.002865 226:0.005731 229:0.002865 230:0.008596 232:0.011461 234:0.005731 237:0.002865 238:0.008596 239:0.008596 241:0.008596 243:0.005731 245:0.002865 246:0.005731 248:0.002865 252:0.005731 254:0.002865 256:0.005731 257:0.002865 260:0.008596 262:0.002865 263:0.002865 264:0.005731 265:0.002865 268:0.002865 270:0.005731 271:0.002865 272:0.005731 273:0.005731 275:0.002865 278:0.005731 281:0.002865 283:0.005731 284:0.008596 285:0.005731 286:0.002865 288:0.005731 289:0.005731 290:0.002865 291:0.002865 292:0.002865 293:0.005731 294:0.005731 295:0.008596 298:0.008596 299:0.002865 301:0.002865 303:0.002865 304:0.005731 305:0.002865 306:0.002865 310:0.002865 315:0.005731 316:0.002865 318:0.008596 319:0.005731 323:0.005731 325:0.002865 329:0.005731 330:0.005731 331:0.002865 333:0.005731 336:0.005731 337:0.005731 338:0.005731 341:0.002865 343:0.005731 344:0.005731 345:0.002865 346:0.008596 348:0.002865 349:0.005731 350:0.005731 353:0.005731 355:0.005731 356:0.005731 358:0.005731 360:0.005731 361:0.002865 363:0.002865 366:0.005731 370:0.002865 371:0.002865 372:0.005731 375:0.002865 380:0.002865 381:0.002865 382:0.002865 383:0.002865 386:0.008596 389:0.005731 390:0.005731 392:0.002865 393:0.002865 394:0.002865 399:0.005731 400:0.005731 
22077.44 4:0.007634 8:0.007634 9:0.007634 10:0.007634 11:0.007634 12:0.007634 16:0.007634 25:0.007634 29:0.007634 44:0.007634 46:0.022901 53:0.015267 62:0.007634 63:0.007634 64:0.007634 69:0.007634 75:0.015267 76:0.007634 84:0.007634 85:0.022901 89:0.007634 90:0.015267 105:0.007634 106:0.007634 107:0.007634 113:0.007634 114:0.015267 115:0.015267 116:0.007634 118:0.022901 125:0.007634 128:0.007634 133:0.007634 147:0.007634 149:0.015267 150:0.007634 161:0.007634 163:0.007634 164:0.007634 166:0.007634 170:0.015267 172:0.007634 175:0.015267 176:0.022901 177:0.007634 180:0.007634 181:0.015267 184:0.007634 185:0.007634 186:0.007634 189:0.007634 190:0.007634 193:0.007634 194:0.015267 195:0.007634 200:0.007634 209:0.007634 216:0.007634 226:0.007634 232:0.007634 235:0.007634 237:0.007634 240:0.007634 243:0.007634 246:0.007634 247:0.007634 249:0.007634 251:0.007634 261:0.007634 269:0.007634 270:0.007634 280:0.007634 284:0.007634 286:0.007634 288:0.007634 289:0.007634 290:0.022901 296:0.007634 297:0.007634 298:0.007634 300:0.007634 301:0.015267 303:0.007634 308:0.007634 309:0.015267 312:0.007634 315:0.007634 318:0.007634 319:0.007634 323:0.007634 326:0.015267 336:0.007634 340:0.007634 341:0.007634 343:0.007634 355:0.007634 356:0.015267 357:0.007634 358:0.007634 380:0.007634 382:0.007634 389:0.007634 390:0.007634 392:0.007634 395:0.007634 397:0.007634 398:0.007634 
21664.25169380329 3:0.010989 5:0.005495 9:0.005495 10:0.005495 15:0.005495 21:0.005495 23:0.005495 25:0.005495 28:0.005495 29:0.005495 30:0.005495 34:0.005495 35:0.005495 36:0.005495 37:0.005495 48:0.005495 49:0.005495 50:0.010989 53:0.005495 54:0.005495 55:0.005495 60:0.005495 64:0.005495 65:0.016484 66:0.010989 67:0.005495 72:0.010989 78:0.016484 83:0.010989 86:0.005495 89:0.005495 90:0.005495 92:0.005495 93:0.005495 97:0.010989 98:0.005495 104:0.005495 106:0.005495 107:0.005495 108:0.005495 109:0.010989 110:0.005495 113:0.005495 114:0.005495 115:0.005495 117:0.005495 118:0.005495 124:0.016484 136:0.005495 143:0.005495 146:0.005495 147:0.005495 148:0.005495 149:0.016484 153:0.010989 155:0.005495 157:0.005495 161:0.010989 162:0.005495 163:0.010989 164:0.005495 166:0.016484 168:0.010989 169:0.016484 174:0.005495 175:0.005495 176:0.010989 177:0.010989 178:0.005495 188:0.005495 189:0.005495 193:0.010989 194:0.005495 199:0.005495 200:0.005495 208:0.005495 216:0.005495 222:0.005495 229:0.010989 233:0.010989 236:0.005495 237:0.010989 240:0.005495 241:0.005495 244:0.005495 245:0.010989 247:0.005495 254:0.005495 255:0.005495 256:0.005495 259:0.010989 262:0.016484 264:0.005495 273:0.005495 275:0.005495 282:0.005495 286:0.010989 289:0.010989 292:0.021978 295:0.005495 296:0.005495 300:0.005495 301:0.005495 304:0.005495 305:0.005495 306:0.010989 308:0.005495 311:0.010989 312:0.005495 316:0.016484 320:0.010989 321:0.005495 322:0.005495 328:0.005495 329:0.010989 330:0.005495 335:0.005495 336:0.005495 337:0.005495 338:0.005495 342:0.005495 344:0.010989 345:0.005495 349:0.005495 352:0.005495 355:0.005495 356:0.005495 362:0.005495 365:0.005495 376:0.005495 382:0.005495 384:0.010989 388:0.005495 389:0.005495 395:0.005495 398:0.005495 
22077.44 1:0.014144 3:0.011315 4:0.004243 5:0.007072 6:0.008487 9:0.001414 10:0.009901 11:0.001414 12:0.004243 13:0.004243 14:0.004243 15:0.007072 16:0.005658 17:0.002829 18:0.002829 19:0.002829 20:0.004243 38:0.001414 41:0.002829 43:0.001414 44:0.004243 45:0.002829 46:0.002829 47:0.005658 48:0.001414 50:0.005658 51:0.001414 52:0.004243 53:0.004243 54:0.004243 55:0.002829 56:0.002829 57:0.001414 58:0.002829 59:0.002829 60:0.002829 61:0.004243 63:0.004243 64:0.001414 65:0.002829 66:0.007072 67:0.001414 69:0.002829 70:0.002829 73:0.005658 74:0.004243 75:0.004243 76:0.001414 77:0.001414 79:0.001414 80:0.002829 81:0.005658 84:0.001414 86:0.007072 87:0.002829 88:0.001414 89:0.001414 90:0.002829 91:0.001414 92:0.002829 94:0.004243 95:0.002829 96:0.002829 98:0.002829 99:0.001414 101:0.004243 103:0.005658 104:0.002829 105:0.004243 106:0.002829 107:0.001414 108:0.004243 109:0.002829 110:0.005658 111:0.002829 112:0.001414 113:0.005658 114:0.001414 115:0.005658 116:0.005658 117:0.004243 118:0.007072 120:0.005658 121:0.004243 123:0.001414 127:0.001414 129:0.001414 130:0.007072 133:0.004243 134:0.001414 135:0.004243 137:0.001414 138:0.002829 139:0.001414 140:0.001414 141:0.005658 143:0.001414 144:0.002829 146:0.004243 149:0.002829 150:0.004243 152:0.009901 153:0.002829 154:0.001414 155:0.001414 156:0.001414 157:0.001414 158:0.002829 160:0.001414 161:0.004243 163:0.001414 165:0.001414 168:0.002829 170:0.002829 171:0.002829 172:0.001414 173:0.002829 174:0.002829 175:0.001414 177:0.008487 178:0.001414 180:0.001414 181:0.008487 183:0.002829 184:0.005658 185:0.002829 186:0.005658 187:0.001414 188:0.004243 189:0.007072 190:0.007072 192:0.005658 193:0.002829 194:0.008487 195:0.004243 196:0.009901 197:0.001414 198:0.005658 199:0.004243 200:0.004243 201:0.002829 204:0.001414 210:0.004243 211:0.004243 213:0.001414 214:0.002829 216:0.001414 217:0.001414 219:0.001414 220:0.001414 221:0.005658 225:0.001414 226:0.002829 227:0.001414 228:0.001414 229:0.002829 230:0.004243 231:0.002829 232:0.001414 233:0.001414 234:0.001414 235:0.002829 236:0.007072 238:0.002829 239:0.001414 240:0.004243 241:0.005658 243:0.004243 244:0.005658 245:0.004243 246:0.002829 248:0.007072 250:0.007072 252:0.001414 254:0.001414 255:0.009901 257:0.001414 258:0.001414 259:0.002829 260:0.001414 261:0.001414 264:0.005658 265:0.001414 266:0.005658 267:0.002829 268:0.005658 269:0.004243 271:0.001414 273:0.007072 274:0.002829 275:0.002829 276:0.004243 277:0.004243 278:0.004243 279:0.001414 280:0.001414 281:0.008487 283:0.002829 284:0.004243 285:0.002829 286:0.005658 287:0.004243 288:0.002829 290:0.004243 291:0.004243 292:0.004243 293:0.002829 296:0.001414 297:0.005658 298:0.007072 299:0.001414 300:0.002829 301:0.004243 302:0.001414 303:0.002829 304:0.001414 305:0.001414 306:0.002829 308:0.001414 309:0.001414 310:0.009901 312:0.002829 313:0.005658 314:0.001414 315:0.004243 316:0.005658 317:0.001414 318:0.002829 319:0.002829 320:0.001414 321:0.004243 323:0.004243 324:0.001414 325:0.001414 326:0.005658 327:0.004243 328:0.002829 329:0.001414 330:0.001414 332:0.001414 333:0.001414 334:0.002829 335:0.004243 337:0.001414 338:0.001414 339:0.001414 340:0.002829 341:0.005658 343:0.002829 344:0.002829 345:0.002829 346:0.001414 347:0.001414 348:0.007072 349:0.004243 350:0.005658 352:0.004243 353:0.002829 354:0.004243 355:0.002829 356:0.001414 358:0.005658 360:0.002829 363:0.007072 365:0.001414 366:0.002829 367:0.001414 369:0.001414 370:0.002829 374:0.001414 375:0.002829 377:0.004243 379:0.001414 380:0.001414 381:0.004243 383:0.002829 384:0.001414 385:0.002829 386:0.005658 387:0.002829 388:0.001414 389:0.001414 390:0.004243 393:0.001414 394:0.005658 395:0.001414 396:0.004243 397:0.001414 398:0.002829 400:0.004243 
17730.41607941964 1:0.012085 3:0.003021 4:0.006042 5:0.003021 6:0.006042 10:0.009063 12:0.012085 13:0.003021 14:0.009063 15:0.006042 16:0.003021 17:0.009063 18:0.009063 19:0.003021 20:0.006042 21:0.003021 41:0.003021 45:0.003021 46:0.006042 47:0.003021 48:0.003021 50:0.003021 52:0.006042 55:0.006042 56:0.003021 57:0.003021 58:0.006042 60:0.009063 66:0.003021 68:0.003021 70:0.003021 71:0.003021 74:0.003021 75:0.003021 76:0.009063 78:0.003021 81:0.006042 83:0.003021 85:0.003021 89:0.003021 90:0.009063 92:0.006042 96:0.006042 100:0.009063 101:0.009063 105:0.003021 106:0.021148 110:0.003021 111:0.003021 112:0.015106 115:0.003021 116:0.012085 117:0.009063 118:0.009063 119:0.003021 120:0.012085 121:0.003021 126:0.003021 131:0.003021 141:0.003021 144:0.003021 148:0.003021 150:0.003021 152:0.003021 157:0.006042 158:0.003021 161:0.009063 165:0.003021 166:0.006042 169:0.003021 171:0.003021 172:0.003021 174:0.003021 175:0.003021 176:0.003021 177:0.003021 178:0.003021 179:0.003021 180:0.003021 181:0.009063 183:0.012085 184:0.009063 189:0.006042 191:0.003021 192:0.006042 193:0.003021 196:0.006042 197:0.009063 198:0.006042 201:0.003021 210:0.003021 216:0.003021 217:0.006042 218:0.003021 219:0.003021 221:0.003021 223:0.006042 224:0.003021 225:0.006042 226:0.015106 229:0.003021 230:0.003021 232:0.006042 233:0.006042 235:0.003021 236:0.009063 237:0.006042 239:0.003021 240:0.003021 241:0.003021 245:0.003021 248:0.003021 249:0.006042 250:0.003021 254:0.006042 255:0.009063 261:0.003021 265:0.003021 267:0.003021 269:0.003021 271:0.003021 272:0.006042 273:0.006042 274:0.003021 277:0.003021 279:0.003021 280:0.003021 281:0.015106 283:0.006042 285:0.006042 286:0.006042 289:0.003021 291:0.003021 295:0.003021 297:0.012085 301:0.003021 303:0.009063 304:0.003021 306:0.009063 307:0.003021 308:0.003021 309:0.006042 310:0.009063 313:0.003021 314:0.003021 315:0.003021 316:0.003021 317:0.003021 318:0.006042 319:0.003021 320:0.003021 321:0.006042 323:0.006042 324:0.003021 325:0.003021 326:0.009063 328:0.006042 329:0.009063 330:0.003021 332:0.006042 334:0.006042 335:0.003021 336:0.003021 338:0.006042 340:0.006042 341:0.003021 345:0.006042 346:0.009063 350:0.012085 352:0.003021 353:0.006042 355:0.006042 357:0.003021 358:0.003021 359:0.003021 360:0.003021 362:0.003021 365:0.003021 366:0.003021 369:0.003021 370:0.003021 373:0.003021 376:0.003021 380:0.003021 381:0.003021 383:0.009063 384:0.003021 386:0.003021 388:0.003021 389:0.003021 390:0.006042 392:0.003021 393:0.003021 394:0.006042 395:0.006042 396:0.009063 397:0.003021 
22077.44 1:0.01566 3:0.002237 4:0.006711 5:0.006711 6:0.011186 7:0.002237 9:0.006711 10:0.01566 12:0.004474 13:0.004474 14:0.004474 16:0.004474 18:0.004474 19:0.004474 20:0.004474 23:0.002237 25:0.002237 30:0.002237 42:0.002237 43:0.004474 44:0.006711 46:0.004474 48:0.006711 49:0.002237 50:0.008949 53:0.002237 54:0.002237 55:0.008949 57:0.002237 58:0.006711 60:0.006711 61:0.004474 62:0.002237 63:0.002237 67:0.002237 68:0.004474 69:0.002237 70:0.006711 72:0.004474 73:0.002237 74:0.004474 75:0.006711 77:0.002237 78:0.004474 80:0.004474 81:0.004474 83:0.002237 85:0.002237 86:0.002237 87:0.002237 88:0.002237 90:0.006711 92:0.004474 93:0.002237 94:0.004474 95:0.004474 96:0.004474 101:0.004474 103:0.002237 104:0.002237 105:0.004474 106:0.004474 108:0.004474 109:0.006711 110:0.008949 112:0.004474 113:0.002237 114:0.002237 115:0.002237 118:0.004474 119:0.004474 120:0.002237 121:0.004474 123:0.002237 124:0.002237 125:0.002237 126:0.002237 127:0.002237 128:0.002237 130:0.002237 134:0.002237 137:0.002237 139:0.002237 140:0.002237 141:0.006711 144:0.002237 145:0.006711 146:0.004474 147:0.002237 148:0.002237 150:0.002237 152:0.004474 153:0.002237 155:0.004474 156:0.004474 157:0.002237 158:0.006711 159:0.002237 161:0.006711 164:0.004474 166:0.004474 168:0.004474 169:0.004474 170:0.006711 172:0.004474 174:0.004474 175:0.002237 176:0.002237 178:0.002237 180:0.004474 181:0.013423 182:0.002237 183:0.013423 184:0.006711 186:0.006711 187:0.002237 188:0.002237 189:0.011186 190:0.017897 192:0.002237 193:0.011186 194:0.002237 195:0.006711 196:0.006711 197:0.006711 198:0.011186 199:0.004474 200:0.002237 221:0.006711 223:0.004474 224:0.006711 226:0.002237 227:0.002237 228:0.004474 230:0.006711 232:0.002237 233:0.004474 234:0.004474 235:0.004474 238:0.002237 241:0.006711 243:0.002237 244:0.004474 245:0.004474 246:0.002237 248:0.002237 249:0.004474 250:0.011186 253:0.004474 254:0.002237 255:0.002237 257:0.006711 260:0.002237 261:0.004474 263:0.008949 264:0.002237 265:0.006711 267:0.004474 268:0.004474 270:0.008949 272:0.002237 273:0.002237 275:0.002237 277:0.002237 281:0.002237 283:0.004474 285:0.002237 286:0.004474 287:0.004474 288:0.008949 289:0.004474 290:0.008949 293:0.002237 296:0.002237 297:0.002237 298:0.004474 300:0.004474 301:0.006711 303:0.004474 304:0.002237 305:0.002237 306:0.002237 307:0.002237 309:0.002237 310:0.002237 312:0.006711 314:0.002237 315:0.006711 318:0.002237 321:0.002237 324:0.004474 326:0.002237 330:0.002237 333:0.006711 334:0.002237 335:0.004474 336:0.004474 337:0.002237 339:0.002237 340:0.002237 341:0.006711 344:0.002237 346:0.004474 348:0.002237 349:0.004474 350:0.006711 352:0.006711 353:0.002237 354:0.006711 356:0.002237 357:0.004474 358:0.004474 360:0.002237 361:0.002237 363:0.002237 365:0.002237 366:0.002237 368:0.002237 373:0.002237 374:0.002237 376:0.002237 377:0.002237 383:0.006711 384:0.002237 386:0.002237 387:0.002237 390:0.004474 392:0.002237 393:0.004474 394:0.002237 395:0.002237 396:0.004474 397:0.002237 398:0.002237 400:0.004474 
22077.44 1:0.003425 5:0.006849 6:0.006849 8:0.003425 9:0.003425 10:0.003425 11:0.003425 14:0.003425 15:0.003425 16:0.003425 17:0.006849 18:0.013699 19:0.003425 20:0.003425 21:0.003425 33:0.003425 42:0.003425 43:0.003425 46:0.006849 48:0.006849 49:0.006849 50:0.003425 52:0.006849 53:0.003425 56:0.003425 57:0.006849 58:0.006849 61:0.006849 64:0.013699 65:0.006849 68:0.006849 69:0.003425 70:0.003425 73:0.003425 74:0.006849 75:0.006849 76:0.003425 81:0.003425 83:0.003425 88:0.013699 94:0.003425 95:0.003425 100:0.006849 101:0.003425 103:0.010274 104:0.006849 105:0.003425 106:0.006849 107:0.003425 108:0.006849 110:0.013699 114:0.003425 115:0.006849 116:0.006849 117:0.010274 118:0.003425 120:0.003425 123:0.003425 134:0.003425 138:0.003425 141:0.006849 143:0.003425 144:0.006849 145:0.003425 146:0.006849 148:0.010274 149:0.003425 150:0.006849 152:0.003425 155:0.003425 156:0.006849 157:0.003425 160:0.010274 163:0.003425 164:0.003425 166:0.006849 170:0.006849 171:0.006849 172:0.010274 173:0.010274 174:0.003425 176:0.003425 178:0.006849 181:0.013699 183:0.003425 184:0.013699 186:0.006849 188:0.010274 189:0.006849 190:0.006849 191:0.006849 192:0.003425 193:0.006849 194:0.003425 196:0.006849 198:0.003425 200:0.010274 201:0.006849 204:0.003425 206:0.003425 208:0.003425 209:0.003425 210:0.003425 211:0.003425 215:0.003425 217:0.003425 223:0.006849 225:0.003425 226:0.003425 228:0.003425 229:0.003425 230:0.006849 232:0.003425 235:0.003425 240:0.006849 243:0.003425 244:0.006849 248:0.003425 249:0.006849 250:0.010274 251:0.003425 254:0.003425 255:0.003425 256:0.006849 258:0.003425 261:0.003425 263:0.003425 266:0.006849 270:0.006849 271:0.003425 273:0.003425 274:0.003425 276:0.003425 278:0.003425 279:0.003425 280:0.006849 283:0.003425 285:0.003425 286:0.006849 288:0.003425 289:0.010274 290:0.006849 294:0.003425 300:0.003425 301:0.003425 302:0.003425 306:0.006849 309:0.003425 310:0.006849 312:0.010274 313:0.003425 314:0.003425 317:0.006849 318:0.003425 321:0.003425 323:0.003425 326:0.006849 327:0.003425 328:0.003425 329:0.003425 330:0.003425 331:0.003425 333:0.006849 335:0.003425 338:0.003425 341:0.003425 344:0.006849 345:0.003425 350:0.003425 352:0.006849 353:0.003425 354:0.006849 355:0.003425 356:0.006849 357:0.006849 358:0.006849 366:0.003425 370:0.003425 381:0.006849 383:0.006849 385:0.003425 386:0.010274 387:0.003425 389:0.006849 390:0.006849 393:0.006849 400:0.003425 
22077.44 1:0.012295 2:0.004098 3:0.004098 4:0.02459 5:0.004098 6:0.008197 8:0.008197 10:0.016393 14:0.004098 15:0.008197 17:0.012295 18:0.008197 20:0.004098 27:0.004098 30:0.004098 41:0.004098 43:0.008197 44:0.004098 47:0.004098 48:0.008197 53:0.008197 55:0.004098 57:0.004098 58:0.008197 61:0.008197 69:0.008197 70:0.004098 72:0.004098 73:0.008197 74:0.012295 75:0.004098 76:0.012295 77:0.004098 78:0.012295 84:0.004098 86:0.004098 96:0.004098 103:0.004098 106:0.004098 108:0.008197 109:0.012295 111:0.004098 113:0.004098 116:0.004098 117:0.004098 118:0.008197 121:0.004098 124:0.004098 129:0.004098 138:0.008197 151:0.004098 152:0.008197 153:0.008197 154:0.004098 155:0.008197 156:0.004098 158:0.008197 160:0.008197 161:0.012295 167:0.004098 173:0.008197 178:0.012295 181:0.004098 182:0.004098 183:0.004098 184:0.008197 189:0.004098 190:0.008197 191:0.008197 193:0.012295 194:0.016393 195:0.004098 198:0.004098 200:0.004098 201:0.004098 207:0.004098 208:0.008197 212:0.004098 213:0.004098 215:0.004098 217:0.004098 221:0.012295 223:0.004098 228:0.004098 230:0.004098 237:0.004098 240:0.004098 241:0.012295 244:0.008197 246:0.008197 248:0.004098 250:0.004098 251:0.008197 255:0.012295 256:0.004098 258:0.004098 260:0.004098 261:0.012295 263:0.004098 264:0.004098 266:0.008197 267:0.004098 270:0.008197 272:0.004098 278:0.004098 281:0.008197 283:0.012295 290:0.012295 292:0.008197 293:0.004098 294:0.004098 295:0.004098 296:0.004098 297:0.004098 298:0.004098 300:0.008197 301:0.004098 306:0.004098 309:0.004098 310:0.004098 311:0.004098 313:0.004098 314:0.004098 315:0.008197 316:0.004098 317:0.004098 323:0.008197 325:0.004098 326:0.004098 330:0.008197 333:0.004098 335:0.008197 338:0.004098 341:0.020492 343:0.004098 344:0.016393 346:0.008197 348:0.008197 349:0.004098 350:0.004098 351:0.004098 352:0.004098 354:0.004098 355:0.004098 358:0.008197 359:0.004098 360:0.004098 378:0.004098 381:0.004098 384:0.004098 385:0.004098 386:0.004098 388:0.004098 390:0.004098 393:0.004098 395:0.004098 396:0.004098 
22077.44 1:0.002861 3:0.002861 4:0.004292 5:0.001431 6:0.010014 8:0.007153 9:0.002861 10:0.011445 11:0.001431 12:0.005722 13:0.002861 14:0.004292 15:0.002861 16:0.001431 17:0.004292 18:0.007153 19:0.001431 20:0.005722 21:0.001431 28:0.001431 30:0.001431 41:0.004292 43:0.002861 44:0.004292 45:0.004292 46:0.004292 48:0.002861 49:0.007153 50:0.004292 51:0.001431 53:0.002861 54:0.001431 55:0.001431 56:0.007153 57:0.001431 58:0.002861 60:0.005722 61:0.002861 64:0.004292 65:0.001431 66:0.004292 68:0.005722 69:0.008584 70:0.004292 71:0.001431 72:0.004292 73:0.002861 74:0.001431 75:0.001431 76:0.001431 77:0.002861 78:0.001431 79:0.002861 80:0.001431 81:0.004292 83:0.002861 85:0.004292 87:0.001431 88:0.001431 89:0.004292 92:0.002861 93:0.002861 96:0.002861 98:0.002861 99:0.002861 100:0.004292 101:0.011445 103:0.004292 104:0.004292 106:0.001431 108:0.005722 109:0.008584 110:0.001431 112:0.002861 113:0.004292 114:0.001431 115:0.004292 116:0.004292 117:0.002861 118:0.005722 120:0.002861 123:0.001431 126:0.002861 127:0.001431 128:0.002861 129:0.001431 130:0.002861 132:0.001431 134:0.002861 136:0.001431 137:0.001431 140:0.004292 141:0.005722 143:0.002861 144:0.005722 145:0.002861 146:0.001431 148:0.001431 149:0.002861 150:0.004292 151:0.002861 152:0.007153 153:0.001431 154:0.002861 155:0.002861 156:0.004292 157:0.005722 158:0.004292 159:0.001431 161:0.007153 163:0.005722 164:0.005722 166:0.001431 167:0.002861 168:0.005722 169:0.011445 170:0.010014 171:0.001431 172:0.001431 173:0.005722 174:0.001431 175:0.005722 176:0.001431 177:0.008584 178:0.004292 180:0.004292 181:0.004292 183:0.005722 184:0.001431 185:0.002861 186:0.004292 187:0.002861 188:0.005722 189:0.008584 190:0.010014 191:0.001431 192:0.005722 193:0.002861 194:0.011445 195:0.004292 196:0.011445 197:0.005722 198:0.002861 199:0.002861 203:0.002861 208:0.001431 209:0.004292 210:0.002861 213:0.001431 215:0.001431 217:0.001431 218:0.002861 221:0.002861 223:0.001431 224:0.001431 226:0.005722 227:0.002861 228:0.004292 229:0.005722 230:0.004292 231:0.001431 232:0.002861 234:0.002861 235:0.001431 236:0.002861 237:0.002861 238:0.002861 239:0.004292 240:0.001431 241:0.002861 242:0.001431 243:0.002861 244:0.008584 246:0.002861 249:0.002861 250:0.005722 252:0.001431 254:0.004292 258:0.004292 260:0.004292 261:0.007153 264:0.001431 265:0.004292 266:0.002861 267:0.002861 268:0.002861 269:0.002861 270:0.007153 273:0.001431 274:0.004292 276:0.002861 277:0.001431 278:0.001431 280:0.002861 281:0.001431 283:0.005722 286:0.007153 290:0.001431 291:0.002861 292:0.002861 293:0.005722 295:0.001431 296:0.001431 297:0.002861 298:0.002861 300:0.002861 301:0.001431 303:0.005722 304:0.001431 305:0.002861 306:0.002861 307:0.002861 308:0.002861 309:0.005722 310:0.002861 312:0.002861 313:0.001431 314:0.001431 315:0.004292 316:0.001431 317:0.005722 318:0.001431 319:0.002861 320:0.005722 321:0.007153 322:0.001431 323:0.005722 324:0.004292 325:0.001431 326:0.007153 328:0.001431 329:0.001431 330:0.002861 332:0.005722 333:0.002861 334:0.001431 335:0.001431 336:0.002861 337:0.004292 338:0.002861 341:0.005722 342:0.001431 344:0.002861 345:0.005722 347:0.002861 348:0.002861 349:0.002861 350:0.007153 351:0.001431 353:0.001431 354:0.004292 355:0.002861 356:0.005722 357:0.001431 359:0.001431 360:0.002861 361:0.002861 363:0.001431 364:0.001431 365:0.002861 366:0.001431 367:0.001431 368:0.001431 369:0.001431 370:0.004292 372:0.001431 379:0.001431 380:0.001431 381:0.004292 383:0.004292 384:0.001431 385:0.002861 386:0.005722 387:0.002861 388:0.002861 389:0.002861 390:0.005722 391:0.001431 392:0.002861 393:0.001431 395:0.002861 396:0.002861 397:0.001431 398:0.002861 399:0.001431 400:0.005722 
22077.44 1:0.011429 3:0.005714 4:0.005714 5:0.005714 9:0.002857 10:0.008571 11:0.005714 14:0.002857 15:0.011429 16:0.008571 17:0.02 18:0.005714 20:0.005714 22:0.002857 30:0.002857 32:0.002857 37:0.002857 41:0.002857 42:0.002857 43:0.005714 44:0.005714 45:0.002857 46:0.002857 48:0.002857 49:0.002857 50:0.008571 53:0.008571 54:0.002857 55:0.002857 57:0.008571 58:0.002857 60:0.002857 61:0.005714 63:0.002857 69:0.002857 70:0.005714 71:0.005714 72:0.002857 73:0.008571 74:0.002857 75:0.002857 77:0.002857 79:0.002857 80:0.005714 81:0.008571 83:0.005714 84:0.002857 86:0.002857 89:0.002857 90:0.002857 91:0.002857 93:0.002857 95:0.002857 98:0.005714 103:0.005714 104:0.002857 105:0.005714 106:0.005714 108:0.002857 109:0.002857 110:0.005714 112:0.005714 113:0.002857 114:0.005714 115:0.008571 116:0.008571 118:0.002857 124:0.005714 126:0.002857 133:0.002857 134:0.002857 136:0.005714 140:0.002857 141:0.002857 143:0.002857 144:0.002857 145:0.002857 146:0.002857 147:0.002857 148:0.002857 149:0.002857 152:0.002857 153:0.002857 156:0.005714 161:0.008571 163:0.005714 164:0.005714 165:0.002857 168:0.002857 169:0.002857 172:0.002857 173:0.008571 176:0.002857 179:0.005714 180:0.002857 181:0.002857 183:0.005714 185:0.002857 186:0.008571 187:0.002857 188:0.005714 189:0.002857 190:0.008571 192:0.011429 193:0.005714 194:0.002857 196:0.005714 197:0.002857 200:0.008571 201:0.002857 206:0.002857 208:0.002857 210:0.005714 211:0.002857 217:0.005714 218:0.002857 224:0.002857 226:0.002857 227:0.005714 230:0.002857 231:0.002857 232:0.002857 233:0.008571 235:0.002857 238:0.002857 239:0.002857 240:0.005714 243:0.005714 245:0.002857 246:0.005714 248:0.002857 249:0.005714 250:0.002857 252:0.005714 254:0.005714 255:0.005714 257:0.002857 258:0.008571 261:0.005714 263:0.002857 264:0.002857 266:0.005714 270:0.002857 272:0.002857 274:0.002857 275:0.005714 276:0.008571 277:0.002857 278:0.002857 281:0.005714 283:0.005714 284:0.002857 285:0.002857 286:0.005714 287:0.005714 289:0.002857 290:0.002857 294:0.002857 295:0.005714 297:0.005714 298:0.005714 299:0.002857 300:0.005714 301:0.011429 302:0.002857 304:0.002857 305:0.005714 306:0.005714 307:0.002857 309:0.002857 310:0.002857 314:0.002857 315:0.002857 317:0.002857 319:0.002857 320:0.005714 321:0.011429 322:0.002857 324:0.002857 325:0.002857 326:0.005714 328:0.002857 330:0.008571 331:0.005714 333:0.002857 335:0.005714 336:0.005714 337:0.002857 338:0.002857 341:0.005714 343:0.005714 344:0.002857 345:0.002857 347:0.002857 348:0.005714 349:0.011429 352:0.002857 353:0.002857 354:0.002857 357:0.002857 358:0.008571 360:0.002857 361:0.002857 366:0.002857 368:0.002857 370:0.002857 375:0.002857 376:0.002857 380:0.002857 381:0.011429 383:0.005714 384:0.002857 389:0.005714 390:0.002857 394:0.008571 395:0.002857 398:0.008571 399:0.002857 
22077.44 1:0.00625 6:0.00625 17:0.0125 18:0.00625 23:0.00625 26:0.0125 29:0.00625 40:0.00625 42:0.00625 44:0.00625 46:0.00625 48:0.00625 49:0.0125 50:0.00625 52:0.00625 54:0.00625 60:0.00625 61:0.00625 63:0.0125 64:0.00625 66:0.00625 69:0.0125 70:0.00625 71:0.00625 74:0.00625 75:0.00625 76:0.00625 77:0.0125 82:0.00625 83:0.00625 96:0.00625 100:0.0125 102:0.00625 103:0.00625 105:0.01875 107:0.00625 109:0.00625 110:0.0125 112:0.00625 114:0.00625 116:0.00625 117:0.00625 118:0.00625 124:0.00625 128:0.00625 141:0.00625 143:0.00625 144:0.0125 146:0.00625 147:0.00625 148:0.025 149:0.00625 150:0.00625 151:0.00625 155:0.0125 157:0.00625 158:0.00625 162:0.00625 165:0.00625 168:0.01875 169:0.00625 170:0.0125 172:0.00625 175:0.00625 178:0.00625 180:0.0125 182:0.00625 183:0.00625 184:0.00625 186:0.0125 188:0.0125 189:0.00625 190:0.00625 193:0.00625 197:0.00625 198:0.00625 204:0.00625 214:0.0125 216:0.00625 218:0.00625 221:0.00625 223:0.00625 224:0.0125 228:0.00625 233:0.00625 236:0.00625 238:0.00625 243:0.00625 244:0.00625 251:0.00625 266:0.0125 268:0.00625 270:0.00625 278:0.00625 280:0.00625 289:0.0125 291:0.00625 295:0.00625 297:0.00625 305:0.00625 309:0.00625 310:0.00625 311:0.00625 312:0.00625 324:0.0125 326:0.00625 328:0.0125 330:0.00625 333:0.00625 337:0.00625 338:0.01875 341:0.00625 343:0.00625 344:0.00625 346:0.00625 348:0.00625 349:0.00625 350:0.00625 352:0.00625 357:0.0125 359:0.00625 372:0.0125 384:0.00625 386:0.00625 388:0.00625 389:0.00625 392:0.00625 394:0.00625 399:0.00625 
22077.44 1:0.008264 3:0.008264 4:0.004132 6:0.008264 8:0.004132 10:0.004132 11:0.004132 13:0.004132 14:0.008264 16:0.004132 17:0.004132 18:0.008264 21:0.004132 26:0.004132 29:0.004132 30:0.004132 35:0.004132 44:0.004132 45:0.004132 48:0.012397 49:0.004132 53:0.008264 54:0.004132 55:0.008264 58:0.004132 61:0.004132 64:0.016529 65:0.004132 69:0.004132 70:0.004132 73:0.004132 75:0.012397 76:0.012397 77:0.008264 78:0.008264 80:0.004132 86:0.008264 89:0.004132 93:0.004132 94:0.004132 98:0.008264 100:0.008264 103:0.008264 104:0.004132 108:0.008264 109:0.008264 110:0.004132 116:0.004132 117:0.004132 118:0.016529 126:0.004132 142:0.008264 144:0.012397 145:0.004132 146:0.008264 148:0.012397 150:0.012397 154:0.004132 155:0.012397 157:0.004132 158:0.008264 160:0.004132 161:0.004132 164:0.020661 168:0.008264 169:0.004132 170:0.012397 174:0.004132 178:0.004132 181:0.004132 183:0.008264 186:0.004132 188:0.016529 190:0.016529 191:0.004132 192:0.008264 193:0.008264 194:0.004132 195:0.012397 198:0.004132 202:0.004132 204:0.004132 209:0.004132 210:0.004132 211:0.004132 217:0.004132 218:0.004132 223:0.004132 224:0.004132 228:0.004132 236:0.004132 238:0.004132 241:0.008264 245:0.004132 246:0.004132 249:0.012397 250:0.004132 251:0.004132 252:0.004132 254:0.004132 255:0.004132 263:0.004132 264:0.004132 266:0.004132 269:0.004132 270:0.004132 275:0.004132 277:0.004132 278:0.004132 281:0.012397 283:0.008264 284:0.004132 285:0.004132 286:0.004132 288:0.008264 290:0.012397 291:0.004132 298:0.004132 299:0.004132 300:0.012397 305:0.004132 306:0.008264 308:0.008264 309:0.004132 311:0.004132 315:0.004132 317:0.004132 318:0.004132 320:0.004132 321:0.016529 328:0.004132 331:0.004132 332:0.004132 333:0.008264 335:0.004132 337:0.008264 342:0.008264 343:0.008264 345:0.008264 349:0.004132 350:0.008264 351:0.004132 352:0.004132 353:0.008264 355:0.012397 356:0.012397 357:0.008264 358:0.004132 378:0.004132 381:0.004132 384:0.004132 385:0.004132 387:0.004132 388:0.004132 393:0.004132 396:0.008264 400:0.004132 
6005.004410826597 1:0.006479 2:0.00216 3:0.008639 8:0.00432 9:0.00216 10:0.006479 12:0.00216 13:0.00216 14:0.00216 15:0.006479 16:0.00216 18:0.010799 21:0.00216 26:0.00216 29:0.00216 30:0.00432 32:0.00216 36:0.00432 41:0.00432 43:0.006479 44:0.00216 45:0.006479 46:0.00216 49:0.00432 50:0.00432 52:0.008639 54:0.00216 56:0.006479 57:0.006479 58:0.015119 60:0.00432 62:0.00216 66:0.00216 70:0.00216 73:0.00216 74:0.00216 75:0.006479 76:0.006479 77:0.00432 78:0.00432 80:0.00216 81:0.00432 83:0.00216 84:0.00216 86:0.010799 89:0.00432 90:0.00432 91:0.00216 92:0.00216 93:0.00216 94:0.00216 95:0.00216 96:0.006479 97:0.00216 98:0.00216 100:0.00216 101:0.00432 102:0.00216 103:0.006479 105:0.00432 106:0.008639 108:0.010799 109:0.00216 110:0.006479 111:0.00216 112:0.006479 113:0.00432 114:0.00216 115:0.00432 116:0.00432 117:0.008639 118:0.00216 120:0.00432 125:0.00432 128:0.00216 129:0.00216 135:0.00216 136:0.00216 137:0.00216 139:0.00216 141:0.00216 143:0.006479 144:0.00432 145:0.00432 146:0.00216 148:0.00432 149:0.00432 150:0.00432 152:0.00432 153:0.00216 154:0.00432 155:0.006479 156:0.00432 158:0.00216 160:0.00216 161:0.00216 163:0.006479 164:0.00216 166:0.00216 168:0.00216 170:0.006479 172:0.008639 173:0.00432 174:0.010799 175:0.00432 176:0.00216 177:0.008639 178:0.00216 180:0.00216 181:0.006479 183:0.00432 184:0.00216 185:0.008639 186:0.008639 187:0.00432 188:0.00432 189:0.00216 190:0.00432 191:0.00216 193:0.00216 194:0.00216 195:0.00216 198:0.006479 202:0.00216 204:0.00216 205:0.00216 209:0.006479 216:0.00216 221:0.008639 223:0.00216 225:0.006479 226:0.019438 227:0.00216 228:0.008639 229:0.00216 230:0.006479 232:0.00432 233:0.00216 236:0.00216 237:0.00216 238:0.006479 240:0.008639 244:0.00216 246:0.00216 247:0.00216 249:0.00216 251:0.00216 252:0.00432 256:0.00216 257:0.008639 258:0.00216 260:0.00216 261:0.00216 263:0.00432 266:0.006479 268:0.00216 269:0.00216 270:0.00216 271:0.00216 272:0.00216 274:0.00216 275:0.00216 276:0.00216 277:0.00432 278:0.00216 279:0.00216 281:0.00216 282:0.00216 283:0.00216 285:0.00216 286:0.00432 288:0.00432 289:0.00216 290:0.00432 291:0.00216 292:0.012959 294:0.00216 296:0.00216 298:0.008639 299:0.00432 301:0.00216 302:0.00216 303:0.006479 304:0.00432 305:0.00432 306:0.00216 307:0.00216 308:0.00216 309:0.008639 310:0.00216 312:0.008639 313:0.00432 315:0.010799 316:0.008639 317:0.00216 318:0.00216 319:0.00216 321:0.00216 323:0.00432 324:0.00432 325:0.00216 328:0.006479 329:0.00216 330:0.00216 332:0.00432 333:0.00432 334:0.00432 335:0.00432 336:0.006479 337:0.00216 338:0.00216 339:0.00216 340:0.006479 341:0.00216 342:0.00432 343:0.006479 344:0.006479 345:0.00432 346:0.00216 347:0.00432 348:0.00432 349:0.006479 351:0.00216 352:0.006479 354:0.00216 355:0.006479 356:0.006479 357:0.008639 361:0.00216 364:0.00216 369:0.00216 372:0.00216 376:0.00432 381:0.00216 383:0.006479 385:0.00216 386:0.008639 387:0.00216 388:0.00216 389:0.006479 392:0.00216 398:0.00216 400:0.00216 
16470.86514434426 1:0.010811 3:0.005405 5:0.005405 6:0.010811 7:0.010811 8:0.005405 10:0.021622 12:0.005405 17:0.005405 18:0.005405 24:0.005405 29:0.005405 37:0.010811 41:0.010811 43:0.005405 45:0.005405 48:0.005405 50:0.005405 51:0.005405 58:0.021622 61:0.005405 67:0.005405 68:0.005405 69:0.005405 70:0.005405 72:0.005405 76:0.005405 77:0.005405 78:0.010811 80:0.005405 83:0.005405 88:0.005405 89:0.005405 93:0.005405 96:0.005405 98:0.005405 103:0.005405 105:0.010811 106:0.010811 108:0.016216 109:0.005405 113:0.005405 114:0.005405 115:0.005405 117:0.005405 118:0.016216 121:0.005405 123:0.010811 127:0.027027 140:0.005405 141:0.005405 144:0.021622 149:0.005405 150:0.010811 152:0.005405 153:0.005405 155:0.005405 157:0.005405 158:0.005405 160:0.005405 161:0.005405 162:0.010811 163:0.010811 164:0.005405 166:0.016216 170:0.005405 173:0.005405 175:0.005405 177:0.005405 178:0.010811 181:0.010811 182:0.005405 183:0.005405 185:0.005405 186:0.016216 187:0.005405 188:0.005405 189:0.005405 190:0.010811 193:0.005405 195:0.005405 196:0.010811 200:0.005405 204:0.005405 216:0.005405 217:0.005405 228:0.005405 236:0.005405 238:0.005405 241:0.005405 243:0.005405 244:0.005405 246:0.005405 247:0.005405 248:0.005405 257:0.005405 269:0.016216 270:0.005405 284:0.010811 286:0.005405 289:0.010811 290:0.005405 294:0.005405 303:0.005405 310:0.005405 315:0.005405 317:0.005405 318:0.010811 321:0.010811 325:0.005405 326:0.005405 328:0.010811 329:0.010811 330:0.005405 331:0.005405 333:0.005405 335:0.005405 341:0.016216 342:0.005405 346:0.016216 348:0.005405 349:0.005405 350:0.016216 353:0.005405 354:0.005405 355:0.005405 357:0.010811 358:0.010811 384:0.005405 388:0.005405 389:0.005405 394:0.005405 
22077.44 1:0.023904 3:0.011952 4:0.011952 5:0.003984 6:0.011952 8:0.007968 10:0.011952 12:0.003984 16:0.003984 17:0.011952 20:0.003984 25:0.011952 32:0.003984 41:0.01992 42:0.003984 44:0.007968 46:0.015936 48:0.003984 49:0.003984 51:0.003984 53:0.003984 55:0.007968 56:0.003984 58:0.007968 63:0.003984 64:0.007968 66:0.003984 68:0.007968 69:0.007968 70:0.015936 75:0.01992 76:0.007968 78:0.007968 80:0.003984 81:0.003984 83:0.007968 85:0.007968 86:0.007968 88:0.003984 89:0.003984 90:0.003984 92:0.003984 93:0.003984 96:0.003984 98:0.003984 101:0.003984 103:0.007968 104:0.015936 106:0.003984 108:0.003984 109:0.011952 111:0.003984 112:0.003984 116:0.007968 117:0.007968 118:0.007968 120:0.003984 133:0.003984 141:0.011952 144:0.003984 145:0.003984 148:0.003984 149:0.003984 150:0.003984 153:0.003984 155:0.003984 156:0.003984 158:0.003984 160:0.007968 161:0.011952 163:0.011952 164:0.003984 165:0.007968 169:0.003984 170:0.011952 171:0.003984 175:0.003984 178:0.003984 181:0.003984 182:0.007968 183:0.015936 184:0.007968 186:0.007968 187:0.003984 188:0.003984 189:0.003984 190:0.003984 192:0.003984 195:0.015936 200:0.003984 203:0.003984 206:0.003984 210:0.003984 213:0.003984 214:0.003984 215:0.003984 221:0.007968 224:0.003984 226:0.003984 228:0.003984 229:0.003984 230:0.003984 243:0.003984 245:0.003984 246:0.003984 249:0.003984 250:0.007968 257:0.003984 258:0.003984 264:0.003984 283:0.003984 284:0.007968 286:0.003984 288:0.015936 289:0.011952 290:0.003984 291:0.003984 292:0.003984 293:0.003984 298:0.011952 301:0.003984 303:0.007968 305:0.003984 306:0.007968 310:0.007968 311:0.003984 315:0.003984 316:0.003984 318:0.003984 320:0.003984 324:0.011952 325:0.003984 326:0.003984 329:0.003984 333:0.003984 335:0.003984 338:0.003984 341:0.011952 345:0.007968 346:0.003984 349:0.003984 350:0.003984 355:0.003984 356:0.007968 357:0.011952 358:0.003984 360:0.007968 381:0.003984 382:0.003984 383:0.003984 392:0.003984 393:0.003984 395:0.003984 396:0.007968 398:0.003984 400:0.007968 
22077.44 1:0.015723 3:0.006289 4:0.009434 5:0.003145 6:0.009434 8:0.009434 9:0.003145 10:0.003145 13:0.003145 14:0.012579 15:0.006289 17:0.012579 18:0.009434 20:0.006289 31:0.003145 35:0.003145 41:0.006289 43:0.003145 45:0.003145 46:0.003145 48:0.012579 49:0.006289 51:0.006289 53:0.006289 56:0.006289 57:0.003145 59:0.003145 61:0.006289 63:0.003145 64:0.003145 67:0.003145 68:0.009434 70:0.006289 72:0.003145 75:0.003145 76:0.003145 77:0.009434 78:0.009434 81:0.003145 86:0.006289 87:0.003145 90:0.003145 100:0.003145 101:0.012579 103:0.003145 104:0.003145 105:0.003145 106:0.003145 107:0.003145 108:0.006289 109:0.003145 110:0.003145 111:0.003145 113:0.003145 114:0.003145 116:0.012579 117:0.003145 118:0.012579 121:0.003145 123:0.006289 126:0.009434 134:0.003145 138:0.003145 141:0.015723 142:0.006289 143:0.003145 144:0.003145 145:0.003145 146:0.009434 147:0.003145 148:0.006289 150:0.006289 151:0.003145 152:0.006289 156:0.003145 157:0.006289 158:0.003145 160:0.003145 161:0.003145 163:0.003145 164:0.009434 166:0.003145 168:0.003145 170:0.006289 172:0.006289 173:0.006289 175:0.006289 178:0.003145 181:0.009434 183:0.009434 184:0.006289 187:0.003145 188:0.006289 189:0.012579 190:0.003145 192:0.003145 193:0.009434 195:0.003145 197:0.003145 198:0.006289 199:0.003145 210:0.006289 213:0.003145 214:0.003145 216:0.009434 218:0.003145 221:0.006289 226:0.003145 228:0.003145 230:0.006289 232:0.003145 233:0.003145 234:0.003145 235:0.006289 237:0.006289 238:0.006289 240:0.003145 244:0.006289 246:0.006289 250:0.009434 251:0.003145 252:0.006289 255:0.003145 257:0.009434 258:0.009434 264:0.003145 265:0.003145 266:0.003145 267:0.003145 268:0.003145 269:0.006289 274:0.003145 275:0.003145 276:0.003145 277:0.003145 283:0.003145 284:0.006289 285:0.003145 286:0.003145 288:0.003145 290:0.006289 294:0.006289 296:0.003145 298:0.003145 301:0.009434 303:0.012579 304:0.003145 305:0.003145 306:0.006289 308:0.003145 311:0.003145 315:0.003145 316:0.006289 317:0.003145 318:0.003145 321:0.006289 326:0.006289 327:0.003145 328:0.006289 329:0.003145 330:0.009434 332:0.012579 333:0.006289 337:0.003145 338:0.009434 341:0.006289 343:0.006289 344:0.003145 346:0.006289 347:0.003145 348:0.006289 349:0.012579 350:0.009434 352:0.009434 353:0.009434 356:0.009434 358:0.003145 364:0.003145 377:0.003145 381:0.003145 388:0.003145 389:0.003145 391:0.003145 393:0.003145 
22077.44 1:0.005128 2:0.002564 3:0.005128 4:0.005128 5:0.007692 9:0.005128 10:0.007692 11:0.002564 12:0.010256 13:0.007692 14:0.005128 15:0.002564 16:0.002564 17:0.002564 18:0.005128 19:0.002564 20:0.002564 23:0.002564 29:0.002564 33:0.007692 36:0.002564 41:0.007692 43:0.002564 45:0.002564 46:0.005128 48:0.002564 49:0.005128 50:0.002564 53:0.002564 54:0.007692 55:0.002564 56:0.017949 58:0.002564 61:0.002564 62:0.002564 66:0.005128 68:0.002564 69:0.010256 70:0.005128 73:0.002564 74:0.010256 75:0.002564 78:0.005128 79:0.005128 80:0.002564 82:0.002564 83:0.002564 85:0.002564 88:0.002564 89:0.002564 92:0.002564 93:0.005128 94:0.002564 96:0.005128 97:0.005128 101:0.002564 102:0.005128 104:0.005128 105:0.005128 106:0.007692 107:0.005128 109:0.005128 111:0.002564 112:0.002564 113:0.002564 114:0.002564 116:0.002564 117:0.002564 118:0.005128 120:0.005128 123:0.007692 127:0.002564 134:0.002564 140:0.002564 141:0.002564 143:0.005128 144:0.002564 146:0.002564 149:0.002564 153:0.002564 157:0.007692 158:0.005128 161:0.005128 163:0.002564 164:0.005128 165:0.002564 166:0.002564 168:0.010256 170:0.005128 171:0.002564 172:0.005128 173:0.005128 174:0.002564 176:0.005128 178:0.005128 179:0.002564 180:0.002564 181:0.005128 183:0.002564 184:0.010256 185:0.002564 187:0.002564 189:0.005128 190:0.005128 191:0.005128 192:0.002564 194:0.012821 195:0.005128 196:0.007692 197:0.010256 198:0.012821 203:0.007692 204:0.002564 206:0.005128 209:0.002564 211:0.002564 215:0.002564 216:0.002564 218:0.002564 221:0.002564 224:0.005128 226:0.005128 228:0.002564 229:0.002564 230:0.002564 232:0.002564 233:0.002564 235:0.002564 236:0.005128 237:0.002564 238:0.002564 240:0.002564 241:0.005128 244:0.007692 246:0.007692 248:0.005128 249:0.002564 250:0.007692 251:0.005128 252:0.002564 253:0.005128 257:0.002564 258:0.005128 260:0.005128 261:0.005128 262:0.002564 263:0.002564 264:0.005128 265:0.002564 266:0.002564 270:0.015385 272:0.002564 274:0.010256 275:0.007692 276:0.005128 277:0.002564 278:0.005128 279:0.002564 280:0.002564 281:0.005128 283:0.002564 284:0.002564 292:0.005128 297:0.007692 298:0.002564 299:0.002564 301:0.010256 303:0.002564 304:0.002564 306:0.007692 309:0.007692 310:0.012821 312:0.002564 313:0.005128 315:0.002564 317:0.002564 318:0.005128 320:0.005128 321:0.005128 323:0.007692 325:0.005128 326:0.002564 329:0.002564 330:0.007692 331:0.002564 333:0.005128 336:0.005128 337:0.002564 338:0.010256 341:0.012821 343:0.005128 345:0.002564 346:0.005128 347:0.002564 348:0.002564 349:0.005128 350:0.015385 352:0.002564 353:0.005128 356:0.005128 357:0.005128 360:0.007692 363:0.002564 366:0.002564 367:0.002564 369:0.002564 370:0.002564 373:0.002564 381:0.005128 384:0.002564 388:0.002564 389:0.002564 391:0.005128 394:0.015385 397:0.002564 398:0.002564 400:0.002564 
22077.44 1:0.013636 3:0.013636 4:0.018182 6:0.004545 7:0.004545 8:0.009091 9:0.004545 10:0.013636 13:0.009091 16:0.013636 18:0.009091 19:0.004545 41:0.004545 43:0.004545 46:0.004545 48:0.009091 49:0.004545 50:0.018182 52:0.004545 53:0.004545 55:0.004545 56:0.013636 57:0.009091 58:0.009091 63:0.013636 64:0.009091 65:0.009091 68:0.004545 70:0.004545 74:0.004545 75:0.004545 76:0.004545 78:0.009091 80:0.004545 83:0.009091 88:0.004545 89:0.009091 90:0.009091 92:0.004545 95:0.004545 101:0.004545 103:0.004545 108:0.013636 110:0.004545 113:0.004545 115:0.004545 118:0.022727 120:0.004545 121:0.004545 125:0.004545 140:0.004545 141:0.013636 145:0.004545 146:0.013636 149:0.009091 150:0.009091 152:0.004545 154:0.009091 157:0.004545 158:0.009091 161:0.009091 163:0.009091 164:0.009091 166:0.004545 168:0.013636 169:0.004545 171:0.004545 172:0.009091 173:0.004545 174:0.004545 175:0.004545 178:0.004545 181:0.018182 183:0.009091 184:0.013636 185:0.004545 186:0.004545 189:0.013636 190:0.009091 193:0.004545 194:0.013636 195:0.004545 197:0.004545 205:0.004545 208:0.004545 212:0.004545 223:0.004545 224:0.004545 226:0.009091 229:0.004545 230:0.004545 240:0.004545 241:0.013636 243:0.009091 244:0.004545 245:0.004545 246:0.004545 248:0.004545 256:0.004545 261:0.009091 263:0.004545 265:0.004545 269:0.013636 270:0.009091 281:0.004545 284:0.004545 289:0.004545 291:0.004545 293:0.004545 294:0.004545 296:0.004545 301:0.009091 304:0.004545 306:0.004545 307:0.004545 308:0.004545 309:0.009091 310:0.004545 312:0.004545 313:0.004545 314:0.004545 315:0.004545 321:0.004545 323:0.004545 326:0.004545 330:0.004545 336:0.004545 341:0.009091 343:0.004545 346:0.009091 348:0.009091 349:0.004545 350:0.004545 353:0.004545 356:0.013636 359:0.004545 360:0.004545 369:0.004545 370:0.004545 385:0.004545 387:0.004545 393:0.004545 397:0.004545 398:0.004545 
22077.44 1:0.003891 2:0.001946 4:0.001946 5:0.005837 6:0.003891 9:0.005837 10:0.003891 11:0.001946 12:0.001946 13:0.007782 14:0.001946 15:0.003891 16:0.003891 17:0.003891 18:0.003891 20:0.003891 23:0.001946 30:0.001946 32:0.001946 35:0.001946 37:0.001946 39:0.001946 40:0.001946 41:0.007782 43:0.005837 44:0.003891 45:0.005837 48:0.001946 49:0.001946 50:0.003891 51:0.001946 54:0.003891 55:0.001946 56:0.007782 57:0.003891 58:0.003891 59:0.001946 61:0.003891 62:0.001946 64:0.003891 65:0.005837 68:0.001946 70:0.003891 72:0.003891 73:0.005837 75:0.003891 76:0.007782 77:0.001946 78:0.007782 80:0.003891 83:0.003891 85:0.001946 86:0.007782 88:0.003891 89:0.005837 90:0.001946 91:0.001946 92:0.003891 93:0.009728 94:0.001946 95:0.001946 96:0.003891 97:0.001946 100:0.005837 101:0.001946 103:0.001946 104:0.005837 105:0.005837 106:0.005837 107:0.001946 108:0.005837 109:0.001946 110:0.001946 113:0.005837 114:0.003891 116:0.003891 117:0.007782 120:0.003891 124:0.003891 126:0.001946 127:0.001946 128:0.001946 130:0.003891 135:0.003891 136:0.001946 137:0.001946 138:0.001946 139:0.001946 140:0.001946 141:0.003891 143:0.003891 144:0.001946 145:0.001946 146:0.001946 147:0.001946 148:0.005837 150:0.005837 152:0.005837 154:0.003891 155:0.001946 156:0.007782 157:0.003891 158:0.005837 161:0.003891 162:0.001946 163:0.005837 164:0.003891 165:0.001946 166:0.007782 168:0.003891 169:0.001946 170:0.005837 171:0.001946 173:0.001946 174:0.003891 177:0.003891 178:0.003891 179:0.001946 180:0.001946 181:0.003891 183:0.009728 184:0.005837 185:0.001946 186:0.001946 187:0.003891 188:0.003891 189:0.003891 190:0.009728 192:0.001946 193:0.005837 194:0.001946 195:0.003891 196:0.011673 197:0.007782 198:0.005837 199:0.007782 200:0.001946 201:0.001946 203:0.001946 215:0.001946 217:0.001946 218:0.003891 223:0.001946 224:0.001946 225:0.001946 227:0.001946 228:0.001946 229:0.007782 230:0.003891 231:0.001946 233:0.003891 235:0.001946 236:0.001946 237:0.001946 238:0.001946 241:0.003891 242:0.001946 243:0.001946 244:0.007782 246:0.005837 248:0.001946 249:0.001946 250:0.007782 252:0.007782 255:0.005837 256:0.003891 257:0.001946 258:0.005837 259:0.001946 260:0.001946 261:0.001946 263:0.005837 264:0.001946 265:0.001946 269:0.009728 270:0.005837 272:0.001946 273:0.001946 274:0.001946 276:0.005837 278:0.001946 281:0.003891 282:0.001946 283:0.001946 285:0.001946 286:0.007782 287:0.003891 289:0.001946 290:0.007782 291:0.003891 294:0.003891 295:0.001946 298:0.005837 300:0.001946 301:0.007782 302:0.001946 303:0.001946 304:0.003891 305:0.007782 306:0.001946 307:0.005837 308:0.005837 309:0.001946 310:0.001946 312:0.003891 313:0.003891 314:0.001946 315:0.005837 316:0.003891 317:0.003891 318:0.003891 319:0.001946 320:0.007782 321:0.003891 323:0.001946 325:0.007782 328:0.007782 330:0.011673 332:0.001946 333:0.009728 334:0.003891 335:0.001946 336:0.001946 337:0.003891 340:0.001946 341:0.001946 343:0.003891 344:0.007782 345:0.003891 346:0.001946 348:0.003891 349:0.005837 350:0.007782 354:0.001946 355:0.003891 356:0.003891 357:0.001946 359:0.005837 360:0.003891 364:0.001946 366:0.005837 367:0.003891 369:0.001946 373:0.003891 374:0.001946 375:0.001946 376:0.001946 380:0.001946 381:0.003891 382:0.001946 383:0.001946 386:0.003891 387:0.001946 388:0.005837 389:0.003891 390:0.003891 393:0.001946 394:0.003891 396:0.005837 397:0.003891 398:0.001946 400:0.001946 
22077.44 1:0.00274 3:0.005479 4:0.00137 5:0.00411 6:0.00411 7:0.00274 8:0.00137 9:0.005479 10:0.00274 11:0.00137 12:0.00411 13:0.00274 16:0.00411 17:0.006849 18:0.00137 19:0.00137 20:0.00411 41:0.005479 43:0.005479 44:0.00411 45:0.00137 46:0.005479 47:0.00137 48:0.00274 49:0.009589 50:0.00137 51:0.00411 52:0.00137 53:0.00137 54:0.006849 55:0.00411 56:0.010959 57:0.00411 58:0.00274 59:0.00137 60:0.00274 61:0.00137 64:0.00274 65:0.00137 66:0.008219 67:0.00274 68:0.00411 69:0.006849 70:0.00411 71:0.00137 72:0.00411 74:0.00411 76:0.005479 77:0.008219 78:0.00411 79:0.00137 80:0.00274 81:0.00137 85:0.00274 86:0.00274 89:0.006849 90:0.00411 91:0.00137 92:0.00274 94:0.00137 95:0.00137 96:0.00411 97:0.00137 98:0.00274 100:0.00274 101:0.00274 103:0.00411 104:0.00411 105:0.00411 106:0.00137 107:0.00137 108:0.00411 109:0.00274 110:0.00411 111:0.00137 112:0.005479 114:0.00137 115:0.00274 116:0.00274 117:0.00411 118:0.00411 119:0.00137 120:0.00411 125:0.00137 127:0.006849 129:0.00411 131:0.00137 135:0.00137 137:0.00137 138:0.00274 139:0.00137 140:0.00137 141:0.006849 143:0.006849 144:0.00411 146:0.00274 147:0.00137 148:0.00137 149:0.00274 152:0.00274 153:0.00137 154:0.00274 155:0.00274 156:0.009589 158:0.00411 160:0.00137 161:0.00274 163:0.009589 164:0.008219 165:0.00274 166:0.00274 167:0.00137 168:0.00274 169:0.005479 170:0.008219 171:0.00411 172:0.005479 174:0.005479 175:0.00411 176:0.005479 177:0.008219 178:0.005479 180:0.00274 183:0.00274 184:0.008219 185:0.00137 186:0.00274 188:0.00411 189:0.00411 190:0.005479 191:0.00411 192:0.00274 193:0.00274 194:0.00411 195:0.00274 196:0.009589 197:0.005479 198:0.005479 199:0.00137 200:0.00137 201:0.00274 203:0.00411 204:0.00137 205:0.00137 206:0.00137 207:0.00137 208:0.00137 209:0.00137 210:0.00274 212:0.00137 213:0.00137 214:0.00274 216:0.00411 220:0.00274 221:0.00274 223:0.00274 224:0.00411 226:0.005479 228:0.00274 229:0.00411 230:0.00411 232:0.00274 233:0.008219 234:0.006849 236:0.00274 237:0.00274 238:0.00411 239:0.00274 240:0.00274 243:0.00274 244:0.00411 245:0.00137 246:0.00137 248:0.00137 250:0.00137 252:0.00137 255:0.00274 256:0.00274 257:0.00137 258:0.00137 260:0.00274 261:0.00274 263:0.00274 264:0.006849 265:0.00137 266:0.00274 267:0.00137 269:0.00274 270:0.00137 271:0.00274 272:0.00274 275:0.00274 276:0.008219 277:0.00274 278:0.00411 280:0.00137 281:0.005479 283:0.00137 286:0.005479 288:0.00274 289:0.006849 290:0.00274 296:0.00274 297:0.00411 298:0.00137 300:0.00137 301:0.005479 303:0.010959 304:0.00411 305:0.00137 307:0.00137 308:0.006849 309:0.005479 310:0.010959 311:0.00274 312:0.005479 314:0.00411 315:0.005479 316:0.012329 317:0.00411 318:0.006849 319:0.00137 320:0.005479 321:0.006849 323:0.006849 324:0.00274 325:0.00137 326:0.00274 328:0.008219 329:0.00274 330:0.005479 331:0.00274 332:0.00411 333:0.00137 334:0.00274 336:0.006849 337:0.00411 338:0.00411 340:0.00411 341:0.005479 343:0.00411 344:0.00274 345:0.005479 346:0.00274 348:0.00411 349:0.005479 350:0.005479 352:0.00411 353:0.00274 354:0.00137 355:0.00274 356:0.00137 357:0.00137 358:0.00137 359:0.00137 360:0.005479 363:0.00137 364:0.00137 365:0.00137 366:0.00137 368:0.00137 369:0.00137 371:0.00137 372:0.00274 373:0.00137 379:0.00137 380:0.00137 383:0.005479 384:0.00274 385:0.00274 386:0.00274 387:0.00137 388:0.00137 389:0.006849 390:0.00411 391:0.00137 392:0.005479 393:0.00137 394:0.00274 395:0.00137 396:0.00137 397:0.006849 398:0.00137 399:0.00137 400:0.005479 
22077.44 1:0.003425 4:0.003425 5:0.003425 10:0.006849 11:0.003425 12:0.006849 14:0.003425 16:0.003425 18:0.010274 23:0.003425 28:0.003425 43:0.010274 44:0.003425 46:0.003425 48:0.003425 49:0.003425 50:0.006849 54:0.006849 56:0.003425 57:0.003425 63:0.003425 64:0.003425 67:0.003425 68:0.003425 69:0.006849 70:0.010274 77:0.010274 78:0.003425 81:0.003425 84:0.003425 85:0.003425 86:0.003425 89:0.003425 90:0.006849 92:0.003425 93:0.010274 94:0.003425 96:0.003425 97:0.003425 98:0.006849 101:0.003425 103:0.003425 104:0.003425 105:0.010274 106:0.003425 108:0.006849 109:0.003425 111:0.006849 112:0.003425 113:0.010274 120:0.003425 121:0.003425 125:0.003425 129:0.006849 133:0.003425 135:0.003425 137:0.003425 138:0.003425 140:0.003425 141:0.003425 143:0.003425 145:0.006849 146:0.006849 148:0.003425 149:0.006849 151:0.006849 152:0.006849 153:0.003425 156:0.006849 158:0.003425 159:0.003425 160:0.006849 164:0.006849 166:0.003425 167:0.003425 170:0.003425 171:0.010274 173:0.010274 174:0.003425 176:0.010274 178:0.003425 180:0.006849 183:0.003425 184:0.006849 185:0.003425 186:0.003425 187:0.003425 188:0.013699 189:0.003425 190:0.013699 191:0.003425 192:0.003425 193:0.003425 194:0.010274 195:0.006849 197:0.003425 198:0.010274 199:0.003425 208:0.003425 210:0.003425 212:0.003425 213:0.003425 214:0.003425 215:0.003425 218:0.010274 219:0.003425 221:0.003425 222:0.003425 225:0.003425 226:0.006849 227:0.006849 228:0.010274 229:0.006849 230:0.006849 231:0.003425 232:0.003425 235:0.006849 236:0.006849 238:0.003425 241:0.003425 243:0.003425 244:0.006849 246:0.006849 247:0.003425 248:0.006849 250:0.003425 252:0.003425 254:0.003425 255:0.003425 256:0.010274 258:0.003425 260:0.003425 261:0.003425 263:0.003425 265:0.006849 268:0.003425 269:0.003425 272:0.003425 273:0.003425 274:0.003425 275:0.003425 277:0.010274 278:0.003425 280:0.003425 281:0.003425 284:0.003425 287:0.003425 289:0.003425 290:0.006849 292:0.003425 295:0.003425 296:0.003425 297:0.003425 301:0.006849 305:0.006849 306:0.010274 308:0.003425 309:0.010274 310:0.006849 311:0.003425 312:0.003425 313:0.003425 314:0.003425 316:0.003425 317:0.003425 320:0.006849 321:0.003425 323:0.003425 326:0.003425 330:0.010274 332:0.010274 333:0.003425 334:0.003425 335:0.003425 336:0.003425 340:0.003425 343:0.003425 344:0.003425 345:0.006849 346:0.003425 347:0.003425 348:0.006849 349:0.003425 350:0.006849 352:0.006849 353:0.006849 356:0.003425 357:0.003425 358:0.003425 359:0.003425 367:0.003425 372:0.006849 374:0.003425 381:0.003425 382:0.003425 383:0.003425 386:0.003425 390:0.003425 392:0.003425 394:0.003425 396:0.013699 
22077.44 1:0.010256 2:0.005128 3:0.005128 4:0.010256 6:0.005128 10:0.020513 13:0.005128 16:0.015385 17:0.010256 18:0.010256 20:0.010256 21:0.010256 28:0.005128 32:0.005128 33:0.005128 41:0.015385 46:0.010256 47:0.005128 51:0.005128 60:0.005128 63:0.005128 64:0.005128 66:0.005128 70:0.010256 74:0.005128 77:0.005128 82:0.005128 88:0.005128 94:0.005128 97:0.005128 98:0.005128 101:0.015385 105:0.005128 106:0.010256 108:0.015385 110:0.010256 112:0.005128 114:0.015385 115:0.010256 117:0.010256 119:0.005128 138:0.005128 140:0.005128 142:0.005128 146:0.005128 148:0.005128 149:0.005128 153:0.005128 156:0.005128 157:0.010256 158:0.005128 160:0.020513 161:0.005128 163:0.005128 164:0.005128 177:0.005128 178:0.005128 181:0.010256 182:0.010256 185:0.005128 186:0.005128 190:0.010256 194:0.005128 195:0.015385 197:0.010256 200:0.010256 208:0.005128 216:0.005128 220:0.005128 221:0.005128 226:0.005128 233:0.005128 236:0.005128 241:0.010256 246:0.010256 249:0.005128 252:0.005128 253:0.010256 260:0.005128 261:0.005128 266:0.005128 268:0.005128 273:0.005128 274:0.005128 276:0.005128 277:0.010256 280:0.005128 281:0.005128 282:0.005128 283:0.010256 284:0.005128 286:0.005128 290:0.015385 294:0.005128 295:0.005128 298:0.005128 300:0.005128 306:0.005128 308:0.010256 309:0.010256 310:0.005128 313:0.005128 315:0.005128 317:0.005128 318:0.005128 321:0.005128 325:0.010256 326:0.010256 328:0.005128 332:0.005128 333:0.005128 334:0.005128 335:0.010256 337:0.005128 338:0.005128 340:0.015385 341:0.005128 345:0.005128 347:0.005128 348:0.010256 355:0.010256 356:0.005128 357:0.005128 376:0.005128 381:0.005128 383:0.015385 384:0.010256 386:0.015385 389:0.005128 390:0.010256 391:0.010256 395:0.010256 396:0.005128 400:0.010256 
13358.39851448855 4:0.009217 6:0.004608 7:0.004608 11:0.004608 12:0.004608 13:0.013825 17:0.004608 18:0.004608 20:0.004608 27:0.004608 30:0.004608 36:0.004608 45:0.004608 47:0.004608 49:0.004608 54:0.004608 55:0.004608 56:0.009217 58:0.004608 59:0.004608 63:0.009217 64:0.004608 65:0.004608 66:0.004608 70:0.013825 75:0.004608 77:0.009217 78:0.004608 83:0.004608 85:0.004608 86:0.004608 88:0.004608 89:0.004608 92:0.004608 93:0.009217 98:0.009217 101:0.004608 102:0.004608 104:0.004608 106:0.004608 107:0.004608 110:0.004608 112:0.004608 113:0.004608 115:0.004608 116:0.004608 118:0.013825 119:0.004608 120:0.004608 128:0.004608 129:0.009217 130:0.009217 134:0.004608 137:0.004608 138:0.004608 141:0.004608 149:0.004608 150:0.004608 152:0.004608 154:0.004608 157:0.004608 164:0.004608 166:0.004608 169:0.004608 173:0.004608 175:0.004608 177:0.009217 178:0.009217 182:0.004608 184:0.013825 185:0.009217 190:0.013825 193:0.004608 197:0.018433 198:0.009217 200:0.004608 215:0.004608 217:0.004608 218:0.009217 226:0.013825 228:0.004608 231:0.004608 233:0.004608 234:0.004608 235:0.004608 237:0.009217 238:0.004608 244:0.004608 245:0.004608 247:0.004608 250:0.004608 252:0.004608 254:0.004608 255:0.004608 256:0.004608 257:0.009217 259:0.004608 261:0.004608 265:0.009217 268:0.004608 269:0.004608 270:0.004608 276:0.004608 280:0.004608 282:0.004608 284:0.004608 285:0.004608 288:0.004608 292:0.009217 297:0.004608 298:0.004608 300:0.004608 303:0.004608 305:0.004608 306:0.009217 308:0.004608 309:0.004608 310:0.004608 316:0.004608 317:0.004608 318:0.004608 320:0.004608 321:0.013825 323:0.009217 324:0.009217 327:0.004608 330:0.013825 332:0.009217 334:0.004608 335:0.009217 336:0.013825 337:0.018433 338:0.009217 340:0.004608 341:0.013825 344:0.004608 346:0.013825 347:0.009217 351:0.004608 352:0.009217 353:0.009217 354:0.004608 356:0.004608 357:0.013825 358:0.013825 360:0.009217 363:0.004608 377:0.004608 378:0.004608 381:0.013825 383:0.004608 386:0.009217 389:0.004608 391:0.004608 394:0.004608 
22077.44 1:0.021164 2:0.001323 3:0.009259 4:0.007937 5:0.002646 6:0.017196 8:0.006614 9:0.006614 10:0.009259 11:0.006614 12:0.005291 13:0.003968 14:0.001323 15:0.005291 16:0.006614 17:0.01455 18:0.010582 19:0.002646 20:0.002646 21:0.002646 26:0.001323 30:0.001323 34:0.001323 38:0.001323 40:0.001323 41:0.013228 43:0.002646 44:0.001323 45:0.001323 46:0.005291 47:0.002646 48:0.001323 49:0.001323 50:0.007937 53:0.006614 54:0.001323 55:0.002646 56:0.002646 57:0.003968 58:0.001323 61:0.006614 62:0.001323 63:0.001323 64:0.001323 65:0.002646 66:0.007937 68:0.001323 70:0.002646 71:0.001323 72:0.001323 73:0.002646 75:0.001323 77:0.002646 78:0.005291 79:0.001323 81:0.005291 83:0.001323 84:0.001323 85:0.001323 86:0.002646 88:0.001323 89:0.001323 93:0.002646 95:0.001323 96:0.002646 97:0.001323 98:0.002646 99:0.002646 100:0.001323 101:0.01455 103:0.007937 104:0.003968 105:0.001323 106:0.002646 107:0.001323 108:0.003968 109:0.002646 110:0.009259 111:0.002646 112:0.005291 113:0.005291 114:0.003968 115:0.007937 116:0.010582 117:0.009259 118:0.006614 119:0.002646 120:0.003968 121:0.002646 125:0.001323 126:0.002646 129:0.001323 130:0.002646 134:0.001323 135:0.002646 136:0.001323 137:0.001323 138:0.001323 141:0.003968 143:0.001323 144:0.001323 145:0.002646 146:0.001323 148:0.002646 149:0.002646 150:0.002646 152:0.002646 154:0.002646 155:0.002646 156:0.002646 157:0.005291 158:0.001323 161:0.005291 163:0.001323 164:0.001323 168:0.001323 170:0.009259 173:0.001323 174:0.001323 175:0.002646 176:0.001323 177:0.003968 178:0.002646 180:0.001323 181:0.013228 182:0.003968 183:0.003968 184:0.005291 185:0.002646 186:0.010582 187:0.003968 188:0.001323 189:0.001323 190:0.007937 192:0.003968 193:0.003968 194:0.001323 195:0.002646 196:0.011905 197:0.009259 198:0.002646 200:0.001323 201:0.002646 203:0.002646 207:0.001323 208:0.001323 210:0.001323 217:0.001323 218:0.003968 223:0.002646 224:0.001323 225:0.001323 226:0.003968 227:0.002646 228:0.001323 229:0.002646 230:0.001323 232:0.002646 235:0.006614 236:0.001323 237:0.003968 238:0.001323 239:0.001323 240:0.001323 241:0.005291 243:0.003968 244:0.001323 246:0.007937 248:0.001323 249:0.001323 250:0.002646 253:0.001323 255:0.002646 257:0.005291 258:0.003968 259:0.001323 260:0.001323 261:0.001323 265:0.001323 266:0.002646 267:0.002646 268:0.001323 269:0.001323 270:0.002646 274:0.001323 275:0.001323 276:0.001323 278:0.001323 279:0.001323 280:0.002646 281:0.002646 283:0.002646 284:0.002646 286:0.006614 287:0.001323 288:0.001323 289:0.003968 290:0.002646 292:0.006614 293:0.001323 296:0.006614 297:0.006614 298:0.001323 299:0.003968 301:0.005291 303:0.002646 304:0.001323 305:0.002646 306:0.011905 308:0.002646 309:0.001323 310:0.007937 312:0.002646 313:0.001323 314:0.002646 315:0.002646 316:0.002646 317:0.003968 318:0.009259 319:0.003968 320:0.002646 321:0.021164 323:0.002646 325:0.001323 326:0.011905 328:0.002646 329:0.002646 330:0.010582 331:0.001323 333:0.003968 334:0.001323 335:0.005291 336:0.005291 337:0.007937 338:0.005291 339:0.001323 340:0.003968 341:0.007937 342:0.001323 343:0.006614 344:0.006614 345:0.003968 346:0.006614 347:0.001323 348:0.002646 349:0.001323 350:0.007937 351:0.001323 352:0.002646 353:0.005291 354:0.001323 355:0.001323 356:0.003968 357:0.003968 358:0.002646 359:0.001323 361:0.003968 364:0.001323 365:0.001323 366:0.001323 368:0.001323 369:0.001323 370:0.001323 374:0.001323 375:0.001323 376:0.005291 378:0.002646 379:0.001323 380:0.001323 381:0.002646 382:0.001323 383:0.002646 384:0.001323 385:0.001323 386:0.001323 387:0.001323 391:0.001323 392:0.002646 395:0.001323 396:0.001323 397:0.003968 398:0.002646 
10732.14940961106 3:0.004202 8:0.004202 12:0.004202 13:0.004202 14:0.004202 31:0.004202 40:0.004202 43:0.004202 44:0.004202 46:0.004202 48:0.004202 49:0.021008 50:0.008403 51:0.004202 52:0.012605 53:0.004202 54:0.008403 56:0.004202 57:0.004202 58:0.012605 60:0.004202 63:0.004202 65:0.008403 67:0.004202 70:0.008403 72:0.012605 76:0.004202 77:0.004202 78:0.004202 83:0.012605 84:0.004202 86:0.004202 88:0.004202 89:0.004202 90:0.004202 92:0.004202 96:0.004202 97:0.004202 99:0.004202 101:0.004202 103:0.004202 106:0.004202 109:0.004202 110:0.004202 112:0.008403 118:0.004202 120:0.004202 129:0.004202 132:0.004202 134:0.004202 138:0.004202 140:0.004202 143:0.004202 144:0.008403 149:0.008403 152:0.008403 157:0.004202 160:0.004202 163:0.016807 165:0.012605 168:0.004202 169:0.02521 170:0.008403 171:0.004202 172:0.012605 173:0.004202 175:0.004202 176:0.008403 177:0.008403 178:0.008403 180:0.016807 181:0.004202 183:0.008403 186:0.004202 187:0.004202 188:0.004202 190:0.004202 191:0.008403 196:0.004202 197:0.008403 198:0.004202 200:0.012605 204:0.004202 209:0.004202 211:0.008403 213:0.004202 218:0.004202 220:0.008403 223:0.008403 224:0.004202 226:0.004202 227:0.004202 229:0.016807 230:0.004202 231:0.004202 232:0.004202 234:0.004202 236:0.012605 238:0.008403 240:0.008403 241:0.004202 243:0.008403 246:0.004202 249:0.004202 260:0.004202 262:0.004202 264:0.004202 265:0.004202 270:0.004202 273:0.004202 276:0.004202 277:0.008403 287:0.004202 289:0.004202 296:0.004202 298:0.008403 301:0.004202 305:0.008403 307:0.004202 308:0.012605 309:0.016807 313:0.004202 314:0.004202 316:0.004202 321:0.004202 322:0.004202 323:0.004202 324:0.004202 326:0.008403 329:0.008403 332:0.008403 335:0.004202 337:0.004202 338:0.004202 343:0.008403 344:0.004202 345:0.008403 349:0.012605 350:0.004202 354:0.004202 355:0.008403 356:0.004202 357:0.008403 360:0.004202 380:0.004202 383:0.012605 384:0.008403 385:0.008403 386:0.004202 388:0.004202 389:0.004202 390:0.016807 392:0.004202 394:0.004202 395:0.004202 396:0.004202 398:0.004202 400:0.008403 
384.5353676424968 2:0.002618 5:0.002618 6:0.002618 9:0.007853 13:0.005236 15:0.002618 16:0.002618 17:0.002618 18:0.005236 23:0.002618 24:0.002618 29:0.002618 33:0.002618 37:0.002618 38:0.002618 41:0.002618 44:0.002618 46:0.005236 48:0.002618 49:0.002618 50:0.007853 51:0.005236 53:0.005236 54:0.002618 55:0.002618 56:0.005236 57:0.007853 58:0.005236 61:0.005236 63:0.005236 64:0.005236 66:0.013089 68:0.005236 72:0.007853 73:0.005236 76:0.002618 77:0.002618 78:0.007853 81:0.002618 86:0.005236 89:0.002618 90:0.002618 92:0.005236 93:0.002618 97:0.002618 103:0.002618 104:0.007853 105:0.002618 106:0.010471 108:0.005236 109:0.002618 110:0.007853 111:0.005236 112:0.007853 113:0.005236 114:0.007853 116:0.007853 117:0.005236 118:0.007853 119:0.005236 126:0.002618 127:0.002618 133:0.002618 138:0.002618 139:0.002618 144:0.002618 149:0.005236 151:0.002618 152:0.002618 156:0.007853 157:0.005236 159:0.002618 161:0.007853 162:0.005236 163:0.007853 164:0.002618 166:0.007853 168:0.002618 169:0.002618 170:0.007853 172:0.005236 173:0.002618 175:0.005236 177:0.010471 180:0.002618 181:0.002618 182:0.002618 183:0.013089 185:0.002618 188:0.005236 190:0.007853 192:0.007853 193:0.010471 194:0.010471 195:0.002618 196:0.002618 197:0.007853 198:0.005236 200:0.002618 201:0.005236 204:0.005236 206:0.005236 210:0.005236 217:0.002618 218:0.002618 219:0.002618 220:0.002618 224:0.005236 226:0.002618 229:0.005236 230:0.002618 231:0.002618 232:0.005236 233:0.007853 237:0.013089 240:0.005236 241:0.005236 243:0.007853 244:0.002618 246:0.007853 248:0.002618 249:0.005236 250:0.005236 251:0.007853 253:0.005236 254:0.002618 255:0.007853 257:0.007853 258:0.013089 260:0.002618 265:0.002618 266:0.005236 270:0.002618 271:0.002618 273:0.005236 278:0.007853 280:0.005236 285:0.002618 286:0.005236 289:0.005236 291:0.002618 292:0.002618 293:0.002618 297:0.002618 298:0.005236 299:0.002618 300:0.007853 302:0.002618 303:0.002618 306:0.002618 309:0.005236 310:0.010471 311:0.002618 313:0.002618 314:0.002618 315:0.002618 316:0.002618 317:0.002618 318:0.005236 322:0.002618 323:0.005236 324:0.013089 326:0.005236 328:0.005236 329:0.015707 330:0.010471 332:0.002618 333:0.007853 334:0.002618 335:0.007853 336:0.002618 337:0.007853 338:0.007853 339:0.002618 343:0.005236 344:0.007853 345:0.005236 346:0.007853 347:0.005236 349:0.005236 350:0.010471 352:0.005236 353:0.005236 354:0.002618 355:0.002618 356:0.005236 357:0.013089 358:0.005236 360:0.002618 364:0.002618 367:0.002618 375:0.005236 376:0.005236 378:0.002618 383:0.005236 385:0.005236 386:0.002618 387:0.002618 389:0.002618 390:0.002618 393:0.005236 397:0.002618 398:0.002618 400:0.002618 
22077.44 1:0.011601 2:0.009281 3:0.00464 4:0.00232 5:0.00464 6:0.009281 9:0.00232 12:0.00232 13:0.00464 14:0.00464 16:0.006961 17:0.00232 18:0.011601 20:0.00232 23:0.00232 26:0.009281 27:0.00232 29:0.00464 30:0.00232 31:0.00232 32:0.00464 33:0.00464 34:0.00232 35:0.00464 36:0.006961 37:0.00232 38:0.00464 40:0.00232 41:0.00232 42:0.00464 43:0.00232 44:0.00232 45:0.00232 46:0.00464 48:0.00232 50:0.009281 53:0.00232 55:0.006961 56:0.011601 57:0.006961 58:0.00464 60:0.00232 61:0.006961 62:0.00464 64:0.00232 65:0.006961 66:0.006961 68:0.00232 70:0.00464 75:0.00232 76:0.00232 78:0.006961 79:0.00464 80:0.00464 82:0.00232 83:0.00464 84:0.006961 85:0.00232 86:0.00232 87:0.00232 88:0.00232 89:0.00232 90:0.00232 92:0.00232 93:0.00232 94:0.00232 97:0.00464 98:0.00464 100:0.00232 101:0.011601 103:0.006961 104:0.00464 105:0.00232 106:0.00464 107:0.00232 109:0.00232 110:0.00232 112:0.00464 113:0.00232 114:0.00232 115:0.006961 116:0.00232 117:0.006961 118:0.00232 123:0.006961 129:0.00232 135:0.00232 136:0.00464 140:0.00232 142:0.006961 144:0.00464 145:0.00232 149:0.00232 152:0.006961 153:0.00232 154:0.00232 157:0.00464 160:0.00232 161:0.00464 163:0.00232 164:0.00464 167:0.00232 168:0.00464 169:0.009281 170:0.00464 172:0.00464 174:0.00232 176:0.00232 177:0.009281 178:0.00232 180:0.00232 182:0.00464 184:0.00464 185:0.00464 186:0.00232 188:0.00464 189:0.009281 190:0.00464 192:0.00232 194:0.00232 195:0.00464 196:0.009281 197:0.006961 198:0.009281 200:0.00232 206:0.00232 207:0.00232 210:0.00232 216:0.00232 222:0.00464 223:0.00232 225:0.00232 226:0.00232 227:0.00232 228:0.00464 229:0.00464 230:0.00232 231:0.00464 232:0.00464 233:0.00232 234:0.00232 237:0.00232 238:0.00232 241:0.00232 242:0.00232 243:0.00464 244:0.00464 248:0.00232 249:0.00232 250:0.00464 254:0.006961 256:0.00464 257:0.00232 258:0.00232 261:0.00232 262:0.00232 264:0.00232 266:0.00232 267:0.00232 272:0.00464 273:0.00464 274:0.00232 275:0.00232 276:0.00232 277:0.00232 278:0.006961 281:0.00464 283:0.00464 284:0.00464 285:0.00232 286:0.00464 290:0.00232 291:0.00232 293:0.00464 295:0.00232 296:0.00464 297:0.00232 298:0.00464 300:0.00232 301:0.00464 302:0.00232 303:0.006961 304:0.00464 305:0.00232 306:0.00464 308:0.00464 310:0.011601 312:0.00464 313:0.00464 314:0.00232 315:0.006961 316:0.011601 317:0.00232 318:0.00464 320:0.00464 321:0.011601 323:0.00464 324:0.00232 325:0.00464 326:0.00464 328:0.00464 329:0.00464 330:0.006961 333:0.00232 334:0.00464 336:0.006961 337:0.00464 338:0.00232 339:0.00464 340:0.00464 341:0.006961 342:0.011601 343:0.009281 344:0.00232 345:0.00232 346:0.00464 347:0.00232 348:0.00232 349:0.006961 350:0.00464 352:0.00232 353:0.00232 355:0.00464 356:0.00232 357:0.006961 363:0.00232 364:0.00232 375:0.00232 378:0.00232 381:0.006961 385:0.006961 389:0.00232 390:0.006961 396:0.00232 397:0.006961 398:0.00232 400:0.00232 
22077.44 4:0.004967 5:0.004967 6:0.001656 7:0.003311 8:0.006623 9:0.004967 10:0.016556 11:0.004967 13:0.001656 14:0.003311 15:0.003311 16:0.003311 17:0.003311 18:0.008278 19:0.001656 20:0.001656 23:0.001656 25:0.001656 37:0.001656 38:0.001656 41:0.003311 43:0.001656 44:0.001656 45:0.003311 46:0.008278 47:0.004967 50:0.004967 51:0.001656 52:0.004967 54:0.003311 56:0.003311 57:0.001656 58:0.003311 59:0.001656 60:0.003311 61:0.004967 64:0.004967 65:0.003311 67:0.003311 68:0.004967 69:0.004967 70:0.003311 72:0.004967 74:0.001656 75:0.003311 76:0.003311 77:0.004967 78:0.004967 79:0.001656 81:0.006623 83:0.001656 84:0.001656 85:0.004967 86:0.004967 88:0.003311 90:0.004967 92:0.003311 94:0.001656 96:0.003311 97:0.004967 98:0.004967 99:0.001656 100:0.001656 101:0.008278 102:0.003311 103:0.003311 104:0.003311 106:0.003311 108:0.008278 109:0.008278 110:0.003311 111:0.001656 112:0.003311 113:0.003311 114:0.004967 115:0.001656 116:0.006623 117:0.004967 118:0.006623 120:0.001656 121:0.001656 122:0.001656 123:0.001656 125:0.004967 127:0.001656 128:0.001656 129:0.003311 130:0.001656 131:0.001656 134:0.003311 135:0.001656 136:0.001656 138:0.004967 141:0.004967 143:0.003311 144:0.003311 145:0.001656 146:0.008278 147:0.001656 148:0.006623 149:0.001656 150:0.004967 152:0.006623 153:0.003311 156:0.001656 158:0.006623 159:0.003311 160:0.001656 161:0.001656 163:0.006623 164:0.003311 166:0.003311 167:0.001656 168:0.001656 169:0.001656 170:0.001656 171:0.001656 172:0.001656 173:0.001656 174:0.001656 175:0.003311 176:0.009934 177:0.004967 178:0.004967 180:0.001656 181:0.006623 183:0.003311 184:0.001656 185:0.001656 186:0.006623 187:0.004967 188:0.003311 189:0.008278 190:0.001656 191:0.004967 192:0.001656 193:0.008278 194:0.003311 195:0.001656 196:0.006623 197:0.004967 198:0.008278 199:0.001656 200:0.001656 201:0.001656 203:0.001656 204:0.001656 205:0.004967 208:0.001656 209:0.001656 210:0.004967 211:0.001656 216:0.009934 218:0.003311 220:0.001656 221:0.008278 223:0.003311 225:0.006623 226:0.008278 227:0.001656 228:0.004967 230:0.004967 231:0.004967 232:0.003311 235:0.006623 236:0.004967 237:0.003311 238:0.003311 241:0.003311 242:0.001656 245:0.001656 247:0.001656 248:0.003311 251:0.001656 254:0.001656 255:0.001656 256:0.003311 257:0.001656 258:0.001656 260:0.003311 261:0.001656 264:0.003311 266:0.003311 267:0.001656 270:0.004967 271:0.001656 272:0.003311 274:0.001656 275:0.004967 276:0.001656 277:0.006623 278:0.001656 279:0.001656 280:0.001656 281:0.006623 283:0.001656 284:0.001656 285:0.001656 286:0.001656 289:0.001656 290:0.003311 292:0.003311 293:0.003311 294:0.001656 296:0.003311 297:0.001656 298:0.004967 300:0.003311 301:0.003311 303:0.008278 304:0.001656 306:0.008278 307:0.003311 308:0.011589 309:0.006623 310:0.003311 312:0.008278 315:0.001656 316:0.001656 317:0.009934 318:0.003311 320:0.003311 321:0.001656 323:0.003311 324:0.011589 325:0.004967 326:0.006623 327:0.001656 328:0.001656 329:0.004967 330:0.003311 332:0.006623 333:0.004967 334:0.004967 335:0.001656 337:0.001656 338:0.001656 341:0.009934 343:0.003311 344:0.004967 345:0.001656 346:0.006623 349:0.001656 350:0.009934 351:0.006623 352:0.009934 354:0.004967 355:0.006623 356:0.003311 357:0.004967 358:0.001656 359:0.001656 363:0.001656 366:0.003311 369:0.003311 375:0.001656 376:0.001656 378:0.001656 380:0.001656 383:0.004967 384:0.004967 385:0.001656 386:0.001656 390:0.004967 392:0.003311 394:0.001656 396:0.004967 
22077.44 4:0.00738 6:0.00738 8:0.01107 9:0.00369 10:0.00738 11:0.00369 13:0.00369 15:0.00369 18:0.00369 19:0.00369 30:0.00738 44:0.00369 45:0.00738 46:0.00738 48:0.00369 49:0.00738 50:0.00369 53:0.00738 55:0.00738 57:0.00738 58:0.00369 60:0.00369 61:0.00369 65:0.00738 66:0.00738 67:0.00369 68:0.00369 69:0.00369 70:0.00369 73:0.00369 75:0.00369 76:0.00369 78:0.00369 83:0.00369 84:0.00369 85:0.00369 86:0.00369 89:0.00369 90:0.00738 92:0.00738 93:0.00738 98:0.00738 100:0.01107 101:0.00369 104:0.00738 105:0.00369 106:0.00369 107:0.00369 108:0.00369 109:0.00369 110:0.01107 113:0.00369 114:0.00369 115:0.00738 116:0.00738 117:0.00738 118:0.00369 119:0.00369 122:0.00369 123:0.00369 125:0.01107 130:0.00369 133:0.00738 139:0.00369 143:0.00738 146:0.00738 148:0.01107 153:0.00369 154:0.00369 155:0.00369 156:0.01107 157:0.00738 158:0.00369 160:0.00369 161:0.00369 163:0.00369 165:0.00369 166:0.01476 167:0.00738 169:0.00738 170:0.00369 172:0.00369 174:0.00369 175:0.00738 177:0.01107 181:0.00738 183:0.00738 184:0.00738 185:0.00369 186:0.01107 188:0.01107 189:0.01107 190:0.01107 191:0.00369 193:0.00369 195:0.01107 196:0.00369 197:0.00369 204:0.00369 210:0.00369 213:0.00369 216:0.00369 217:0.00369 229:0.00369 230:0.00369 235:0.00369 236:0.00369 241:0.00738 242:0.00369 243:0.00738 244:0.00369 245:0.00369 247:0.00738 248:0.00369 252:0.00369 254:0.00369 255:0.00369 256:0.00369 257:0.00369 258:0.00369 261:0.00369 263:0.00369 268:0.00738 270:0.00369 271:0.00738 277:0.00369 281:0.01107 283:0.00738 284:0.01107 287:0.00369 288:0.00738 290:0.00738 293:0.01107 294:0.00369 295:0.00369 296:0.00369 297:0.01107 298:0.00738 301:0.00738 303:0.00738 306:0.00738 309:0.01107 310:0.00369 315:0.00369 316:0.00369 319:0.00369 320:0.00738 321:0.00369 323:0.00369 325:0.00738 326:0.00369 327:0.00369 329:0.01107 330:0.01107 331:0.00369 333:0.00369 334:0.00369 335:0.01107 336:0.00369 346:0.00369 347:0.00369 349:0.00369 354:0.00369 355:0.01107 356:0.00369 357:0.00738 358:0.01107 363:0.00369 370:0.00369 376:0.00369 380:0.00369 381:0.00369 383:0.00369 385:0.00738 394:0.00369 395:0.00738 397:0.00369 
22077.44 1:0.006881 2:0.002294 3:0.002294 4:0.006881 5:0.004587 6:0.004587 7:0.002294 8:0.006881 9:0.002294 10:0.004587 12:0.006881 13:0.002294 14:0.002294 15:0.009174 16:0.004587 17:0.004587 18:0.002294 19:0.004587 20:0.004587 23:0.006881 26:0.002294 28:0.002294 41:0.002294 43:0.004587 44:0.002294 45:0.004587 47:0.004587 48:0.002294 49:0.002294 50:0.009174 52:0.002294 53:0.006881 54:0.004587 55:0.004587 57:0.004587 58:0.006881 60:0.002294 61:0.018349 63:0.004587 64:0.004587 65:0.004587 66:0.004587 67:0.002294 68:0.004587 69:0.009174 70:0.002294 72:0.006881 73:0.002294 74:0.006881 75:0.004587 77:0.002294 78:0.004587 81:0.004587 83:0.002294 86:0.002294 88:0.004587 93:0.004587 94:0.006881 96:0.004587 97:0.004587 98:0.002294 99:0.002294 101:0.004587 104:0.002294 106:0.009174 108:0.006881 109:0.002294 110:0.006881 112:0.002294 113:0.004587 114:0.002294 115:0.002294 116:0.004587 117:0.004587 118:0.006881 119:0.002294 120:0.002294 121:0.002294 125:0.002294 127:0.011468 128:0.002294 130:0.002294 136:0.002294 137:0.002294 138:0.002294 141:0.011468 142:0.002294 143:0.002294 144:0.004587 145:0.002294 146:0.002294 149:0.002294 150:0.011468 153:0.006881 154:0.002294 155:0.006881 156:0.002294 157:0.004587 158:0.013761 161:0.004587 163:0.002294 164:0.006881 166:0.002294 168:0.004587 169:0.006881 170:0.011468 176:0.006881 177:0.004587 178:0.002294 180:0.006881 181:0.002294 183:0.009174 184:0.006881 185:0.002294 186:0.004587 188:0.006881 189:0.006881 190:0.004587 192:0.006881 193:0.002294 194:0.002294 195:0.002294 196:0.004587 197:0.002294 198:0.002294 199:0.002294 200:0.004587 221:0.002294 223:0.006881 224:0.002294 225:0.002294 226:0.004587 227:0.004587 228:0.002294 229:0.002294 230:0.002294 232:0.002294 233:0.004587 236:0.004587 237:0.004587 240:0.002294 241:0.002294 242:0.002294 243:0.009174 244:0.006881 246:0.004587 248:0.004587 249:0.004587 250:0.002294 252:0.009174 254:0.002294 257:0.004587 258:0.002294 261:0.004587 262:0.002294 263:0.004587 264:0.004587 265:0.002294 268:0.004587 269:0.004587 274:0.002294 276:0.006881 278:0.002294 280:0.004587 281:0.006881 283:0.002294 284:0.006881 288:0.004587 289:0.004587 290:0.004587 293:0.002294 294:0.002294 295:0.002294 296:0.002294 298:0.004587 300:0.002294 304:0.004587 305:0.004587 306:0.002294 308:0.006881 309:0.004587 312:0.009174 313:0.004587 314:0.004587 315:0.002294 316:0.006881 317:0.002294 318:0.002294 319:0.002294 320:0.002294 321:0.002294 322:0.002294 323:0.004587 324:0.004587 325:0.004587 326:0.002294 328:0.002294 330:0.002294 333:0.002294 335:0.009174 336:0.002294 337:0.002294 338:0.006881 340:0.002294 341:0.004587 343:0.006881 344:0.013761 345:0.002294 346:0.011468 348:0.002294 349:0.002294 350:0.004587 353:0.004587 354:0.002294 355:0.002294 356:0.004587 358:0.002294 361:0.002294 372:0.002294 373:0.002294 374:0.002294 377:0.002294 379:0.002294 381:0.002294 383:0.002294 385:0.002294 386:0.009174 388:0.004587 390:0.004587 392:0.002294 396:0.004587 400:0.004587 
22077.44 1:0.007212 4:0.002404 5:0.002404 7:0.002404 9:0.004808 10:0.009615 12:0.002404 15:0.004808 17:0.002404 18:0.009615 20:0.002404 32:0.002404 40:0.002404 41:0.004808 43:0.002404 44:0.012019 45:0.004808 47:0.002404 48:0.004808 50:0.004808 55:0.002404 56:0.002404 57:0.004808 58:0.009615 60:0.002404 61:0.004808 63:0.012019 64:0.009615 65:0.002404 66:0.007212 68:0.009615 69:0.016827 70:0.009615 71:0.002404 72:0.007212 75:0.002404 77:0.004808 78:0.004808 80:0.007212 81:0.002404 84:0.007212 88:0.009615 89:0.004808 90:0.002404 93:0.004808 94:0.002404 95:0.002404 96:0.004808 97:0.002404 98:0.007212 100:0.004808 101:0.002404 103:0.002404 104:0.002404 105:0.002404 106:0.012019 107:0.002404 108:0.002404 109:0.004808 110:0.012019 113:0.002404 114:0.002404 115:0.004808 116:0.007212 118:0.002404 121:0.002404 124:0.002404 125:0.002404 128:0.004808 130:0.004808 131:0.002404 133:0.002404 137:0.002404 141:0.004808 143:0.004808 144:0.009615 145:0.004808 146:0.007212 147:0.004808 150:0.002404 152:0.002404 153:0.009615 155:0.004808 156:0.007212 157:0.002404 158:0.012019 161:0.002404 163:0.004808 164:0.002404 165:0.002404 166:0.009615 168:0.009615 169:0.007212 170:0.009615 171:0.004808 174:0.002404 175:0.007212 177:0.002404 178:0.007212 180:0.009615 181:0.002404 182:0.002404 183:0.002404 184:0.014423 185:0.002404 186:0.004808 188:0.009615 189:0.016827 190:0.007212 191:0.002404 192:0.002404 193:0.002404 195:0.007212 196:0.012019 197:0.004808 198:0.004808 204:0.002404 205:0.004808 209:0.002404 215:0.002404 220:0.004808 221:0.002404 223:0.002404 225:0.004808 226:0.002404 227:0.002404 228:0.002404 230:0.004808 232:0.002404 233:0.004808 235:0.002404 237:0.002404 238:0.002404 240:0.002404 242:0.002404 243:0.007212 244:0.004808 246:0.002404 248:0.004808 250:0.004808 256:0.002404 257:0.002404 260:0.002404 264:0.002404 265:0.002404 266:0.002404 269:0.002404 281:0.004808 283:0.002404 284:0.009615 285:0.002404 286:0.002404 287:0.002404 288:0.004808 289:0.002404 290:0.009615 292:0.004808 293:0.002404 296:0.004808 297:0.002404 298:0.002404 300:0.002404 301:0.004808 303:0.002404 304:0.002404 305:0.004808 306:0.004808 307:0.002404 308:0.002404 309:0.002404 311:0.002404 312:0.004808 314:0.002404 316:0.002404 317:0.004808 318:0.002404 320:0.002404 321:0.004808 323:0.002404 324:0.004808 325:0.002404 326:0.002404 327:0.002404 328:0.004808 329:0.002404 330:0.002404 332:0.002404 333:0.002404 335:0.002404 336:0.002404 337:0.002404 338:0.002404 339:0.002404 343:0.007212 344:0.007212 345:0.007212 346:0.002404 347:0.002404 348:0.007212 349:0.014423 350:0.004808 351:0.002404 352:0.007212 353:0.002404 355:0.012019 357:0.002404 358:0.004808 365:0.002404 383:0.004808 384:0.004808 386:0.004808 390:0.009615 395:0.002404 396:0.002404 397:0.002404 398:0.012019 400:0.004808 
22077.44 1:0.015915 3:0.007958 4:0.007958 5:0.01061 6:0.005305 7:0.002653 9:0.007958 10:0.005305 11:0.002653 12:0.002653 14:0.002653 16:0.007958 17:0.01061 18:0.002653 19:0.002653 20:0.005305 31:0.002653 41:0.013263 43:0.007958 44:0.005305 45:0.002653 46:0.002653 49:0.005305 50:0.007958 52:0.002653 53:0.005305 55:0.005305 56:0.002653 57:0.002653 58:0.007958 60:0.002653 61:0.005305 63:0.002653 64:0.002653 65:0.002653 67:0.005305 68:0.002653 69:0.002653 70:0.002653 71:0.005305 72:0.002653 74:0.002653 75:0.01061 78:0.007958 80:0.002653 81:0.002653 83:0.002653 84:0.002653 86:0.002653 88:0.005305 89:0.005305 90:0.002653 92:0.002653 93:0.002653 95:0.002653 97:0.005305 98:0.002653 99:0.002653 101:0.005305 103:0.005305 105:0.002653 107:0.005305 108:0.007958 109:0.005305 110:0.01061 111:0.002653 114:0.005305 115:0.005305 116:0.002653 117:0.002653 118:0.005305 123:0.002653 125:0.002653 126:0.002653 127:0.013263 128:0.002653 130:0.005305 131:0.002653 132:0.002653 136:0.005305 137:0.002653 139:0.002653 141:0.013263 143:0.005305 144:0.007958 146:0.002653 147:0.005305 148:0.002653 149:0.002653 151:0.002653 153:0.002653 154:0.002653 156:0.002653 157:0.005305 160:0.002653 161:0.007958 163:0.007958 164:0.002653 166:0.005305 167:0.005305 168:0.005305 169:0.002653 170:0.015915 171:0.005305 172:0.002653 173:0.002653 175:0.01061 176:0.005305 179:0.002653 181:0.013263 183:0.005305 184:0.002653 185:0.007958 186:0.007958 187:0.002653 188:0.005305 189:0.007958 190:0.005305 191:0.002653 192:0.007958 193:0.007958 194:0.007958 195:0.005305 197:0.002653 198:0.002653 204:0.002653 206:0.005305 208:0.002653 209:0.002653 210:0.002653 213:0.002653 214:0.002653 215:0.002653 218:0.002653 220:0.002653 221:0.007958 222:0.002653 223:0.002653 224:0.005305 225:0.002653 226:0.002653 228:0.002653 230:0.002653 236:0.002653 237:0.002653 239:0.002653 240:0.002653 244:0.005305 246:0.002653 248:0.007958 249:0.005305 250:0.002653 253:0.002653 254:0.002653 256:0.002653 258:0.002653 260:0.002653 261:0.002653 263:0.002653 264:0.002653 266:0.005305 268:0.002653 269:0.005305 273:0.002653 277:0.002653 279:0.002653 281:0.002653 283:0.007958 284:0.002653 285:0.002653 286:0.002653 289:0.002653 290:0.01061 297:0.005305 298:0.002653 300:0.005305 301:0.005305 303:0.005305 306:0.002653 307:0.002653 308:0.005305 309:0.005305 310:0.002653 314:0.002653 317:0.002653 318:0.002653 319:0.002653 320:0.002653 325:0.002653 326:0.005305 328:0.002653 329:0.007958 330:0.01061 332:0.002653 333:0.005305 335:0.002653 336:0.005305 337:0.002653 338:0.002653 341:0.005305 343:0.005305 344:0.002653 345:0.002653 346:0.005305 347:0.002653 350:0.005305 352:0.002653 356:0.005305 358:0.002653 359:0.005305 363:0.002653 364:0.002653 366:0.005305 367:0.002653 369:0.002653 370:0.002653 372:0.002653 380:0.002653 384:0.002653 385:0.002653 388:0.002653 389:0.01061 392:0.007958 393:0.002653 397:0.002653 
