svm_type c_svc
kernel_type rbf
gamma 0.015625
nr_class 2
total_sv 655
rho 12.1138
label 1 -1
nr_sv 226 429
SV
8192 1:0.003891 2:0.001946 4:0.001946 5:0.005837 6:0.003891 9:0.005837 10:0.003891 11:0.001946 12:0.001946 13:0.007782 14:0.001946 15:0.003891 16:0.003891 17:0.003891 18:0.003891 20:0.003891 23:0.001946 30:0.001946 32:0.001946 35:0.001946 37:0.001946 39:0.001946 40:0.001946 41:0.007782 43:0.005837 44:0.003891 45:0.005837 48:0.001946 49:0.001946 50:0.003891 51:0.001946 54:0.003891 55:0.001946 56:0.007782 57:0.003891 58:0.003891 59:0.001946 61:0.003891 62:0.001946 64:0.003891 65:0.005837 68:0.001946 70:0.003891 72:0.003891 73:0.005837 75:0.003891 76:0.007782 77:0.001946 78:0.007782 80:0.003891 83:0.003891 85:0.001946 86:0.007782 88:0.003891 89:0.005837 90:0.001946 91:0.001946 92:0.003891 93:0.009728 94:0.001946 95:0.001946 96:0.003891 97:0.001946 100:0.005837 101:0.001946 103:0.001946 104:0.005837 105:0.005837 106:0.005837 107:0.001946 108:0.005837 109:0.001946 110:0.001946 113:0.005837 114:0.003891 116:0.003891 117:0.007782 120:0.003891 124:0.003891 126:0.001946 127:0.001946 128:0.001946 130:0.003891 135:0.003891 136:0.001946 137:0.001946 138:0.001946 139:0.001946 140:0.001946 141:0.003891 143:0.003891 144:0.001946 145:0.001946 146:0.001946 147:0.001946 148:0.005837 150:0.005837 152:0.005837 154:0.003891 155:0.001946 156:0.007782 157:0.003891 158:0.005837 161:0.003891 162:0.001946 163:0.005837 164:0.003891 165:0.001946 166:0.007782 168:0.003891 169:0.001946 170:0.005837 171:0.001946 173:0.001946 174:0.003891 177:0.003891 178:0.003891 179:0.001946 180:0.001946 181:0.003891 183:0.009728 184:0.005837 185:0.001946 186:0.001946 187:0.003891 188:0.003891 189:0.003891 190:0.009728 192:0.001946 193:0.005837 194:0.001946 195:0.003891 196:0.011673 197:0.007782 198:0.005837 199:0.007782 200:0.001946 201:0.001946 203:0.001946 215:0.001946 217:0.001946 218:0.003891 223:0.001946 224:0.001946 225:0.001946 227:0.001946 228:0.001946 229:0.007782 230:0.003891 231:0.001946 233:0.003891 235:0.001946 236:0.001946 237:0.001946 238:0.001946 241:0.003891 242:0.001946 243:0.001946 244:0.007782 246:0.005837 248:0.001946 249:0.001946 250:0.007782 252:0.007782 255:0.005837 256:0.003891 257:0.001946 258:0.005837 259:0.001946 260:0.001946 261:0.001946 263:0.005837 264:0.001946 265:0.001946 269:0.009728 270:0.005837 272:0.001946 273:0.001946 274:0.001946 276:0.005837 278:0.001946 281:0.003891 282:0.001946 283:0.001946 285:0.001946 286:0.007782 287:0.003891 289:0.001946 290:0.007782 291:0.003891 294:0.003891 295:0.001946 298:0.005837 300:0.001946 301:0.007782 302:0.001946 303:0.001946 304:0.003891 305:0.007782 306:0.001946 307:0.005837 308:0.005837 309:0.001946 310:0.001946 312:0.003891 313:0.003891 314:0.001946 315:0.005837 316:0.003891 317:0.003891 318:0.003891 319:0.001946 320:0.007782 321:0.003891 323:0.001946 325:0.007782 328:0.007782 330:0.011673 332:0.001946 333:0.009728 334:0.003891 335:0.001946 336:0.001946 337:0.003891 340:0.001946 341:0.001946 343:0.003891 344:0.007782 345:0.003891 346:0.001946 348:0.003891 349:0.005837 350:0.007782 354:0.001946 355:0.003891 356:0.003891 357:0.001946 359:0.005837 360:0.003891 364:0.001946 366:0.005837 367:0.003891 369:0.001946 373:0.003891 374:0.001946 375:0.001946 376:0.001946 380:0.001946 381:0.003891 382:0.001946 383:0.001946 386:0.003891 387:0.001946 388:0.005837 389:0.003891 390:0.003891 393:0.001946 394:0.003891 396:0.005837 397:0.003891 398:0.001946 400:0.001946 
8192 1:0.004264 2:0.002132 3:0.002132 4:0.002132 5:0.006397 6:0.004264 10:0.004264 12:0.002132 13:0.008529 14:0.004264 16:0.006397 17:0.012793 18:0.004264 19:0.002132 20:0.002132 24:0.002132 27:0.002132 28:0.004264 29:0.002132 32:0.004264 34:0.002132 36:0.002132 37:0.002132 41:0.002132 43:0.002132 44:0.002132 45:0.004264 46:0.002132 48:0.006397 51:0.002132 52:0.006397 53:0.002132 56:0.002132 58:0.010661 60:0.002132 61:0.002132 62:0.002132 63:0.004264 64:0.002132 65:0.002132 68:0.008529 70:0.004264 71:0.004264 72:0.004264 74:0.002132 76:0.006397 77:0.004264 81:0.004264 83:0.004264 85:0.002132 86:0.006397 89:0.002132 90:0.004264 92:0.004264 93:0.002132 94:0.002132 96:0.006397 99:0.002132 100:0.004264 101:0.006397 102:0.002132 103:0.006397 104:0.006397 105:0.004264 106:0.008529 108:0.002132 109:0.002132 110:0.008529 112:0.006397 113:0.004264 116:0.002132 117:0.008529 120:0.004264 121:0.002132 127:0.002132 129:0.004264 137:0.002132 138:0.004264 143:0.002132 144:0.002132 145:0.002132 148:0.002132 149:0.002132 150:0.006397 151:0.002132 152:0.004264 153:0.006397 154:0.006397 156:0.004264 157:0.012793 158:0.002132 161:0.006397 162:0.002132 165:0.002132 167:0.002132 169:0.004264 170:0.004264 177:0.004264 178:0.002132 179:0.004264 181:0.002132 183:0.004264 184:0.006397 185:0.002132 186:0.008529 188:0.006397 190:0.008529 192:0.004264 193:0.010661 195:0.002132 196:0.002132 197:0.014925 198:0.002132 200:0.002132 204:0.004264 210:0.002132 213:0.002132 214:0.002132 215:0.002132 218:0.002132 219:0.002132 221:0.008529 222:0.002132 224:0.002132 225:0.004264 226:0.002132 228:0.010661 229:0.002132 230:0.006397 232:0.004264 233:0.002132 235:0.002132 236:0.006397 237:0.008529 238:0.006397 241:0.004264 244:0.004264 245:0.002132 246:0.006397 247:0.002132 248:0.004264 249:0.004264 250:0.002132 251:0.002132 252:0.006397 255:0.004264 256:0.006397 257:0.012793 258:0.006397 260:0.002132 263:0.006397 266:0.002132 270:0.002132 272:0.002132 273:0.002132 274:0.002132 276:0.004264 278:0.004264 280:0.002132 281:0.002132 283:0.002132 285:0.002132 286:0.002132 290:0.002132 293:0.002132 296:0.002132 297:0.004264 301:0.002132 303:0.002132 304:0.004264 306:0.017058 307:0.002132 308:0.002132 309:0.004264 310:0.008529 312:0.006397 313:0.006397 314:0.004264 315:0.002132 316:0.002132 317:0.012793 318:0.006397 321:0.014925 322:0.002132 323:0.004264 324:0.004264 325:0.002132 326:0.008529 327:0.004264 328:0.004264 329:0.002132 330:0.008529 331:0.004264 332:0.010661 333:0.008529 335:0.004264 336:0.014925 337:0.01919 338:0.008529 340:0.004264 341:0.002132 342:0.004264 343:0.002132 344:0.002132 345:0.006397 346:0.004264 348:0.002132 349:0.002132 350:0.002132 352:0.002132 353:0.008529 355:0.002132 356:0.008529 357:0.008529 358:0.002132 360:0.006397 361:0.002132 362:0.002132 363:0.002132 373:0.002132 377:0.002132 381:0.002132 382:0.002132 384:0.002132 385:0.002132 388:0.002132 390:0.002132 393:0.002132 394:0.002132 396:0.006397 397:0.002132 398:0.004264 
8192 3:0.005848 4:0.002924 5:0.002924 6:0.005848 7:0.002924 8:0.008772 9:0.002924 11:0.002924 13:0.002924 15:0.002924 18:0.002924 20:0.002924 26:0.002924 28:0.002924 29:0.005848 30:0.002924 43:0.008772 44:0.002924 45:0.005848 46:0.002924 47:0.002924 48:0.011696 50:0.005848 51:0.002924 52:0.002924 53:0.002924 55:0.005848 56:0.005848 57:0.002924 60:0.008772 61:0.002924 62:0.002924 63:0.011696 64:0.005848 65:0.008772 66:0.002924 67:0.005848 68:0.005848 69:0.005848 70:0.01462 73:0.002924 75:0.002924 76:0.008772 77:0.002924 79:0.002924 80:0.005848 83:0.008772 84:0.008772 85:0.005848 86:0.002924 87:0.002924 88:0.002924 89:0.005848 90:0.002924 91:0.002924 94:0.002924 95:0.002924 96:0.002924 97:0.002924 98:0.005848 100:0.002924 101:0.002924 104:0.005848 105:0.002924 106:0.008772 108:0.005848 110:0.005848 112:0.002924 114:0.002924 118:0.002924 119:0.002924 120:0.002924 121:0.002924 124:0.002924 125:0.005848 127:0.002924 128:0.002924 134:0.002924 138:0.002924 139:0.002924 141:0.011696 143:0.008772 144:0.011696 146:0.005848 148:0.002924 149:0.005848 150:0.002924 152:0.005848 155:0.002924 156:0.005848 157:0.002924 158:0.002924 159:0.002924 160:0.002924 161:0.008772 162:0.002924 163:0.005848 164:0.008772 169:0.011696 170:0.008772 171:0.002924 172:0.005848 173:0.005848 175:0.005848 177:0.005848 179:0.002924 180:0.008772 181:0.008772 183:0.002924 184:0.011696 185:0.002924 186:0.005848 189:0.008772 190:0.008772 191:0.002924 192:0.008772 193:0.002924 195:0.002924 196:0.002924 198:0.005848 200:0.005848 201:0.002924 203:0.002924 204:0.002924 207:0.002924 210:0.002924 211:0.002924 218:0.002924 219:0.002924 224:0.005848 225:0.002924 228:0.002924 229:0.005848 230:0.011696 232:0.008772 233:0.005848 234:0.005848 235:0.002924 236:0.002924 238:0.002924 240:0.005848 241:0.002924 243:0.005848 245:0.005848 246:0.005848 248:0.002924 249:0.002924 252:0.002924 258:0.002924 263:0.002924 264:0.002924 269:0.005848 274:0.002924 278:0.005848 280:0.005848 282:0.002924 284:0.008772 285:0.008772 288:0.002924 289:0.008772 290:0.002924 295:0.002924 297:0.002924 299:0.002924 300:0.002924 301:0.002924 303:0.002924 304:0.002924 305:0.005848 309:0.002924 310:0.002924 313:0.002924 314:0.005848 315:0.002924 317:0.008772 320:0.002924 324:0.002924 325:0.002924 327:0.002924 328:0.002924 330:0.002924 331:0.002924 335:0.002924 336:0.002924 338:0.002924 343:0.002924 344:0.002924 345:0.002924 346:0.002924 348:0.002924 349:0.005848 350:0.002924 352:0.002924 355:0.002924 356:0.005848 358:0.002924 359:0.002924 360:0.002924 362:0.002924 367:0.002924 368:0.002924 370:0.002924 372:0.005848 375:0.002924 376:0.002924 382:0.002924 383:0.002924 384:0.002924 388:0.01462 389:0.005848 392:0.017544 393:0.005848 394:0.002924 395:0.002924 396:0.002924 
29.20125924642519 1:0.006623 3:0.002208 5:0.004415 6:0.00883 8:0.002208 9:0.006623 10:0.002208 12:0.004415 13:0.002208 14:0.004415 16:0.002208 17:0.002208 18:0.002208 20:0.006623 26:0.002208 39:0.002208 41:0.004415 43:0.00883 44:0.002208 45:0.002208 46:0.00883 47:0.002208 49:0.004415 50:0.004415 52:0.004415 53:0.004415 54:0.004415 56:0.002208 57:0.006623 58:0.004415 60:0.002208 68:0.004415 69:0.002208 70:0.004415 71:0.002208 72:0.006623 74:0.002208 75:0.002208 76:0.004415 79:0.002208 81:0.004415 83:0.002208 87:0.002208 89:0.006623 90:0.002208 92:0.002208 94:0.002208 95:0.002208 97:0.004415 98:0.002208 103:0.002208 104:0.002208 105:0.002208 106:0.004415 107:0.002208 109:0.013245 110:0.006623 112:0.006623 113:0.006623 114:0.002208 115:0.004415 116:0.00883 117:0.002208 118:0.00883 119:0.004415 120:0.004415 121:0.002208 128:0.002208 133:0.002208 134:0.002208 135:0.002208 137:0.004415 141:0.002208 142:0.002208 145:0.002208 146:0.004415 148:0.002208 149:0.006623 150:0.004415 152:0.002208 153:0.002208 155:0.002208 156:0.002208 157:0.002208 158:0.004415 159:0.002208 160:0.006623 161:0.006623 163:0.013245 164:0.004415 165:0.002208 166:0.004415 168:0.004415 169:0.004415 170:0.004415 172:0.006623 173:0.004415 175:0.002208 176:0.011038 177:0.004415 178:0.006623 181:0.00883 183:0.004415 184:0.004415 185:0.002208 186:0.004415 188:0.004415 189:0.004415 190:0.011038 192:0.006623 193:0.006623 194:0.002208 195:0.004415 196:0.002208 197:0.006623 198:0.004415 199:0.002208 200:0.004415 205:0.002208 206:0.002208 217:0.002208 223:0.004415 225:0.004415 226:0.011038 229:0.006623 230:0.006623 232:0.004415 233:0.013245 234:0.00883 235:0.002208 236:0.002208 237:0.004415 238:0.006623 240:0.006623 243:0.00883 244:0.004415 246:0.002208 247:0.002208 249:0.004415 250:0.004415 251:0.002208 252:0.011038 253:0.002208 254:0.002208 256:0.011038 257:0.00883 258:0.004415 260:0.002208 261:0.002208 263:0.002208 264:0.002208 265:0.002208 266:0.006623 267:0.002208 268:0.002208 269:0.004415 270:0.002208 272:0.004415 274:0.002208 276:0.004415 277:0.002208 278:0.002208 281:0.002208 283:0.002208 286:0.002208 288:0.002208 290:0.004415 292:0.004415 295:0.002208 298:0.002208 300:0.004415 301:0.004415 303:0.002208 304:0.006623 305:0.002208 306:0.00883 307:0.002208 308:0.004415 309:0.002208 310:0.004415 312:0.004415 313:0.002208 314:0.002208 316:0.004415 317:0.006623 318:0.004415 321:0.002208 322:0.002208 323:0.006623 324:0.002208 325:0.002208 326:0.006623 328:0.004415 329:0.002208 330:0.011038 332:0.002208 333:0.006623 334:0.002208 337:0.002208 338:0.006623 340:0.015453 341:0.006623 343:0.002208 345:0.002208 348:0.00883 349:0.006623 350:0.006623 352:0.004415 353:0.013245 354:0.004415 356:0.002208 357:0.004415 358:0.002208 360:0.002208 364:0.002208 366:0.002208 370:0.002208 373:0.004415 377:0.002208 381:0.004415 383:0.002208 386:0.002208 387:0.002208 388:0.006623 389:0.006623 390:0.002208 391:0.002208 392:0.006623 395:0.002208 396:0.004415 397:0.00883 398:0.004415 400:0.002208 
8192 1:0.005941 2:0.00396 3:0.00396 4:0.00198 5:0.00396 6:0.005941 8:0.009901 9:0.00396 10:0.013861 11:0.00198 12:0.007921 13:0.00198 15:0.00396 16:0.00396 18:0.00198 19:0.00198 20:0.00396 21:0.00198 25:0.00396 30:0.00396 32:0.00198 34:0.00198 35:0.00198 36:0.00198 38:0.00198 41:0.00198 42:0.00198 43:0.00198 44:0.005941 46:0.007921 47:0.005941 48:0.00396 49:0.00396 50:0.00198 51:0.00198 54:0.00396 55:0.00198 56:0.00396 58:0.00198 60:0.00198 61:0.00396 63:0.00198 66:0.00396 67:0.005941 68:0.00198 69:0.00198 70:0.00396 71:0.00198 72:0.00198 75:0.00198 77:0.005941 78:0.00396 80:0.00198 83:0.007921 84:0.00396 85:0.007921 86:0.00198 88:0.00396 89:0.007921 91:0.00198 92:0.00198 95:0.00198 96:0.00198 97:0.00396 98:0.00198 100:0.00198 101:0.00198 103:0.00396 104:0.00198 106:0.009901 108:0.009901 109:0.009901 110:0.005941 111:0.00396 112:0.013861 113:0.00396 114:0.00198 115:0.00198 116:0.005941 117:0.005941 118:0.00198 120:0.007921 121:0.00198 122:0.005941 125:0.00198 126:0.00396 130:0.00198 134:0.00396 135:0.00198 138:0.00198 141:0.009901 143:0.00198 144:0.00198 146:0.005941 147:0.00198 148:0.00198 149:0.009901 150:0.00198 151:0.00198 152:0.005941 153:0.00198 154:0.00396 155:0.00198 156:0.00396 157:0.011881 158:0.00198 159:0.00198 160:0.00198 161:0.00396 163:0.011881 164:0.007921 165:0.00396 166:0.005941 168:0.00396 170:0.00198 171:0.00198 172:0.00198 173:0.009901 175:0.00198 176:0.007921 178:0.005941 181:0.00396 183:0.00396 184:0.00198 185:0.00396 186:0.00396 188:0.007921 189:0.005941 190:0.00396 191:0.00198 192:0.013861 193:0.00396 195:0.00198 196:0.005941 197:0.00396 198:0.005941 200:0.00396 201:0.00198 205:0.00198 209:0.00198 210:0.005941 212:0.00198 213:0.00198 215:0.00198 218:0.00198 220:0.00198 221:0.007921 222:0.00198 223:0.00396 224:0.00198 225:0.00396 226:0.00198 228:0.00198 229:0.00396 230:0.005941 232:0.005941 233:0.007921 235:0.007921 236:0.005941 237:0.00396 238:0.007921 240:0.00198 242:0.00198 245:0.00198 246:0.013861 247:0.00198 248:0.005941 250:0.00396 254:0.00396 258:0.00396 260:0.00396 261:0.00198 263:0.00198 264:0.00198 266:0.00198 267:0.00198 268:0.00198 269:0.00198 270:0.00396 273:0.00198 275:0.00198 278:0.007921 281:0.005941 282:0.00198 285:0.00198 286:0.00396 287:0.00396 288:0.005941 289:0.00198 290:0.00396 292:0.00396 293:0.00198 294:0.00198 295:0.00198 296:0.00198 298:0.00198 301:0.007921 304:0.005941 305:0.00198 306:0.00396 307:0.00198 309:0.00396 310:0.00198 312:0.007921 314:0.00198 315:0.00396 318:0.00198 319:0.00396 320:0.00198 321:0.005941 323:0.00198 324:0.00198 325:0.00198 326:0.005941 328:0.00396 330:0.00198 331:0.00198 333:0.00198 336:0.00396 337:0.00198 340:0.005941 341:0.009901 343:0.00396 344:0.00396 345:0.00396 346:0.00198 348:0.005941 349:0.005941 350:0.00198 352:0.00396 353:0.00198 354:0.00396 355:0.00198 356:0.00198 358:0.00396 359:0.00198 360:0.00396 363:0.00198 365:0.00198 366:0.00198 369:0.00198 370:0.00198 377:0.00198 381:0.00396 382:0.00198 385:0.00396 386:0.005941 387:0.00198 388:0.00396 389:0.00396 390:0.005941 392:0.00198 393:0.00198 394:0.00198 395:0.00198 398:0.00198 399:0.00198 400:0.00396 
8192 1:0.006579 3:0.013158 4:0.013158 6:0.006579 8:0.013158 9:0.013158 10:0.013158 11:0.006579 14:0.013158 16:0.006579 17:0.006579 41:0.006579 48:0.013158 50:0.006579 55:0.006579 58:0.006579 61:0.026316 63:0.006579 65:0.006579 66:0.006579 69:0.006579 70:0.019737 71:0.006579 77:0.006579 79:0.006579 83:0.006579 86:0.006579 88:0.006579 89:0.013158 95:0.006579 101:0.019737 104:0.006579 107:0.013158 112:0.006579 114:0.006579 118:0.006579 120:0.006579 121:0.006579 124:0.006579 126:0.013158 127:0.006579 129:0.006579 130:0.006579 133:0.013158 136:0.006579 138:0.013158 141:0.006579 147:0.006579 148:0.006579 149:0.006579 150:0.006579 153:0.006579 155:0.006579 156:0.006579 159:0.006579 161:0.013158 163:0.006579 164:0.006579 165:0.006579 166:0.006579 167:0.019737 168:0.006579 169:0.019737 173:0.006579 176:0.006579 177:0.006579 178:0.006579 180:0.013158 181:0.006579 184:0.019737 185:0.013158 186:0.013158 187:0.013158 189:0.026316 196:0.006579 197:0.006579 198:0.006579 209:0.006579 212:0.006579 225:0.006579 229:0.006579 244:0.006579 246:0.006579 248:0.006579 250:0.006579 263:0.006579 266:0.013158 270:0.006579 276:0.006579 285:0.006579 287:0.006579 289:0.006579 290:0.006579 304:0.019737 307:0.013158 315:0.006579 321:0.006579 324:0.006579 329:0.006579 330:0.006579 338:0.006579 341:0.006579 344:0.006579 350:0.026316 357:0.006579 359:0.006579 361:0.006579 368:0.006579 374:0.006579 389:0.006579 390:0.006579 394:0.006579 
7329.987737293793 1:0.003914 4:0.003914 5:0.001957 6:0.005871 7:0.001957 9:0.005871 10:0.003914 12:0.001957 13:0.001957 15:0.003914 16:0.001957 17:0.003914 18:0.001957 19:0.003914 20:0.007828 21:0.001957 25:0.001957 27:0.001957 36:0.001957 37:0.001957 41:0.003914 42:0.001957 43:0.003914 44:0.001957 45:0.001957 46:0.007828 47:0.001957 48:0.005871 49:0.005871 50:0.005871 52:0.003914 53:0.001957 55:0.001957 57:0.003914 58:0.007828 59:0.001957 60:0.007828 61:0.003914 63:0.003914 64:0.003914 65:0.001957 66:0.005871 68:0.001957 69:0.003914 71:0.001957 72:0.003914 73:0.005871 74:0.001957 75:0.007828 76:0.005871 77:0.001957 78:0.001957 79:0.001957 81:0.007828 82:0.001957 83:0.003914 84:0.001957 85:0.001957 86:0.003914 87:0.001957 89:0.001957 90:0.005871 92:0.003914 93:0.001957 96:0.007828 97:0.005871 101:0.005871 103:0.005871 104:0.001957 105:0.003914 106:0.003914 107:0.001957 108:0.009785 109:0.003914 110:0.007828 111:0.001957 112:0.005871 113:0.003914 115:0.003914 116:0.007828 117:0.005871 118:0.003914 119:0.001957 120:0.001957 121:0.001957 125:0.001957 128:0.001957 129:0.001957 131:0.001957 132:0.003914 133:0.001957 139:0.001957 140:0.001957 141:0.001957 143:0.003914 144:0.003914 145:0.001957 146:0.007828 149:0.001957 150:0.007828 151:0.001957 152:0.005871 153:0.001957 154:0.001957 156:0.003914 157:0.001957 158:0.003914 160:0.003914 163:0.003914 164:0.013699 166:0.003914 167:0.001957 168:0.001957 169:0.003914 170:0.001957 172:0.005871 173:0.003914 174:0.001957 175:0.003914 176:0.003914 177:0.001957 178:0.003914 179:0.001957 180:0.005871 181:0.007828 183:0.011742 184:0.005871 186:0.005871 188:0.001957 189:0.007828 190:0.011742 191:0.001957 192:0.005871 193:0.005871 196:0.001957 197:0.003914 198:0.001957 200:0.001957 203:0.001957 204:0.001957 206:0.005871 208:0.001957 209:0.003914 210:0.003914 215:0.001957 220:0.003914 222:0.001957 223:0.003914 224:0.001957 225:0.003914 226:0.007828 227:0.001957 228:0.003914 229:0.003914 230:0.005871 231:0.001957 232:0.003914 233:0.005871 236:0.005871 237:0.003914 238:0.001957 239:0.003914 240:0.003914 241:0.001957 243:0.003914 244:0.003914 245:0.003914 246:0.003914 248:0.003914 249:0.001957 250:0.001957 251:0.003914 252:0.001957 253:0.003914 254:0.005871 255:0.001957 256:0.005871 257:0.001957 258:0.003914 259:0.001957 260:0.005871 261:0.003914 264:0.001957 266:0.001957 268:0.001957 269:0.001957 271:0.001957 272:0.001957 275:0.003914 277:0.001957 282:0.001957 283:0.003914 284:0.001957 285:0.003914 286:0.001957 287:0.001957 288:0.005871 290:0.005871 292:0.003914 296:0.003914 298:0.003914 300:0.003914 301:0.005871 303:0.003914 304:0.001957 305:0.003914 307:0.001957 308:0.005871 309:0.003914 310:0.005871 311:0.001957 312:0.005871 313:0.007828 314:0.003914 315:0.001957 319:0.003914 320:0.005871 321:0.003914 323:0.003914 324:0.003914 325:0.005871 326:0.003914 328:0.001957 329:0.003914 330:0.001957 333:0.003914 335:0.003914 336:0.007828 340:0.001957 342:0.001957 343:0.005871 344:0.003914 345:0.001957 346:0.001957 349:0.001957 350:0.001957 351:0.001957 352:0.001957 353:0.003914 354:0.003914 355:0.003914 357:0.001957 358:0.001957 360:0.001957 363:0.005871 365:0.005871 368:0.001957 370:0.003914 372:0.001957 373:0.001957 376:0.001957 381:0.001957 385:0.003914 386:0.009785 387:0.001957 388:0.003914 389:0.005871 391:0.003914 392:0.003914 393:0.005871 394:0.001957 395:0.003914 396:0.001957 397:0.005871 398:0.003914 400:0.003914 
8192 1:0.014157 3:0.011583 4:0.009009 5:0.001287 6:0.010296 7:0.005148 8:0.002574 9:0.002574 10:0.007722 11:0.002574 12:0.002574 13:0.002574 14:0.002574 15:0.009009 16:0.002574 17:0.006435 18:0.006435 19:0.003861 20:0.003861 21:0.001287 26:0.002574 27:0.001287 30:0.001287 33:0.001287 34:0.001287 37:0.001287 41:0.002574 42:0.001287 43:0.001287 44:0.002574 45:0.006435 46:0.005148 47:0.001287 48:0.003861 49:0.003861 50:0.006435 51:0.001287 53:0.007722 55:0.003861 56:0.001287 57:0.001287 58:0.009009 60:0.005148 61:0.003861 63:0.003861 64:0.001287 65:0.006435 66:0.009009 68:0.003861 69:0.006435 70:0.002574 71:0.001287 72:0.003861 73:0.003861 74:0.003861 75:0.003861 76:0.005148 77:0.002574 78:0.002574 79:0.001287 81:0.003861 83:0.002574 84:0.002574 86:0.003861 88:0.001287 89:0.002574 90:0.002574 92:0.003861 93:0.001287 94:0.002574 95:0.001287 97:0.001287 98:0.005148 99:0.002574 100:0.001287 101:0.016731 102:0.001287 103:0.006435 104:0.005148 105:0.003861 106:0.014157 107:0.001287 108:0.003861 109:0.002574 110:0.006435 111:0.002574 112:0.003861 113:0.002574 114:0.003861 115:0.005148 116:0.002574 117:0.010296 118:0.003861 119:0.006435 120:0.001287 121:0.001287 123:0.001287 124:0.001287 126:0.002574 127:0.002574 132:0.001287 133:0.002574 134:0.002574 136:0.001287 137:0.001287 138:0.002574 139:0.002574 140:0.001287 141:0.001287 142:0.001287 144:0.003861 145:0.001287 146:0.003861 148:0.001287 149:0.001287 150:0.003861 151:0.001287 152:0.002574 153:0.002574 154:0.002574 155:0.001287 156:0.002574 157:0.001287 158:0.003861 160:0.003861 161:0.005148 163:0.002574 164:0.001287 166:0.005148 169:0.001287 170:0.003861 171:0.001287 172:0.002574 174:0.001287 175:0.001287 176:0.002574 177:0.002574 178:0.002574 180:0.005148 181:0.01287 183:0.006435 184:0.005148 185:0.002574 186:0.006435 187:0.005148 188:0.002574 189:0.003861 190:0.001287 191:0.003861 192:0.003861 193:0.005148 195:0.002574 196:0.003861 197:0.001287 198:0.003861 200:0.003861 201:0.001287 204:0.001287 206:0.003861 207:0.001287 208:0.001287 209:0.003861 210:0.006435 213:0.003861 215:0.001287 216:0.001287 218:0.002574 221:0.001287 222:0.003861 223:0.002574 224:0.001287 225:0.001287 226:0.007722 228:0.001287 230:0.001287 233:0.006435 235:0.002574 236:0.001287 237:0.001287 238:0.002574 241:0.009009 242:0.002574 243:0.002574 245:0.001287 246:0.006435 247:0.001287 248:0.001287 249:0.003861 250:0.006435 251:0.002574 254:0.001287 255:0.001287 256:0.005148 257:0.005148 258:0.003861 259:0.001287 261:0.002574 263:0.002574 264:0.001287 265:0.001287 266:0.001287 268:0.006435 270:0.002574 274:0.001287 275:0.001287 277:0.003861 278:0.001287 279:0.001287 281:0.003861 283:0.002574 284:0.005148 286:0.003861 287:0.001287 288:0.001287 290:0.005148 291:0.002574 292:0.002574 293:0.001287 295:0.002574 296:0.003861 297:0.002574 298:0.007722 300:0.001287 303:0.006435 304:0.005148 305:0.003861 306:0.005148 307:0.002574 308:0.003861 309:0.002574 310:0.002574 311:0.001287 312:0.002574 313:0.005148 314:0.001287 315:0.001287 316:0.002574 317:0.002574 318:0.001287 320:0.005148 321:0.009009 323:0.002574 324:0.003861 325:0.002574 326:0.003861 328:0.001287 330:0.005148 331:0.001287 332:0.001287 333:0.003861 335:0.003861 336:0.006435 337:0.002574 338:0.002574 339:0.002574 340:0.001287 341:0.009009 343:0.002574 344:0.006435 345:0.005148 346:0.003861 348:0.002574 349:0.002574 350:0.006435 351:0.003861 352:0.003861 354:0.002574 355:0.005148 356:0.002574 357:0.005148 358:0.007722 360:0.001287 361:0.003861 363:0.002574 364:0.001287 366:0.001287 368:0.001287 369:0.001287 370:0.001287 371:0.002574 373:0.001287 376:0.002574 377:0.001287 378:0.001287 380:0.001287 381:0.005148 383:0.003861 384:0.006435 385:0.001287 386:0.003861 387:0.001287 390:0.001287 393:0.003861 396:0.007722 399:0.001287 
8192 1:0.021622 3:0.005405 5:0.005405 6:0.010811 7:0.005405 9:0.005405 10:0.005405 12:0.005405 13:0.005405 14:0.005405 15:0.010811 16:0.010811 18:0.010811 36:0.010811 41:0.021622 42:0.005405 44:0.005405 46:0.005405 50:0.005405 55:0.005405 56:0.010811 58:0.021622 63:0.005405 66:0.005405 69:0.005405 81:0.010811 83:0.005405 88:0.005405 90:0.005405 93:0.010811 101:0.010811 103:0.016216 105:0.005405 106:0.005405 108:0.005405 112:0.005405 113:0.016216 116:0.016216 126:0.005405 129:0.005405 130:0.005405 143:0.005405 144:0.005405 146:0.021622 150:0.016216 156:0.005405 157:0.005405 161:0.021622 170:0.010811 176:0.005405 181:0.005405 182:0.005405 183:0.010811 186:0.010811 187:0.005405 190:0.016216 193:0.005405 194:0.010811 195:0.005405 196:0.005405 197:0.010811 198:0.010811 228:0.005405 235:0.005405 236:0.005405 238:0.010811 241:0.010811 243:0.005405 244:0.005405 246:0.005405 248:0.005405 250:0.005405 255:0.005405 256:0.005405 257:0.005405 259:0.005405 268:0.005405 270:0.005405 273:0.005405 275:0.010811 278:0.005405 280:0.005405 284:0.005405 288:0.010811 290:0.005405 293:0.005405 296:0.005405 298:0.005405 300:0.010811 304:0.005405 305:0.016216 306:0.005405 307:0.005405 308:0.005405 309:0.010811 310:0.005405 312:0.010811 314:0.010811 316:0.010811 318:0.016216 320:0.005405 323:0.005405 328:0.005405 330:0.005405 334:0.005405 336:0.005405 337:0.005405 338:0.005405 343:0.016216 345:0.005405 348:0.010811 349:0.005405 350:0.005405 353:0.010811 355:0.005405 356:0.010811 357:0.016216 358:0.016216 372:0.005405 383:0.005405 385:0.005405 386:0.005405 390:0.005405 
8192 1:0.004717 2:0.001572 3:0.003145 4:0.006289 5:0.004717 6:0.006289 8:0.001572 10:0.003145 12:0.001572 13:0.003145 15:0.003145 16:0.007862 17:0.003145 18:0.001572 20:0.001572 25:0.001572 27:0.001572 29:0.001572 41:0.003145 43:0.001572 44:0.011006 45:0.003145 46:0.001572 47:0.003145 48:0.001572 49:0.001572 50:0.007862 51:0.003145 53:0.011006 55:0.001572 56:0.003145 57:0.003145 58:0.006289 59:0.004717 60:0.003145 61:0.006289 63:0.001572 64:0.014151 65:0.007862 66:0.001572 67:0.001572 68:0.009434 69:0.012579 70:0.015723 72:0.004717 73:0.004717 75:0.001572 77:0.001572 79:0.001572 80:0.003145 81:0.003145 83:0.003145 84:0.001572 85:0.006289 86:0.003145 88:0.003145 89:0.009434 90:0.009434 93:0.001572 95:0.001572 96:0.001572 97:0.001572 98:0.009434 100:0.001572 101:0.004717 103:0.001572 104:0.003145 105:0.004717 106:0.001572 107:0.001572 108:0.004717 109:0.011006 110:0.001572 112:0.001572 114:0.003145 115:0.004717 116:0.004717 117:0.001572 118:0.003145 120:0.003145 121:0.001572 123:0.001572 124:0.001572 128:0.001572 129:0.001572 130:0.001572 133:0.003145 139:0.001572 140:0.003145 141:0.006289 143:0.003145 146:0.003145 148:0.004717 149:0.011006 150:0.007862 152:0.003145 153:0.006289 155:0.003145 157:0.004717 158:0.003145 160:0.004717 161:0.006289 163:0.003145 164:0.014151 165:0.006289 166:0.004717 168:0.003145 169:0.009434 170:0.007862 171:0.003145 172:0.004717 173:0.001572 174:0.001572 175:0.007862 176:0.003145 177:0.001572 178:0.009434 179:0.003145 180:0.003145 181:0.007862 183:0.014151 184:0.006289 185:0.001572 186:0.009434 187:0.001572 188:0.009434 189:0.004717 190:0.009434 192:0.004717 193:0.014151 195:0.004717 196:0.003145 197:0.001572 198:0.004717 199:0.003145 200:0.003145 204:0.003145 206:0.001572 208:0.001572 209:0.001572 210:0.003145 211:0.001572 212:0.001572 216:0.001572 220:0.001572 223:0.003145 225:0.001572 226:0.004717 227:0.001572 228:0.001572 229:0.001572 230:0.006289 233:0.001572 234:0.003145 235:0.003145 236:0.001572 237:0.001572 238:0.004717 241:0.001572 243:0.009434 244:0.001572 245:0.007862 246:0.004717 247:0.001572 249:0.004717 250:0.004717 251:0.003145 252:0.007862 253:0.006289 254:0.003145 255:0.006289 256:0.001572 257:0.003145 258:0.001572 260:0.006289 264:0.003145 269:0.004717 273:0.006289 276:0.001572 281:0.001572 282:0.001572 283:0.001572 284:0.009434 285:0.001572 286:0.001572 287:0.003145 288:0.003145 289:0.003145 290:0.003145 291:0.001572 296:0.001572 297:0.003145 298:0.004717 300:0.003145 303:0.006289 305:0.001572 306:0.003145 308:0.001572 309:0.006289 310:0.003145 313:0.004717 314:0.001572 315:0.003145 316:0.001572 318:0.004717 319:0.001572 320:0.001572 321:0.003145 323:0.004717 325:0.003145 326:0.004717 329:0.001572 330:0.001572 333:0.007862 335:0.001572 337:0.003145 339:0.001572 340:0.001572 343:0.003145 344:0.006289 346:0.001572 348:0.007862 349:0.007862 350:0.012579 351:0.003145 352:0.001572 353:0.003145 354:0.001572 355:0.001572 356:0.001572 357:0.003145 358:0.004717 359:0.001572 360:0.001572 363:0.004717 364:0.003145 365:0.001572 368:0.006289 372:0.001572 376:0.001572 380:0.001572 381:0.003145 382:0.001572 383:0.004717 384:0.004717 385:0.003145 386:0.003145 387:0.001572 390:0.004717 392:0.003145 394:0.001572 396:0.004717 397:0.001572 398:0.004717 399:0.001572 400:0.001572 
8192 1:0.013652 3:0.001706 4:0.005119 5:0.001706 6:0.013652 8:0.005119 9:0.006826 10:0.006826 11:0.001706 12:0.005119 13:0.001706 14:0.003413 15:0.010239 16:0.005119 17:0.005119 18:0.006826 19:0.001706 20:0.001706 26:0.001706 27:0.001706 36:0.001706 41:0.005119 43:0.001706 44:0.003413 45:0.001706 46:0.003413 49:0.001706 50:0.010239 52:0.003413 53:0.006826 54:0.006826 56:0.003413 57:0.001706 58:0.005119 60:0.006826 61:0.001706 63:0.003413 64:0.001706 65:0.001706 66:0.003413 68:0.001706 69:0.003413 70:0.003413 72:0.005119 76:0.001706 77:0.005119 78:0.001706 80:0.005119 81:0.008532 83:0.005119 84:0.001706 85:0.003413 86:0.006826 87:0.001706 89:0.001706 90:0.003413 91:0.001706 92:0.001706 95:0.001706 97:0.003413 100:0.003413 101:0.006826 103:0.003413 104:0.001706 105:0.003413 106:0.008532 107:0.003413 108:0.003413 109:0.006826 110:0.008532 111:0.003413 113:0.001706 114:0.010239 116:0.006826 117:0.008532 118:0.006826 119:0.001706 120:0.001706 121:0.001706 124:0.001706 126:0.001706 128:0.001706 132:0.001706 133:0.001706 136:0.001706 138:0.001706 141:0.001706 143:0.005119 144:0.003413 145:0.003413 146:0.001706 148:0.003413 149:0.003413 150:0.006826 151:0.003413 152:0.006826 153:0.003413 156:0.001706 161:0.006826 164:0.001706 165:0.001706 166:0.003413 167:0.001706 168:0.003413 169:0.001706 170:0.005119 174:0.001706 176:0.003413 177:0.001706 178:0.013652 181:0.005119 182:0.001706 183:0.010239 184:0.003413 185:0.003413 186:0.006826 188:0.006826 189:0.005119 190:0.011945 191:0.001706 192:0.003413 193:0.006826 194:0.001706 195:0.001706 196:0.005119 197:0.010239 198:0.003413 199:0.003413 201:0.001706 203:0.001706 204:0.001706 205:0.001706 208:0.001706 209:0.005119 211:0.001706 212:0.003413 214:0.001706 216:0.001706 217:0.001706 218:0.001706 221:0.005119 223:0.003413 224:0.001706 225:0.008532 226:0.005119 228:0.001706 229:0.001706 230:0.005119 231:0.003413 232:0.005119 233:0.001706 234:0.001706 235:0.001706 237:0.003413 238:0.003413 239:0.005119 240:0.005119 241:0.001706 243:0.001706 245:0.001706 246:0.001706 248:0.001706 249:0.003413 250:0.003413 252:0.005119 253:0.001706 254:0.003413 255:0.001706 256:0.001706 257:0.003413 258:0.003413 259:0.001706 260:0.001706 261:0.008532 263:0.003413 265:0.001706 266:0.005119 268:0.005119 270:0.003413 271:0.001706 272:0.005119 273:0.001706 274:0.003413 275:0.001706 276:0.003413 277:0.003413 278:0.003413 279:0.003413 280:0.001706 281:0.003413 283:0.005119 284:0.001706 286:0.005119 292:0.001706 293:0.003413 296:0.001706 297:0.003413 298:0.003413 301:0.006826 302:0.001706 303:0.005119 305:0.001706 306:0.005119 307:0.001706 308:0.001706 309:0.003413 310:0.001706 311:0.003413 312:0.003413 313:0.003413 314:0.003413 315:0.003413 316:0.010239 317:0.001706 318:0.003413 319:0.003413 321:0.006826 322:0.001706 324:0.005119 325:0.001706 326:0.003413 328:0.001706 329:0.001706 330:0.005119 332:0.005119 333:0.001706 334:0.005119 335:0.003413 336:0.001706 337:0.006826 338:0.011945 340:0.001706 341:0.008532 343:0.005119 345:0.005119 346:0.005119 347:0.001706 348:0.003413 350:0.008532 351:0.001706 352:0.003413 353:0.003413 354:0.010239 355:0.001706 356:0.008532 357:0.003413 358:0.001706 360:0.001706 361:0.001706 363:0.003413 364:0.001706 367:0.001706 370:0.003413 372:0.001706 374:0.001706 376:0.003413 377:0.001706 381:0.003413 383:0.001706 384:0.003413 385:0.001706 386:0.005119 388:0.001706 390:0.005119 391:0.001706 392:0.001706 394:0.001706 395:0.001706 396:0.001706 398:0.001706 
2422.077991935894 1:0.006757 3:0.013514 5:0.006757 6:0.006757 8:0.006757 10:0.027027 13:0.006757 14:0.006757 16:0.02027 17:0.02027 18:0.006757 19:0.006757 20:0.006757 30:0.006757 38:0.006757 41:0.006757 43:0.02027 46:0.013514 53:0.006757 56:0.006757 57:0.013514 58:0.013514 64:0.006757 66:0.027027 73:0.006757 77:0.006757 83:0.006757 94:0.006757 96:0.006757 97:0.006757 101:0.013514 104:0.006757 105:0.006757 106:0.006757 113:0.013514 114:0.013514 116:0.006757 117:0.027027 118:0.02027 119:0.006757 141:0.006757 144:0.006757 146:0.006757 182:0.013514 183:0.027027 186:0.006757 192:0.006757 195:0.006757 197:0.006757 198:0.006757 226:0.013514 241:0.027027 244:0.013514 248:0.006757 250:0.006757 255:0.006757 260:0.006757 268:0.006757 270:0.006757 272:0.006757 278:0.006757 280:0.006757 281:0.006757 294:0.006757 300:0.006757 301:0.02027 304:0.013514 313:0.013514 317:0.013514 321:0.02027 323:0.013514 324:0.006757 325:0.013514 326:0.006757 330:0.013514 333:0.006757 336:0.02027 337:0.006757 338:0.013514 340:0.013514 341:0.027027 346:0.013514 350:0.013514 353:0.006757 355:0.006757 357:0.013514 358:0.006757 377:0.006757 378:0.006757 386:0.02027 393:0.006757 397:0.013514 
8192 1:0.006944 3:0.006944 7:0.003472 8:0.003472 9:0.003472 12:0.003472 13:0.003472 14:0.006944 18:0.006944 19:0.003472 20:0.003472 25:0.003472 31:0.003472 39:0.003472 43:0.003472 44:0.003472 45:0.010417 48:0.010417 49:0.006944 52:0.003472 53:0.003472 54:0.003472 58:0.006944 59:0.003472 60:0.003472 61:0.003472 62:0.003472 64:0.003472 65:0.003472 66:0.006944 67:0.006944 69:0.003472 70:0.003472 75:0.003472 76:0.013889 77:0.003472 78:0.006944 80:0.006944 81:0.003472 82:0.003472 86:0.010417 89:0.013889 90:0.010417 91:0.003472 92:0.003472 94:0.003472 97:0.003472 100:0.006944 103:0.003472 104:0.010417 106:0.003472 107:0.003472 108:0.003472 110:0.006944 113:0.003472 115:0.003472 117:0.006944 118:0.003472 121:0.003472 123:0.003472 124:0.003472 125:0.003472 128:0.010417 130:0.003472 133:0.003472 140:0.003472 144:0.010417 145:0.006944 146:0.006944 149:0.006944 150:0.006944 151:0.003472 153:0.003472 154:0.003472 156:0.003472 157:0.006944 158:0.003472 161:0.006944 163:0.003472 164:0.006944 165:0.003472 166:0.003472 167:0.003472 168:0.010417 169:0.003472 170:0.010417 171:0.003472 172:0.003472 173:0.006944 174:0.003472 175:0.006944 177:0.003472 178:0.003472 179:0.003472 180:0.003472 183:0.003472 184:0.003472 185:0.003472 186:0.006944 188:0.003472 189:0.006944 190:0.003472 192:0.010417 193:0.003472 194:0.003472 195:0.003472 196:0.006944 197:0.006944 198:0.003472 203:0.003472 209:0.003472 211:0.003472 213:0.003472 215:0.003472 216:0.003472 217:0.003472 218:0.006944 223:0.006944 228:0.003472 229:0.010417 232:0.003472 233:0.003472 235:0.003472 238:0.006944 240:0.003472 241:0.003472 244:0.010417 245:0.006944 250:0.006944 252:0.003472 257:0.006944 258:0.006944 261:0.003472 263:0.006944 264:0.003472 267:0.003472 269:0.003472 270:0.003472 277:0.003472 278:0.006944 279:0.003472 281:0.003472 289:0.003472 291:0.006944 292:0.003472 293:0.003472 295:0.003472 296:0.003472 299:0.003472 300:0.003472 301:0.006944 303:0.003472 305:0.003472 307:0.003472 309:0.003472 311:0.003472 313:0.003472 315:0.003472 318:0.003472 319:0.003472 328:0.003472 329:0.010417 330:0.003472 331:0.003472 333:0.003472 334:0.006944 336:0.003472 338:0.006944 340:0.006944 341:0.006944 343:0.010417 344:0.003472 345:0.010417 346:0.010417 348:0.003472 349:0.003472 350:0.006944 355:0.003472 356:0.003472 357:0.003472 358:0.010417 359:0.003472 363:0.003472 364:0.003472 365:0.003472 367:0.003472 369:0.003472 374:0.006944 379:0.003472 380:0.003472 381:0.003472 382:0.003472 384:0.003472 385:0.003472 387:0.006944 388:0.010417 389:0.003472 390:0.003472 392:0.006944 400:0.006944 
8192 1:0.009174 2:0.002294 4:0.002294 6:0.011468 8:0.004587 9:0.004587 10:0.013761 12:0.006881 14:0.009174 16:0.004587 17:0.016055 18:0.004587 19:0.002294 20:0.004587 32:0.002294 36:0.004587 41:0.004587 43:0.002294 48:0.002294 49:0.002294 50:0.002294 52:0.002294 55:0.004587 56:0.002294 57:0.002294 58:0.004587 59:0.004587 60:0.004587 64:0.002294 65:0.002294 68:0.002294 70:0.006881 74:0.004587 75:0.002294 76:0.002294 77:0.004587 78:0.002294 80:0.002294 81:0.009174 85:0.006881 86:0.002294 89:0.002294 90:0.002294 92:0.009174 95:0.004587 96:0.002294 97:0.004587 98:0.002294 100:0.002294 101:0.011468 103:0.002294 105:0.002294 106:0.013761 110:0.006881 111:0.002294 112:0.011468 114:0.006881 115:0.002294 116:0.009174 117:0.009174 118:0.006881 124:0.004587 133:0.002294 140:0.002294 141:0.004587 143:0.006881 144:0.004587 145:0.004587 146:0.004587 151:0.002294 152:0.002294 153:0.002294 154:0.004587 155:0.002294 156:0.002294 157:0.004587 158:0.002294 160:0.002294 166:0.004587 167:0.002294 168:0.002294 170:0.002294 172:0.002294 173:0.002294 175:0.002294 177:0.004587 178:0.004587 180:0.002294 181:0.013761 183:0.004587 184:0.002294 185:0.002294 186:0.002294 188:0.009174 189:0.002294 190:0.004587 192:0.006881 193:0.004587 194:0.006881 195:0.002294 196:0.004587 197:0.009174 198:0.004587 200:0.004587 201:0.002294 206:0.002294 212:0.002294 216:0.004587 217:0.002294 221:0.002294 223:0.004587 224:0.004587 225:0.009174 226:0.011468 227:0.002294 228:0.006881 229:0.004587 232:0.004587 233:0.004587 234:0.002294 237:0.006881 238:0.002294 240:0.009174 241:0.009174 243:0.002294 246:0.004587 247:0.002294 250:0.004587 254:0.002294 256:0.004587 257:0.006881 260:0.002294 261:0.002294 263:0.006881 264:0.002294 265:0.002294 266:0.002294 268:0.004587 269:0.002294 270:0.011468 272:0.002294 273:0.006881 274:0.002294 275:0.002294 276:0.002294 277:0.004587 278:0.002294 280:0.004587 285:0.006881 288:0.006881 289:0.002294 290:0.002294 291:0.004587 292:0.002294 294:0.002294 295:0.004587 297:0.004587 300:0.004587 301:0.006881 304:0.002294 305:0.002294 306:0.006881 308:0.006881 310:0.002294 313:0.002294 314:0.006881 315:0.004587 316:0.002294 317:0.002294 318:0.004587 320:0.002294 321:0.013761 322:0.004587 323:0.004587 324:0.002294 325:0.002294 326:0.006881 328:0.002294 329:0.004587 330:0.006881 331:0.002294 332:0.004587 333:0.009174 334:0.006881 335:0.004587 336:0.002294 337:0.006881 338:0.006881 340:0.009174 341:0.002294 343:0.002294 344:0.004587 346:0.004587 349:0.002294 350:0.009174 352:0.004587 353:0.002294 354:0.004587 356:0.002294 357:0.006881 358:0.002294 359:0.002294 360:0.006881 365:0.002294 372:0.002294 378:0.004587 381:0.004587 383:0.002294 385:0.004587 386:0.006881 387:0.002294 388:0.002294 389:0.002294 390:0.009174 392:0.011468 393:0.002294 394:0.002294 395:0.004587 396:0.002294 397:0.004587 398:0.002294 400:0.002294 
7821.923607953164 1:0.009934 2:0.003311 3:0.003311 4:0.003311 6:0.003311 7:0.003311 8:0.003311 10:0.003311 12:0.003311 14:0.003311 16:0.003311 17:0.003311 28:0.003311 30:0.006623 31:0.003311 37:0.003311 43:0.003311 44:0.006623 45:0.003311 46:0.006623 49:0.003311 52:0.006623 53:0.009934 57:0.003311 58:0.006623 59:0.006623 61:0.003311 64:0.003311 66:0.003311 68:0.003311 70:0.003311 72:0.003311 73:0.006623 76:0.003311 77:0.006623 78:0.003311 81:0.003311 84:0.003311 86:0.003311 87:0.003311 88:0.006623 89:0.006623 92:0.003311 93:0.003311 94:0.003311 95:0.003311 96:0.003311 97:0.003311 98:0.006623 99:0.003311 105:0.003311 106:0.003311 107:0.003311 109:0.006623 110:0.009934 112:0.009934 114:0.003311 116:0.006623 117:0.003311 118:0.003311 120:0.006623 123:0.003311 128:0.003311 134:0.006623 138:0.006623 140:0.006623 142:0.003311 143:0.006623 144:0.003311 145:0.003311 148:0.003311 149:0.009934 150:0.009934 151:0.003311 152:0.006623 154:0.003311 156:0.003311 157:0.006623 163:0.003311 165:0.003311 166:0.006623 168:0.003311 169:0.003311 173:0.006623 175:0.003311 176:0.016556 177:0.006623 178:0.006623 180:0.009934 181:0.003311 183:0.003311 184:0.003311 185:0.009934 186:0.009934 187:0.003311 189:0.003311 190:0.009934 192:0.006623 193:0.006623 194:0.006623 195:0.003311 196:0.003311 198:0.009934 200:0.003311 202:0.003311 205:0.003311 209:0.003311 212:0.006623 214:0.003311 221:0.003311 222:0.003311 223:0.006623 224:0.006623 226:0.006623 227:0.006623 228:0.003311 229:0.009934 230:0.003311 231:0.006623 232:0.009934 234:0.003311 238:0.006623 239:0.003311 240:0.006623 242:0.003311 243:0.003311 246:0.003311 249:0.006623 250:0.006623 252:0.003311 255:0.003311 256:0.003311 258:0.003311 265:0.013245 268:0.003311 269:0.006623 270:0.006623 271:0.003311 272:0.009934 274:0.003311 276:0.003311 280:0.003311 284:0.003311 285:0.003311 290:0.006623 296:0.003311 299:0.003311 300:0.006623 301:0.006623 303:0.006623 305:0.003311 306:0.003311 308:0.003311 309:0.006623 310:0.003311 312:0.013245 313:0.003311 314:0.003311 315:0.003311 316:0.003311 317:0.003311 320:0.003311 321:0.006623 323:0.003311 325:0.003311 326:0.003311 328:0.006623 330:0.003311 332:0.006623 334:0.006623 336:0.006623 338:0.003311 339:0.003311 340:0.003311 341:0.003311 343:0.006623 344:0.006623 345:0.003311 346:0.003311 347:0.006623 348:0.013245 354:0.003311 355:0.006623 356:0.003311 357:0.006623 361:0.003311 365:0.003311 368:0.006623 369:0.003311 375:0.003311 376:0.003311 383:0.006623 386:0.003311 390:0.013245 391:0.003311 394:0.003311 397:0.009934 398:0.006623 399:0.003311 
8192 1:0.019108 4:0.006369 8:0.006369 12:0.012739 13:0.006369 14:0.006369 16:0.012739 17:0.012739 18:0.006369 22:0.006369 24:0.006369 26:0.006369 33:0.006369 36:0.006369 37:0.006369 42:0.006369 46:0.006369 49:0.006369 50:0.006369 56:0.006369 61:0.006369 62:0.006369 66:0.006369 67:0.006369 68:0.006369 72:0.006369 75:0.006369 76:0.006369 77:0.006369 78:0.012739 87:0.006369 100:0.006369 101:0.006369 103:0.006369 104:0.019108 109:0.006369 112:0.006369 114:0.012739 115:0.006369 116:0.012739 118:0.006369 120:0.006369 121:0.006369 122:0.006369 126:0.006369 130:0.012739 136:0.006369 143:0.006369 146:0.019108 152:0.006369 153:0.006369 156:0.006369 157:0.012739 161:0.006369 173:0.006369 177:0.006369 181:0.006369 182:0.006369 187:0.006369 190:0.006369 193:0.006369 194:0.006369 195:0.006369 201:0.006369 208:0.006369 221:0.006369 225:0.006369 226:0.006369 228:0.006369 232:0.006369 233:0.012739 235:0.012739 236:0.006369 238:0.012739 241:0.012739 244:0.012739 251:0.006369 257:0.006369 259:0.006369 261:0.006369 264:0.006369 267:0.006369 270:0.006369 276:0.006369 278:0.006369 283:0.006369 286:0.019108 288:0.006369 298:0.006369 300:0.006369 301:0.006369 302:0.006369 304:0.012739 306:0.012739 310:0.006369 311:0.006369 312:0.019108 316:0.006369 318:0.012739 325:0.006369 326:0.006369 327:0.006369 328:0.012739 329:0.006369 332:0.006369 334:0.012739 336:0.012739 340:0.006369 341:0.006369 343:0.012739 344:0.006369 348:0.012739 352:0.012739 355:0.006369 357:0.012739 358:0.006369 360:0.006369 375:0.006369 379:0.006369 387:0.006369 390:0.006369 397:0.012739 398:0.006369 
8192 1:0.00317 4:0.00317 6:0.006339 8:0.004754 9:0.009509 10:0.001585 14:0.00317 15:0.004754 16:0.00317 17:0.00317 18:0.006339 20:0.004754 32:0.001585 41:0.004754 43:0.004754 44:0.001585 45:0.004754 46:0.007924 47:0.001585 49:0.001585 50:0.001585 52:0.00317 53:0.00317 55:0.001585 58:0.00317 59:0.001585 60:0.004754 61:0.009509 63:0.004754 64:0.015848 65:0.009509 66:0.004754 67:0.001585 68:0.007924 69:0.017433 70:0.015848 72:0.007924 73:0.001585 74:0.001585 75:0.00317 76:0.004754 77:0.001585 78:0.004754 79:0.004754 80:0.006339 83:0.00317 84:0.009509 85:0.004754 86:0.007924 87:0.001585 88:0.007924 89:0.001585 93:0.006339 95:0.00317 96:0.001585 97:0.00317 98:0.006339 99:0.001585 100:0.001585 103:0.001585 104:0.00317 105:0.004754 106:0.007924 108:0.009509 109:0.004754 110:0.00317 112:0.001585 113:0.001585 114:0.001585 115:0.001585 116:0.001585 117:0.001585 118:0.011094 119:0.004754 120:0.001585 123:0.001585 124:0.004754 125:0.004754 126:0.001585 129:0.001585 130:0.001585 132:0.001585 134:0.001585 136:0.001585 140:0.00317 141:0.006339 143:0.001585 144:0.012678 145:0.00317 146:0.001585 147:0.00317 148:0.001585 149:0.007924 150:0.006339 152:0.004754 153:0.006339 154:0.001585 155:0.001585 157:0.00317 158:0.001585 159:0.001585 160:0.001585 161:0.009509 163:0.001585 164:0.009509 165:0.006339 166:0.00317 168:0.006339 169:0.00317 170:0.006339 172:0.001585 173:0.011094 174:0.00317 175:0.004754 176:0.001585 177:0.00317 178:0.006339 180:0.007924 181:0.004754 183:0.006339 184:0.009509 185:0.006339 186:0.006339 188:0.00317 189:0.006339 190:0.004754 193:0.006339 194:0.001585 195:0.009509 196:0.006339 197:0.004754 198:0.006339 199:0.001585 223:0.006339 224:0.001585 225:0.006339 226:0.001585 227:0.001585 228:0.001585 229:0.00317 230:0.00317 233:0.001585 234:0.001585 235:0.001585 238:0.001585 240:0.00317 241:0.00317 243:0.001585 244:0.015848 245:0.00317 246:0.001585 247:0.00317 248:0.006339 249:0.001585 250:0.00317 255:0.00317 256:0.001585 258:0.00317 260:0.006339 261:0.001585 262:0.001585 263:0.001585 266:0.001585 268:0.00317 270:0.004754 273:0.004754 274:0.001585 275:0.001585 276:0.001585 281:0.00317 283:0.001585 284:0.007924 285:0.001585 286:0.004754 288:0.00317 289:0.004754 290:0.00317 293:0.00317 295:0.004754 296:0.00317 297:0.001585 298:0.006339 299:0.001585 300:0.00317 301:0.001585 303:0.001585 304:0.006339 306:0.001585 308:0.00317 309:0.007924 310:0.006339 312:0.00317 314:0.001585 316:0.001585 318:0.001585 320:0.004754 324:0.004754 328:0.00317 329:0.001585 330:0.00317 333:0.001585 336:0.00317 338:0.004754 340:0.00317 341:0.00317 343:0.00317 344:0.007924 345:0.007924 347:0.00317 348:0.001585 349:0.006339 350:0.004754 352:0.006339 353:0.001585 354:0.001585 355:0.006339 356:0.00317 358:0.004754 359:0.007924 360:0.004754 363:0.001585 364:0.00317 367:0.001585 368:0.001585 369:0.00317 370:0.00317 373:0.00317 374:0.00317 375:0.001585 376:0.001585 378:0.00317 381:0.00317 383:0.00317 384:0.007924 385:0.001585 386:0.00317 387:0.004754 388:0.001585 389:0.001585 390:0.011094 392:0.00317 393:0.001585 395:0.006339 396:0.001585 397:0.00317 398:0.001585 399:0.001585 400:0.001585 
8192 1:0.018349 3:0.005505 4:0.001835 5:0.00367 6:0.014679 9:0.001835 10:0.011009 12:0.001835 13:0.00367 14:0.005505 15:0.001835 16:0.005505 17:0.009174 18:0.001835 20:0.005505 29:0.001835 30:0.001835 41:0.009174 45:0.00367 46:0.005505 47:0.00367 48:0.00367 49:0.001835 51:0.001835 52:0.00367 53:0.00367 55:0.001835 56:0.00367 58:0.005505 60:0.001835 61:0.001835 64:0.001835 72:0.001835 74:0.00367 75:0.001835 76:0.001835 80:0.001835 81:0.00367 83:0.00367 84:0.001835 86:0.005505 88:0.00367 89:0.001835 90:0.001835 92:0.001835 94:0.001835 96:0.001835 97:0.009174 99:0.00367 101:0.009174 102:0.001835 103:0.001835 105:0.00367 106:0.011009 108:0.009174 109:0.00367 110:0.005505 111:0.001835 112:0.001835 113:0.011009 114:0.00367 115:0.00367 116:0.007339 117:0.012844 118:0.00367 119:0.001835 120:0.00367 121:0.001835 123:0.001835 130:0.001835 133:0.00367 138:0.001835 139:0.001835 141:0.001835 143:0.00367 145:0.001835 146:0.007339 148:0.005505 150:0.007339 152:0.005505 153:0.007339 154:0.00367 157:0.005505 158:0.00367 163:0.00367 165:0.001835 166:0.00367 168:0.001835 169:0.001835 170:0.00367 174:0.001835 175:0.001835 177:0.00367 178:0.00367 181:0.007339 184:0.005505 185:0.007339 186:0.00367 187:0.001835 189:0.001835 190:0.007339 191:0.001835 192:0.00367 193:0.009174 194:0.00367 195:0.001835 196:0.007339 197:0.005505 198:0.005505 200:0.001835 208:0.00367 212:0.00367 216:0.001835 218:0.001835 221:0.00367 223:0.005505 225:0.00367 226:0.007339 227:0.00367 228:0.001835 230:0.005505 232:0.001835 233:0.012844 234:0.005505 236:0.00367 238:0.007339 239:0.001835 240:0.001835 241:0.00367 243:0.001835 245:0.001835 246:0.007339 247:0.001835 249:0.00367 252:0.007339 253:0.00367 254:0.005505 255:0.001835 256:0.011009 257:0.009174 258:0.007339 259:0.00367 260:0.005505 261:0.005505 263:0.001835 266:0.005505 268:0.00367 270:0.001835 272:0.001835 275:0.001835 276:0.011009 277:0.009174 279:0.001835 280:0.001835 281:0.00367 286:0.005505 288:0.00367 290:0.00367 292:0.001835 293:0.005505 298:0.001835 300:0.00367 301:0.009174 303:0.001835 304:0.001835 305:0.001835 306:0.007339 308:0.005505 309:0.001835 310:0.00367 312:0.012844 313:0.00367 314:0.005505 315:0.005505 316:0.014679 317:0.009174 318:0.005505 319:0.001835 321:0.00367 323:0.007339 325:0.001835 326:0.005505 327:0.001835 328:0.005505 329:0.00367 330:0.005505 331:0.00367 332:0.007339 333:0.007339 334:0.001835 335:0.001835 336:0.007339 337:0.001835 338:0.012844 340:0.00367 341:0.00367 343:0.007339 345:0.009174 346:0.007339 348:0.001835 349:0.001835 350:0.005505 351:0.001835 352:0.005505 354:0.00367 355:0.00367 356:0.009174 357:0.00367 358:0.007339 359:0.001835 360:0.001835 361:0.00367 362:0.001835 368:0.001835 370:0.001835 373:0.001835 375:0.001835 376:0.001835 377:0.001835 378:0.001835 379:0.001835 380:0.001835 381:0.001835 383:0.00367 384:0.001835 388:0.001835 389:0.001835 390:0.007339 392:0.00367 393:0.001835 396:0.00367 397:0.001835 398:0.00367 399:0.001835 
8192 1:0.009317 4:0.015528 5:0.012422 6:0.007764 7:0.003106 8:0.001553 9:0.001553 10:0.020186 13:0.012422 14:0.004658 15:0.007764 16:0.006211 17:0.003106 18:0.006211 19:0.006211 25:0.001553 27:0.001553 33:0.001553 34:0.001553 40:0.003106 41:0.003106 44:0.001553 45:0.001553 46:0.001553 50:0.007764 52:0.001553 54:0.003106 55:0.003106 56:0.003106 57:0.001553 58:0.004658 60:0.003106 61:0.029503 63:0.001553 64:0.007764 65:0.001553 66:0.01087 67:0.001553 68:0.003106 69:0.001553 70:0.006211 73:0.004658 74:0.003106 75:0.003106 76:0.001553 77:0.001553 78:0.006211 79:0.004658 80:0.001553 81:0.012422 83:0.001553 84:0.001553 85:0.003106 86:0.003106 87:0.001553 90:0.001553 91:0.001553 92:0.003106 93:0.001553 94:0.004658 95:0.004658 96:0.001553 97:0.003106 98:0.001553 99:0.003106 100:0.001553 101:0.009317 102:0.001553 104:0.001553 105:0.006211 106:0.003106 107:0.001553 109:0.003106 110:0.015528 111:0.001553 113:0.009317 115:0.012422 116:0.003106 117:0.006211 118:0.003106 119:0.003106 120:0.001553 121:0.003106 123:0.003106 126:0.001553 127:0.001553 130:0.003106 132:0.003106 133:0.001553 135:0.001553 138:0.001553 139:0.001553 140:0.001553 141:0.001553 144:0.001553 146:0.001553 150:0.003106 153:0.001553 158:0.003106 160:0.001553 164:0.004658 165:0.001553 166:0.001553 170:0.001553 173:0.001553 175:0.001553 177:0.001553 178:0.004658 179:0.001553 181:0.015528 183:0.007764 184:0.009317 185:0.003106 186:0.012422 187:0.001553 189:0.006211 190:0.012422 191:0.001553 192:0.001553 193:0.013975 194:0.003106 195:0.009317 196:0.004658 197:0.003106 198:0.004658 199:0.003106 200:0.004658 204:0.001553 206:0.001553 207:0.001553 210:0.001553 213:0.001553 215:0.001553 218:0.001553 224:0.003106 225:0.001553 233:0.003106 235:0.001553 239:0.001553 240:0.001553 241:0.003106 243:0.004658 244:0.01087 245:0.001553 246:0.01087 247:0.003106 248:0.001553 249:0.004658 250:0.01087 252:0.001553 253:0.009317 254:0.001553 255:0.003106 256:0.006211 257:0.001553 258:0.009317 260:0.001553 261:0.004658 263:0.003106 264:0.003106 266:0.003106 268:0.001553 271:0.001553 273:0.003106 274:0.001553 275:0.001553 277:0.001553 278:0.003106 281:0.003106 282:0.003106 284:0.01087 285:0.007764 286:0.007764 287:0.001553 288:0.003106 290:0.009317 291:0.001553 293:0.001553 294:0.001553 295:0.015528 296:0.003106 297:0.001553 298:0.004658 299:0.003106 300:0.009317 301:0.004658 303:0.001553 304:0.001553 305:0.001553 306:0.001553 307:0.003106 309:0.001553 310:0.006211 313:0.004658 314:0.001553 315:0.001553 316:0.001553 319:0.001553 320:0.004658 321:0.003106 323:0.004658 324:0.001553 325:0.003106 326:0.001553 327:0.001553 328:0.001553 330:0.003106 333:0.003106 338:0.003106 339:0.003106 341:0.01087 342:0.001553 343:0.004658 344:0.007764 345:0.003106 346:0.003106 350:0.004658 351:0.001553 352:0.001553 353:0.003106 354:0.001553 355:0.009317 356:0.001553 357:0.003106 358:0.007764 359:0.001553 360:0.003106 361:0.003106 363:0.001553 364:0.003106 366:0.003106 368:0.001553 369:0.001553 370:0.004658 373:0.003106 375:0.003106 376:0.003106 377:0.001553 378:0.004658 381:0.003106 382:0.003106 383:0.001553 384:0.003106 385:0.001553 386:0.006211 390:0.006211 393:0.004658 395:0.007764 396:0.001553 400:0.003106 
8192 1:0.0033 4:0.006601 6:0.0033 8:0.0033 9:0.0033 10:0.009901 11:0.0033 12:0.006601 13:0.013201 16:0.0033 17:0.0033 18:0.006601 19:0.0033 20:0.0033 31:0.0033 32:0.0033 37:0.0033 41:0.006601 43:0.0033 44:0.0033 45:0.006601 48:0.006601 49:0.0033 52:0.0033 54:0.006601 55:0.0033 58:0.0033 59:0.0033 61:0.006601 63:0.0033 64:0.019802 66:0.006601 68:0.009901 69:0.013201 70:0.019802 72:0.009901 73:0.006601 74:0.0033 75:0.019802 78:0.0033 80:0.0033 83:0.006601 84:0.0033 85:0.0033 87:0.0033 88:0.006601 90:0.0033 92:0.0033 93:0.0033 94:0.0033 95:0.009901 97:0.0033 99:0.0033 101:0.0033 104:0.0033 105:0.006601 109:0.009901 112:0.0033 114:0.0033 115:0.0033 116:0.009901 120:0.0033 129:0.0033 134:0.0033 141:0.0033 143:0.006601 144:0.019802 149:0.009901 151:0.0033 154:0.006601 155:0.0033 157:0.0033 158:0.0033 160:0.0033 161:0.019802 163:0.0033 164:0.009901 166:0.006601 168:0.006601 169:0.013201 170:0.0033 171:0.0033 172:0.006601 174:0.0033 175:0.0033 176:0.0033 177:0.006601 178:0.006601 180:0.0033 183:0.006601 184:0.006601 185:0.0033 186:0.006601 187:0.0033 188:0.006601 190:0.006601 194:0.009901 195:0.009901 196:0.006601 197:0.0033 198:0.0033 204:0.0033 206:0.0033 210:0.0033 216:0.0033 221:0.0033 224:0.0033 228:0.006601 229:0.0033 230:0.0033 232:0.0033 234:0.0033 237:0.006601 238:0.0033 240:0.006601 244:0.0033 245:0.0033 248:0.0033 249:0.016502 250:0.0033 253:0.006601 254:0.0033 255:0.006601 263:0.006601 264:0.006601 265:0.009901 266:0.0033 268:0.0033 269:0.0033 270:0.0033 273:0.0033 275:0.013201 280:0.0033 281:0.013201 282:0.006601 283:0.006601 284:0.009901 285:0.006601 286:0.0033 288:0.0033 289:0.009901 290:0.009901 293:0.0033 295:0.006601 297:0.0033 298:0.0033 300:0.0033 301:0.0033 303:0.0033 304:0.0033 308:0.0033 313:0.0033 314:0.0033 315:0.006601 318:0.0033 321:0.006601 324:0.013201 329:0.006601 330:0.006601 333:0.0033 338:0.0033 342:0.0033 343:0.0033 344:0.0033 345:0.0033 346:0.0033 348:0.0033 353:0.0033 354:0.006601 356:0.006601 360:0.0033 364:0.0033 365:0.0033 377:0.0033 381:0.0033 384:0.0033 385:0.006601 386:0.006601 389:0.0033 392:0.0033 395:0.0033 397:0.0033 400:0.0033 
2145.661180029197 4:0.016854 6:0.005618 10:0.005618 12:0.005618 15:0.011236 16:0.005618 18:0.005618 24:0.005618 45:0.005618 46:0.005618 47:0.005618 48:0.011236 51:0.005618 52:0.005618 55:0.005618 59:0.005618 61:0.005618 62:0.005618 64:0.016854 65:0.011236 66:0.005618 68:0.011236 70:0.005618 75:0.005618 76:0.005618 78:0.022472 79:0.005618 80:0.011236 83:0.005618 84:0.005618 86:0.011236 87:0.005618 88:0.005618 96:0.005618 101:0.005618 103:0.005618 104:0.005618 106:0.011236 109:0.011236 110:0.011236 111:0.005618 112:0.005618 113:0.005618 115:0.005618 116:0.005618 117:0.005618 118:0.011236 119:0.005618 128:0.005618 130:0.005618 138:0.005618 143:0.005618 144:0.011236 145:0.005618 146:0.011236 148:0.005618 150:0.005618 153:0.005618 157:0.005618 160:0.005618 164:0.011236 165:0.005618 166:0.005618 168:0.005618 170:0.005618 172:0.005618 175:0.005618 176:0.005618 181:0.005618 183:0.005618 184:0.005618 187:0.005618 189:0.005618 192:0.011236 193:0.005618 194:0.005618 195:0.011236 196:0.005618 200:0.005618 201:0.005618 212:0.005618 221:0.005618 224:0.005618 226:0.011236 232:0.005618 233:0.005618 236:0.005618 238:0.022472 239:0.005618 243:0.005618 244:0.005618 246:0.011236 248:0.005618 252:0.005618 260:0.005618 261:0.005618 270:0.005618 285:0.005618 288:0.005618 289:0.005618 290:0.016854 293:0.005618 295:0.005618 297:0.011236 298:0.005618 300:0.011236 301:0.005618 303:0.005618 304:0.005618 306:0.005618 312:0.005618 313:0.011236 316:0.005618 321:0.005618 325:0.005618 326:0.005618 339:0.005618 341:0.005618 343:0.005618 344:0.011236 346:0.011236 349:0.022472 350:0.011236 355:0.016854 358:0.005618 364:0.005618 372:0.011236 374:0.005618 378:0.005618 379:0.005618 381:0.005618 383:0.011236 388:0.005618 389:0.005618 395:0.005618 398:0.005618 
617.4637135370143 1:0.002004 3:0.004008 8:0.004008 9:0.004008 10:0.006012 11:0.002004 12:0.002004 15:0.002004 16:0.002004 18:0.004008 19:0.002004 20:0.004008 23:0.002004 26:0.002004 38:0.002004 40:0.002004 41:0.002004 43:0.006012 44:0.012024 45:0.008016 46:0.004008 49:0.004008 50:0.002004 55:0.004008 56:0.006012 57:0.002004 58:0.01002 60:0.008016 63:0.006012 64:0.01002 65:0.004008 66:0.004008 67:0.004008 68:0.014028 69:0.004008 70:0.002004 71:0.002004 72:0.008016 73:0.002004 74:0.002004 75:0.004008 76:0.002004 77:0.002004 78:0.012024 80:0.01002 82:0.002004 83:0.002004 84:0.004008 85:0.002004 86:0.002004 87:0.004008 88:0.004008 89:0.01002 90:0.004008 91:0.002004 92:0.004008 93:0.002004 95:0.002004 96:0.008016 97:0.002004 98:0.004008 99:0.002004 100:0.006012 101:0.002004 103:0.004008 104:0.004008 105:0.004008 106:0.008016 107:0.002004 108:0.006012 109:0.002004 110:0.008016 112:0.004008 113:0.002004 115:0.004008 116:0.002004 117:0.006012 120:0.004008 121:0.002004 123:0.002004 125:0.004008 126:0.006012 127:0.002004 128:0.002004 130:0.002004 131:0.004008 141:0.004008 142:0.002004 143:0.008016 144:0.006012 145:0.002004 146:0.006012 147:0.002004 148:0.002004 149:0.008016 150:0.002004 151:0.004008 152:0.002004 153:0.004008 155:0.004008 156:0.002004 157:0.002004 159:0.002004 160:0.004008 161:0.004008 163:0.004008 164:0.012024 165:0.006012 168:0.002004 169:0.004008 170:0.006012 172:0.004008 173:0.006012 174:0.002004 175:0.002004 177:0.004008 178:0.006012 179:0.004008 180:0.004008 181:0.004008 182:0.002004 183:0.002004 184:0.002004 186:0.004008 187:0.002004 188:0.006012 189:0.01002 190:0.002004 192:0.008016 193:0.002004 194:0.002004 195:0.002004 196:0.002004 197:0.002004 198:0.006012 200:0.006012 203:0.002004 206:0.004008 208:0.004008 210:0.006012 213:0.004008 217:0.002004 221:0.006012 223:0.002004 224:0.008016 225:0.004008 226:0.002004 228:0.002004 230:0.008016 231:0.002004 233:0.006012 236:0.002004 237:0.004008 238:0.004008 241:0.002004 243:0.004008 244:0.002004 245:0.01002 247:0.002004 249:0.006012 252:0.004008 253:0.002004 254:0.002004 255:0.004008 256:0.004008 257:0.002004 258:0.008016 259:0.002004 264:0.002004 265:0.002004 266:0.002004 269:0.002004 270:0.002004 272:0.002004 273:0.002004 277:0.002004 278:0.002004 283:0.008016 284:0.006012 285:0.002004 286:0.002004 287:0.002004 288:0.006012 290:0.002004 293:0.004008 294:0.002004 295:0.002004 296:0.002004 298:0.002004 299:0.002004 300:0.006012 303:0.008016 304:0.004008 305:0.004008 306:0.002004 307:0.002004 309:0.006012 313:0.002004 314:0.004008 315:0.004008 316:0.002004 317:0.002004 318:0.002004 320:0.004008 321:0.002004 324:0.006012 325:0.006012 326:0.002004 330:0.004008 333:0.006012 334:0.002004 335:0.002004 336:0.006012 338:0.004008 339:0.002004 340:0.004008 341:0.008016 343:0.004008 344:0.004008 345:0.006012 346:0.008016 347:0.002004 349:0.006012 350:0.006012 351:0.002004 352:0.004008 353:0.006012 355:0.006012 356:0.002004 357:0.006012 358:0.004008 364:0.002004 366:0.002004 368:0.004008 369:0.002004 372:0.004008 373:0.002004 375:0.002004 376:0.002004 377:0.002004 382:0.002004 384:0.008016 385:0.002004 386:0.002004 388:0.01002 389:0.002004 390:0.002004 391:0.002004 392:0.004008 393:0.002004 394:0.002004 395:0.004008 396:0.002004 397:0.006012 398:0.004008 399:0.006012 
7374.901504333574 1:0.003559 3:0.010676 4:0.007117 6:0.014235 7:0.003559 8:0.007117 10:0.007117 15:0.003559 16:0.003559 17:0.003559 18:0.007117 19:0.003559 26:0.003559 27:0.003559 41:0.007117 42:0.007117 43:0.007117 44:0.003559 46:0.003559 47:0.003559 48:0.003559 49:0.003559 52:0.007117 53:0.014235 56:0.007117 60:0.003559 61:0.014235 63:0.003559 64:0.007117 65:0.003559 68:0.010676 69:0.021352 72:0.007117 75:0.007117 76:0.003559 77:0.007117 79:0.007117 80:0.003559 86:0.003559 88:0.003559 92:0.003559 96:0.007117 98:0.003559 103:0.003559 104:0.014235 106:0.003559 107:0.003559 109:0.007117 110:0.010676 112:0.003559 113:0.007117 115:0.014235 116:0.003559 119:0.003559 120:0.003559 121:0.007117 123:0.003559 128:0.003559 129:0.003559 130:0.003559 132:0.003559 133:0.003559 136:0.003559 138:0.003559 139:0.003559 144:0.007117 148:0.003559 149:0.007117 150:0.003559 152:0.003559 153:0.003559 156:0.007117 157:0.003559 160:0.003559 161:0.003559 163:0.007117 165:0.003559 166:0.003559 167:0.003559 168:0.007117 170:0.017794 172:0.003559 173:0.003559 175:0.017794 176:0.003559 177:0.003559 178:0.010676 179:0.003559 181:0.003559 184:0.003559 185:0.003559 186:0.003559 187:0.003559 189:0.007117 190:0.003559 192:0.003559 194:0.007117 198:0.014235 200:0.007117 221:0.003559 223:0.003559 224:0.007117 225:0.003559 226:0.007117 227:0.003559 229:0.007117 230:0.003559 233:0.003559 236:0.007117 237:0.003559 240:0.003559 241:0.003559 246:0.010676 248:0.003559 249:0.003559 252:0.007117 254:0.003559 255:0.010676 258:0.007117 260:0.003559 263:0.007117 265:0.007117 268:0.003559 269:0.003559 278:0.003559 283:0.007117 284:0.007117 286:0.003559 289:0.007117 292:0.007117 293:0.003559 296:0.003559 297:0.007117 299:0.010676 301:0.007117 304:0.010676 306:0.007117 307:0.007117 309:0.007117 310:0.003559 312:0.003559 313:0.007117 314:0.010676 316:0.003559 318:0.003559 321:0.003559 323:0.003559 324:0.003559 326:0.007117 330:0.003559 335:0.003559 336:0.007117 341:0.007117 343:0.010676 344:0.014235 346:0.007117 348:0.003559 349:0.003559 350:0.003559 352:0.003559 353:0.003559 356:0.007117 361:0.007117 366:0.003559 369:0.003559 370:0.003559 374:0.003559 376:0.003559 378:0.003559 381:0.003559 384:0.003559 387:0.003559 389:0.007117 393:0.003559 397:0.003559 398:0.003559 
8192 1:0.007752 3:0.003876 9:0.007752 10:0.007752 11:0.003876 14:0.003876 15:0.007752 16:0.007752 17:0.007752 18:0.003876 19:0.003876 20:0.003876 24:0.003876 26:0.003876 41:0.007752 43:0.007752 44:0.003876 46:0.011628 48:0.003876 50:0.007752 51:0.003876 52:0.003876 56:0.007752 57:0.01938 59:0.003876 63:0.007752 68:0.007752 69:0.007752 71:0.003876 74:0.011628 75:0.003876 77:0.007752 82:0.003876 86:0.003876 87:0.003876 89:0.003876 90:0.003876 91:0.003876 96:0.003876 97:0.003876 98:0.003876 100:0.003876 101:0.015504 104:0.003876 105:0.003876 106:0.007752 108:0.003876 109:0.015504 110:0.011628 113:0.003876 116:0.01938 120:0.007752 121:0.003876 133:0.003876 141:0.003876 144:0.003876 146:0.007752 149:0.011628 150:0.003876 151:0.003876 152:0.007752 155:0.003876 161:0.007752 163:0.003876 166:0.007752 168:0.003876 169:0.003876 170:0.007752 171:0.007752 172:0.011628 173:0.007752 174:0.003876 175:0.007752 177:0.003876 178:0.003876 180:0.007752 181:0.003876 183:0.003876 184:0.003876 185:0.007752 186:0.003876 188:0.003876 189:0.007752 190:0.003876 192:0.007752 194:0.011628 195:0.003876 198:0.007752 206:0.003876 209:0.015504 212:0.003876 219:0.003876 223:0.003876 224:0.003876 225:0.007752 226:0.007752 228:0.003876 229:0.011628 230:0.003876 232:0.007752 233:0.003876 234:0.003876 235:0.003876 237:0.003876 238:0.007752 239:0.003876 243:0.011628 244:0.007752 252:0.003876 253:0.003876 256:0.003876 261:0.003876 263:0.003876 265:0.003876 266:0.007752 272:0.003876 275:0.003876 278:0.003876 279:0.007752 283:0.003876 286:0.007752 289:0.003876 290:0.003876 292:0.003876 294:0.003876 296:0.003876 297:0.003876 298:0.003876 300:0.003876 301:0.007752 303:0.003876 304:0.007752 305:0.003876 306:0.003876 308:0.003876 312:0.007752 313:0.007752 315:0.003876 316:0.007752 318:0.003876 321:0.003876 323:0.003876 325:0.007752 326:0.011628 327:0.003876 328:0.007752 330:0.015504 332:0.003876 336:0.003876 337:0.003876 343:0.015504 344:0.003876 345:0.003876 349:0.003876 357:0.007752 358:0.003876 360:0.003876 363:0.003876 364:0.007752 368:0.003876 372:0.003876 375:0.003876 382:0.003876 383:0.003876 386:0.003876 388:0.003876 392:0.007752 396:0.003876 397:0.003876 400:0.003876 
8192 1:0.015152 2:0.003788 4:0.015152 5:0.007576 6:0.007576 7:0.007576 8:0.007576 9:0.007576 10:0.003788 11:0.015152 12:0.007576 13:0.003788 14:0.007576 16:0.015152 18:0.007576 20:0.003788 23:0.003788 24:0.003788 35:0.003788 36:0.003788 41:0.003788 45:0.003788 46:0.011364 48:0.007576 49:0.003788 50:0.003788 54:0.003788 57:0.003788 58:0.007576 60:0.003788 61:0.007576 63:0.007576 64:0.003788 65:0.003788 66:0.011364 70:0.015152 75:0.003788 78:0.003788 81:0.011364 83:0.003788 89:0.003788 90:0.007576 95:0.003788 96:0.003788 97:0.003788 98:0.007576 101:0.007576 103:0.007576 104:0.003788 105:0.018939 106:0.003788 108:0.011364 109:0.007576 110:0.003788 112:0.003788 113:0.007576 115:0.003788 116:0.011364 118:0.007576 122:0.003788 123:0.003788 131:0.003788 135:0.003788 136:0.003788 138:0.003788 141:0.015152 143:0.003788 144:0.003788 146:0.003788 149:0.003788 150:0.003788 153:0.003788 155:0.007576 156:0.011364 158:0.003788 161:0.007576 163:0.003788 165:0.003788 166:0.003788 168:0.003788 170:0.007576 171:0.003788 175:0.003788 178:0.003788 181:0.015152 182:0.003788 183:0.003788 184:0.007576 186:0.011364 189:0.007576 190:0.003788 192:0.003788 194:0.003788 196:0.015152 197:0.003788 198:0.003788 201:0.007576 205:0.003788 206:0.011364 207:0.003788 210:0.007576 212:0.003788 221:0.011364 223:0.003788 224:0.003788 233:0.003788 236:0.003788 238:0.007576 240:0.003788 244:0.003788 246:0.007576 248:0.007576 249:0.003788 252:0.003788 261:0.003788 262:0.003788 270:0.007576 272:0.003788 281:0.003788 284:0.007576 288:0.003788 289:0.003788 295:0.003788 296:0.003788 297:0.007576 298:0.007576 300:0.003788 301:0.015152 303:0.007576 305:0.003788 306:0.011364 307:0.003788 308:0.015152 309:0.003788 310:0.003788 311:0.003788 316:0.003788 320:0.007576 326:0.003788 328:0.003788 330:0.007576 331:0.003788 333:0.003788 335:0.003788 338:0.003788 340:0.003788 341:0.011364 343:0.003788 344:0.003788 346:0.003788 347:0.007576 350:0.003788 351:0.003788 352:0.007576 355:0.007576 357:0.015152 358:0.003788 359:0.003788 373:0.003788 386:0.003788 390:0.003788 391:0.003788 392:0.003788 394:0.003788 396:0.003788 398:0.003788 
8192 1:0.032468 2:0.003247 3:0.003247 4:0.003247 5:0.00974 6:0.012987 7:0.006494 8:0.006494 9:0.006494 10:0.025974 12:0.012987 13:0.003247 14:0.00974 15:0.003247 16:0.006494 17:0.003247 18:0.00974 37:0.003247 41:0.006494 43:0.003247 44:0.006494 47:0.003247 48:0.006494 52:0.003247 55:0.003247 56:0.003247 57:0.006494 61:0.00974 63:0.003247 64:0.006494 66:0.006494 68:0.003247 69:0.00974 70:0.006494 72:0.006494 75:0.003247 76:0.012987 77:0.006494 81:0.003247 86:0.003247 88:0.003247 90:0.003247 92:0.003247 93:0.003247 95:0.003247 98:0.003247 101:0.016234 103:0.006494 104:0.019481 105:0.003247 106:0.003247 108:0.00974 109:0.003247 112:0.003247 114:0.003247 115:0.003247 116:0.00974 118:0.006494 121:0.006494 124:0.003247 128:0.003247 134:0.003247 140:0.003247 141:0.019481 143:0.006494 145:0.003247 146:0.006494 147:0.003247 148:0.003247 149:0.003247 150:0.003247 152:0.003247 155:0.00974 157:0.012987 158:0.003247 161:0.003247 166:0.012987 168:0.003247 170:0.003247 173:0.003247 177:0.003247 181:0.006494 183:0.003247 184:0.00974 186:0.006494 187:0.003247 188:0.00974 190:0.00974 191:0.003247 192:0.006494 193:0.006494 194:0.003247 196:0.003247 197:0.003247 198:0.00974 201:0.003247 214:0.006494 221:0.012987 223:0.003247 224:0.003247 226:0.00974 227:0.003247 228:0.006494 229:0.003247 230:0.003247 233:0.003247 234:0.003247 238:0.003247 241:0.00974 243:0.003247 244:0.003247 246:0.006494 250:0.006494 252:0.003247 256:0.003247 257:0.003247 258:0.003247 259:0.003247 261:0.006494 270:0.006494 272:0.006494 273:0.003247 274:0.003247 275:0.00974 276:0.003247 278:0.006494 284:0.00974 285:0.003247 286:0.003247 288:0.003247 289:0.003247 294:0.006494 296:0.003247 297:0.003247 298:0.00974 301:0.003247 305:0.003247 306:0.003247 308:0.006494 310:0.003247 313:0.006494 315:0.003247 317:0.003247 318:0.016234 321:0.003247 323:0.003247 324:0.003247 325:0.003247 326:0.012987 328:0.006494 330:0.003247 333:0.00974 335:0.003247 338:0.006494 341:0.012987 343:0.006494 344:0.006494 348:0.006494 350:0.00974 351:0.003247 352:0.006494 353:0.006494 354:0.003247 355:0.003247 356:0.003247 357:0.006494 358:0.003247 359:0.003247 361:0.003247 375:0.003247 394:0.003247 
8192 1:0.012953 3:0.002591 4:0.010363 5:0.002591 6:0.012953 8:0.010363 9:0.007772 10:0.007772 12:0.007772 14:0.005181 15:0.002591 16:0.005181 17:0.007772 18:0.010363 20:0.002591 24:0.002591 27:0.002591 34:0.005181 41:0.005181 42:0.002591 44:0.002591 47:0.002591 48:0.002591 49:0.005181 52:0.002591 53:0.015544 54:0.002591 55:0.005181 58:0.005181 59:0.002591 60:0.002591 61:0.007772 63:0.005181 64:0.005181 65:0.002591 66:0.002591 69:0.005181 70:0.002591 72:0.002591 73:0.002591 75:0.002591 78:0.005181 80:0.002591 81:0.005181 83:0.002591 86:0.002591 88:0.002591 89:0.002591 95:0.002591 96:0.005181 98:0.002591 101:0.007772 102:0.002591 103:0.002591 104:0.005181 105:0.002591 106:0.007772 107:0.002591 108:0.002591 109:0.007772 110:0.005181 111:0.005181 112:0.002591 115:0.005181 116:0.002591 117:0.002591 118:0.002591 120:0.012953 121:0.007772 126:0.002591 127:0.012953 130:0.002591 136:0.002591 138:0.002591 140:0.002591 141:0.002591 143:0.005181 144:0.005181 146:0.005181 148:0.005181 150:0.005181 151:0.002591 152:0.002591 154:0.002591 155:0.007772 156:0.002591 158:0.005181 159:0.002591 160:0.007772 161:0.010363 163:0.002591 167:0.002591 168:0.010363 169:0.002591 170:0.007772 173:0.005181 180:0.002591 181:0.005181 183:0.002591 186:0.010363 187:0.002591 188:0.007772 190:0.005181 191:0.007772 192:0.005181 193:0.007772 195:0.002591 196:0.002591 198:0.002591 201:0.002591 202:0.002591 203:0.007772 208:0.005181 211:0.002591 212:0.002591 213:0.010363 214:0.002591 215:0.002591 218:0.002591 221:0.002591 223:0.005181 225:0.002591 226:0.002591 229:0.005181 230:0.002591 232:0.005181 234:0.010363 235:0.002591 236:0.005181 237:0.002591 241:0.012953 244:0.002591 246:0.007772 248:0.002591 249:0.002591 251:0.010363 252:0.005181 254:0.002591 255:0.002591 257:0.002591 258:0.005181 260:0.002591 261:0.002591 263:0.002591 265:0.005181 266:0.005181 267:0.002591 268:0.002591 270:0.005181 271:0.002591 272:0.005181 274:0.002591 275:0.002591 276:0.002591 277:0.002591 278:0.002591 279:0.002591 281:0.007772 282:0.002591 284:0.005181 285:0.010363 288:0.005181 289:0.002591 290:0.005181 291:0.002591 293:0.007772 294:0.002591 295:0.005181 296:0.005181 297:0.002591 300:0.002591 301:0.002591 303:0.005181 306:0.005181 307:0.002591 310:0.005181 311:0.002591 312:0.002591 313:0.002591 314:0.002591 315:0.005181 316:0.002591 317:0.002591 318:0.007772 320:0.002591 323:0.005181 326:0.005181 330:0.002591 333:0.005181 335:0.002591 336:0.005181 337:0.012953 340:0.002591 341:0.005181 343:0.002591 344:0.005181 346:0.002591 348:0.002591 349:0.002591 350:0.002591 351:0.005181 352:0.002591 353:0.002591 354:0.005181 355:0.010363 356:0.002591 357:0.002591 360:0.002591 366:0.002591 374:0.002591 375:0.002591 381:0.007772 383:0.005181 384:0.002591 386:0.005181 388:0.002591 390:0.002591 394:0.002591 395:0.002591 396:0.007772 397:0.002591 398:0.002591 400:0.002591 
7078.503631960893 1:0.014423 2:0.002404 3:0.009615 4:0.009615 5:0.002404 6:0.012019 7:0.002404 9:0.007212 10:0.009615 11:0.004808 13:0.004808 14:0.002404 16:0.002404 17:0.009615 18:0.004808 20:0.002404 21:0.002404 23:0.002404 28:0.002404 30:0.002404 32:0.004808 34:0.002404 37:0.002404 39:0.002404 41:0.007212 42:0.002404 43:0.004808 44:0.004808 45:0.007212 46:0.012019 48:0.007212 49:0.002404 50:0.004808 51:0.002404 52:0.002404 53:0.002404 56:0.002404 57:0.002404 58:0.007212 59:0.009615 60:0.002404 61:0.002404 63:0.002404 65:0.002404 68:0.004808 70:0.002404 75:0.002404 76:0.002404 77:0.002404 78:0.004808 80:0.002404 81:0.004808 86:0.002404 89:0.002404 90:0.002404 92:0.004808 93:0.002404 96:0.002404 98:0.002404 99:0.004808 101:0.002404 102:0.002404 107:0.009615 108:0.009615 109:0.004808 110:0.009615 112:0.007212 113:0.004808 114:0.004808 115:0.002404 116:0.002404 117:0.007212 118:0.004808 119:0.002404 120:0.009615 121:0.002404 122:0.002404 123:0.002404 124:0.002404 125:0.002404 128:0.002404 130:0.004808 132:0.002404 140:0.002404 141:0.002404 143:0.007212 146:0.002404 150:0.004808 152:0.004808 153:0.002404 156:0.004808 157:0.002404 158:0.007212 159:0.002404 160:0.002404 161:0.002404 162:0.002404 163:0.004808 164:0.002404 165:0.002404 166:0.002404 167:0.002404 169:0.004808 170:0.004808 172:0.002404 174:0.002404 176:0.004808 177:0.002404 178:0.004808 179:0.004808 180:0.002404 181:0.012019 183:0.007212 184:0.002404 186:0.012019 188:0.004808 189:0.007212 190:0.009615 191:0.002404 192:0.007212 196:0.012019 197:0.002404 198:0.004808 199:0.002404 202:0.002404 209:0.004808 210:0.002404 213:0.002404 215:0.002404 216:0.002404 218:0.002404 221:0.007212 222:0.002404 223:0.002404 224:0.002404 226:0.004808 228:0.004808 229:0.002404 230:0.007212 232:0.002404 233:0.004808 234:0.002404 236:0.009615 237:0.002404 238:0.004808 239:0.002404 240:0.002404 241:0.007212 243:0.009615 246:0.004808 250:0.002404 252:0.007212 253:0.002404 256:0.007212 257:0.002404 260:0.002404 261:0.002404 263:0.004808 270:0.002404 272:0.002404 273:0.002404 275:0.002404 276:0.002404 283:0.002404 285:0.004808 288:0.002404 291:0.002404 292:0.002404 297:0.002404 298:0.002404 299:0.002404 301:0.007212 303:0.007212 305:0.002404 306:0.002404 307:0.002404 309:0.007212 310:0.004808 311:0.004808 313:0.004808 314:0.002404 316:0.007212 317:0.007212 318:0.007212 319:0.007212 320:0.002404 321:0.014423 322:0.004808 323:0.002404 325:0.002404 326:0.007212 327:0.002404 329:0.002404 330:0.004808 333:0.002404 335:0.007212 336:0.002404 337:0.002404 340:0.002404 341:0.004808 343:0.009615 345:0.002404 346:0.004808 347:0.002404 348:0.002404 349:0.002404 350:0.004808 351:0.002404 352:0.004808 353:0.004808 355:0.002404 356:0.002404 357:0.007212 359:0.002404 360:0.002404 361:0.004808 366:0.014423 372:0.007212 374:0.002404 375:0.002404 376:0.007212 377:0.002404 383:0.004808 384:0.004808 386:0.002404 387:0.002404 389:0.004808 390:0.002404 392:0.002404 393:0.004808 396:0.002404 398:0.004808 
7326.870343280287 3:0.016129 5:0.008065 6:0.008065 8:0.008065 10:0.008065 11:0.008065 15:0.008065 20:0.008065 24:0.008065 26:0.008065 34:0.008065 38:0.008065 41:0.008065 43:0.016129 44:0.008065 46:0.016129 50:0.008065 52:0.008065 56:0.016129 58:0.008065 60:0.016129 68:0.008065 69:0.008065 70:0.008065 73:0.008065 77:0.008065 78:0.008065 90:0.008065 96:0.008065 97:0.008065 101:0.024194 102:0.008065 106:0.008065 107:0.008065 111:0.008065 117:0.008065 118:0.008065 123:0.008065 142:0.008065 150:0.016129 159:0.008065 161:0.008065 164:0.008065 166:0.008065 180:0.008065 181:0.008065 182:0.008065 183:0.016129 185:0.008065 190:0.008065 193:0.008065 194:0.008065 198:0.008065 199:0.016129 201:0.008065 203:0.008065 212:0.008065 215:0.008065 218:0.008065 223:0.008065 224:0.008065 225:0.008065 230:0.016129 233:0.008065 240:0.008065 252:0.008065 254:0.008065 256:0.008065 257:0.008065 263:0.008065 268:0.008065 270:0.008065 276:0.016129 283:0.008065 286:0.008065 295:0.008065 298:0.008065 301:0.008065 303:0.016129 309:0.008065 310:0.008065 312:0.008065 313:0.008065 315:0.008065 316:0.008065 317:0.008065 319:0.008065 323:0.008065 324:0.008065 331:0.016129 340:0.008065 346:0.016129 348:0.008065 349:0.016129 354:0.008065 356:0.016129 372:0.008065 374:0.008065 376:0.016129 378:0.008065 381:0.008065 382:0.008065 384:0.008065 392:0.016129 399:0.008065 
8192 2:0.004115 3:0.00823 6:0.004115 7:0.004115 8:0.012346 10:0.00823 11:0.004115 14:0.00823 15:0.00823 17:0.00823 18:0.004115 20:0.004115 26:0.004115 33:0.004115 45:0.004115 46:0.004115 48:0.00823 50:0.00823 52:0.004115 53:0.004115 54:0.016461 55:0.004115 56:0.00823 58:0.004115 60:0.00823 61:0.00823 66:0.004115 67:0.00823 68:0.004115 70:0.00823 71:0.004115 73:0.00823 74:0.004115 77:0.00823 80:0.004115 83:0.004115 84:0.00823 90:0.004115 96:0.004115 100:0.004115 101:0.004115 103:0.016461 105:0.004115 108:0.004115 109:0.004115 110:0.012346 112:0.012346 115:0.004115 116:0.004115 118:0.004115 121:0.004115 125:0.004115 130:0.012346 133:0.004115 136:0.004115 139:0.012346 140:0.004115 141:0.00823 143:0.004115 145:0.004115 146:0.004115 150:0.00823 153:0.004115 156:0.00823 158:0.004115 160:0.004115 163:0.004115 164:0.004115 166:0.004115 168:0.004115 173:0.004115 174:0.004115 181:0.00823 183:0.012346 184:0.012346 185:0.004115 186:0.004115 187:0.004115 188:0.004115 189:0.00823 190:0.016461 191:0.004115 193:0.004115 194:0.016461 196:0.00823 197:0.00823 198:0.004115 204:0.00823 210:0.004115 215:0.004115 221:0.00823 223:0.004115 225:0.004115 229:0.004115 233:0.004115 237:0.004115 243:0.004115 244:0.00823 250:0.004115 254:0.012346 256:0.004115 257:0.004115 258:0.004115 259:0.004115 261:0.012346 264:0.004115 267:0.00823 269:0.004115 270:0.00823 272:0.004115 273:0.004115 274:0.00823 275:0.00823 276:0.00823 277:0.004115 278:0.00823 279:0.004115 280:0.004115 281:0.004115 283:0.004115 284:0.004115 286:0.00823 287:0.004115 292:0.004115 294:0.004115 295:0.004115 296:0.00823 301:0.00823 303:0.004115 304:0.00823 306:0.00823 307:0.004115 312:0.004115 313:0.004115 314:0.004115 315:0.004115 316:0.00823 320:0.00823 321:0.004115 324:0.004115 326:0.00823 330:0.004115 334:0.004115 336:0.004115 338:0.004115 339:0.004115 342:0.004115 343:0.004115 346:0.012346 348:0.012346 354:0.004115 355:0.004115 361:0.004115 366:0.004115 369:0.004115 370:0.004115 374:0.004115 378:0.004115 380:0.004115 381:0.004115 383:0.004115 387:0.012346 390:0.016461 395:0.004115 399:0.004115 
8192 1:0.011013 3:0.002203 4:0.004405 5:0.006608 6:0.004405 7:0.002203 8:0.008811 9:0.008811 10:0.008811 11:0.004405 12:0.004405 13:0.002203 16:0.002203 17:0.004405 18:0.002203 28:0.002203 33:0.002203 41:0.004405 43:0.002203 44:0.004405 46:0.002203 49:0.002203 50:0.002203 53:0.004405 56:0.002203 57:0.002203 60:0.002203 61:0.006608 64:0.019824 65:0.013216 66:0.004405 67:0.002203 68:0.011013 69:0.011013 70:0.013216 72:0.008811 73:0.002203 75:0.004405 76:0.004405 78:0.013216 80:0.004405 81:0.004405 84:0.006608 87:0.002203 88:0.008811 90:0.002203 93:0.002203 95:0.004405 96:0.006608 97:0.004405 98:0.002203 100:0.004405 103:0.004405 104:0.011013 105:0.002203 106:0.004405 108:0.008811 109:0.004405 110:0.004405 111:0.002203 112:0.002203 113:0.002203 114:0.002203 116:0.004405 118:0.008811 119:0.002203 120:0.006608 123:0.002203 125:0.002203 130:0.002203 133:0.002203 137:0.002203 138:0.004405 140:0.002203 141:0.004405 143:0.002203 144:0.002203 146:0.008811 147:0.006608 148:0.002203 149:0.013216 150:0.008811 151:0.004405 152:0.002203 153:0.004405 155:0.006608 156:0.002203 157:0.002203 158:0.006608 160:0.004405 161:0.011013 163:0.002203 164:0.013216 166:0.006608 168:0.004405 169:0.004405 170:0.008811 172:0.004405 173:0.002203 175:0.004405 176:0.006608 177:0.002203 178:0.004405 180:0.004405 181:0.015419 183:0.004405 184:0.011013 185:0.008811 186:0.011013 188:0.002203 189:0.002203 190:0.011013 192:0.006608 193:0.002203 194:0.004405 195:0.004405 196:0.004405 197:0.004405 199:0.002203 200:0.002203 201:0.002203 204:0.002203 205:0.002203 206:0.002203 209:0.004405 210:0.002203 213:0.002203 221:0.002203 222:0.002203 224:0.008811 226:0.002203 228:0.004405 230:0.006608 235:0.002203 237:0.006608 238:0.004405 240:0.002203 243:0.004405 245:0.002203 248:0.004405 249:0.006608 254:0.002203 255:0.004405 257:0.006608 258:0.011013 261:0.006608 268:0.002203 270:0.006608 278:0.002203 281:0.002203 283:0.002203 284:0.013216 285:0.004405 286:0.004405 288:0.004405 290:0.002203 291:0.002203 295:0.002203 298:0.002203 299:0.002203 301:0.004405 302:0.002203 304:0.004405 305:0.004405 306:0.004405 308:0.006608 309:0.002203 310:0.002203 312:0.002203 314:0.002203 315:0.002203 316:0.004405 317:0.002203 318:0.006608 324:0.004405 326:0.002203 328:0.002203 329:0.004405 330:0.006608 332:0.002203 333:0.002203 334:0.002203 336:0.004405 337:0.002203 338:0.004405 339:0.002203 340:0.002203 341:0.002203 343:0.002203 344:0.008811 345:0.002203 346:0.004405 347:0.004405 348:0.006608 349:0.008811 350:0.006608 352:0.002203 353:0.011013 354:0.002203 355:0.006608 356:0.002203 357:0.002203 360:0.002203 364:0.002203 366:0.002203 372:0.002203 376:0.002203 384:0.002203 386:0.006608 388:0.002203 389:0.006608 390:0.004405 391:0.002203 392:0.004405 394:0.002203 396:0.004405 398:0.002203 400:0.002203 
8192 1:0.001712 3:0.005137 4:0.005137 5:0.005137 6:0.008562 7:0.003425 8:0.003425 9:0.008562 10:0.006849 11:0.001712 12:0.005137 14:0.001712 15:0.005137 16:0.006849 17:0.003425 18:0.008562 20:0.003425 24:0.001712 26:0.001712 30:0.001712 35:0.001712 36:0.001712 41:0.008562 42:0.003425 44:0.005137 45:0.001712 46:0.001712 47:0.001712 49:0.001712 50:0.003425 53:0.006849 54:0.005137 55:0.003425 56:0.005137 57:0.001712 58:0.005137 59:0.001712 60:0.003425 61:0.011986 62:0.001712 63:0.001712 64:0.008562 65:0.003425 68:0.005137 69:0.003425 70:0.006849 72:0.001712 74:0.008562 75:0.008562 76:0.003425 77:0.005137 78:0.008562 79:0.001712 80:0.001712 81:0.008562 83:0.006849 84:0.003425 85:0.005137 86:0.003425 87:0.001712 88:0.001712 90:0.003425 92:0.001712 93:0.003425 94:0.003425 95:0.008562 96:0.001712 97:0.003425 98:0.001712 99:0.003425 100:0.003425 101:0.001712 103:0.011986 104:0.011986 105:0.001712 106:0.005137 108:0.003425 109:0.005137 110:0.003425 111:0.003425 112:0.003425 113:0.001712 114:0.001712 115:0.001712 116:0.003425 117:0.003425 118:0.006849 119:0.003425 121:0.008562 123:0.003425 124:0.001712 126:0.001712 127:0.001712 129:0.001712 132:0.001712 135:0.005137 138:0.001712 143:0.005137 144:0.001712 145:0.005137 146:0.001712 147:0.003425 148:0.001712 149:0.001712 150:0.003425 155:0.003425 156:0.001712 158:0.001712 159:0.003425 160:0.003425 161:0.003425 163:0.003425 164:0.006849 165:0.001712 166:0.006849 168:0.001712 169:0.001712 170:0.003425 174:0.005137 175:0.001712 176:0.001712 177:0.003425 180:0.003425 181:0.008562 183:0.005137 184:0.005137 185:0.006849 186:0.003425 188:0.005137 189:0.003425 190:0.008562 191:0.001712 192:0.005137 193:0.003425 194:0.003425 195:0.008562 197:0.010274 198:0.003425 199:0.003425 200:0.006849 201:0.001712 204:0.001712 206:0.001712 208:0.003425 210:0.003425 212:0.001712 213:0.001712 217:0.001712 223:0.001712 224:0.003425 226:0.003425 227:0.001712 230:0.003425 232:0.001712 233:0.003425 235:0.003425 237:0.001712 238:0.003425 240:0.003425 241:0.001712 243:0.003425 244:0.010274 246:0.001712 248:0.003425 249:0.001712 250:0.001712 251:0.001712 253:0.001712 254:0.003425 255:0.001712 256:0.003425 257:0.001712 258:0.001712 260:0.003425 261:0.003425 263:0.001712 265:0.005137 266:0.008562 267:0.001712 268:0.001712 269:0.001712 270:0.003425 271:0.001712 272:0.001712 276:0.001712 277:0.001712 278:0.003425 279:0.001712 280:0.001712 281:0.003425 282:0.001712 283:0.001712 284:0.003425 285:0.010274 286:0.006849 287:0.003425 290:0.013699 291:0.001712 293:0.005137 295:0.006849 296:0.005137 297:0.005137 298:0.003425 300:0.003425 301:0.001712 302:0.001712 303:0.001712 304:0.003425 305:0.001712 306:0.003425 307:0.003425 309:0.003425 310:0.003425 312:0.001712 313:0.003425 315:0.003425 317:0.001712 318:0.003425 319:0.001712 320:0.001712 321:0.003425 323:0.001712 324:0.005137 325:0.003425 326:0.006849 329:0.001712 330:0.001712 332:0.001712 333:0.005137 334:0.001712 335:0.003425 336:0.003425 337:0.001712 338:0.003425 339:0.001712 340:0.001712 341:0.003425 343:0.003425 345:0.006849 346:0.003425 347:0.001712 348:0.005137 349:0.005137 350:0.008562 351:0.001712 353:0.003425 354:0.003425 355:0.006849 356:0.001712 357:0.001712 358:0.003425 360:0.001712 361:0.003425 364:0.001712 365:0.001712 367:0.003425 370:0.003425 371:0.001712 372:0.003425 375:0.003425 381:0.008562 383:0.001712 384:0.001712 385:0.005137 386:0.003425 388:0.001712 389:0.003425 390:0.008562 393:0.003425 394:0.003425 398:0.001712 400:0.001712 
8192 1:0.015038 3:0.007519 4:0.018797 5:0.003759 6:0.018797 8:0.003759 9:0.007519 10:0.011278 12:0.003759 13:0.007519 15:0.015038 16:0.003759 17:0.003759 18:0.011278 41:0.015038 44:0.011278 46:0.011278 48:0.007519 49:0.003759 50:0.003759 61:0.015038 65:0.003759 68:0.007519 69:0.003759 70:0.011278 75:0.007519 76:0.003759 77:0.003759 78:0.003759 80:0.007519 83:0.003759 88:0.007519 90:0.003759 93:0.003759 95:0.003759 96:0.007519 101:0.011278 104:0.003759 106:0.015038 107:0.007519 108:0.026316 109:0.007519 110:0.007519 115:0.003759 116:0.007519 117:0.011278 118:0.011278 123:0.003759 126:0.003759 129:0.007519 130:0.003759 136:0.003759 138:0.003759 141:0.003759 143:0.011278 144:0.003759 145:0.003759 146:0.011278 148:0.003759 149:0.003759 152:0.003759 154:0.003759 156:0.003759 157:0.003759 158:0.015038 161:0.003759 163:0.003759 166:0.011278 169:0.007519 170:0.011278 172:0.003759 175:0.003759 176:0.007519 181:0.007519 184:0.003759 185:0.007519 186:0.015038 188:0.003759 189:0.003759 190:0.011278 192:0.003759 193:0.003759 194:0.007519 195:0.011278 196:0.007519 197:0.003759 198:0.011278 201:0.003759 221:0.007519 223:0.003759 224:0.003759 230:0.003759 237:0.003759 238:0.003759 241:0.011278 244:0.011278 246:0.003759 248:0.003759 250:0.003759 252:0.007519 254:0.003759 257:0.003759 258:0.007519 267:0.007519 273:0.003759 275:0.003759 281:0.003759 283:0.003759 284:0.003759 285:0.003759 290:0.007519 292:0.003759 293:0.007519 297:0.003759 298:0.003759 300:0.007519 301:0.015038 307:0.007519 309:0.003759 313:0.007519 318:0.007519 319:0.007519 321:0.003759 323:0.003759 325:0.003759 326:0.007519 329:0.003759 330:0.003759 333:0.011278 338:0.003759 341:0.015038 343:0.007519 344:0.007519 346:0.011278 347:0.003759 348:0.007519 349:0.003759 350:0.011278 353:0.011278 357:0.003759 358:0.007519 363:0.003759 370:0.003759 385:0.003759 386:0.003759 390:0.003759 396:0.003759 
8192 1:0.008319 2:0.003328 3:0.004992 4:0.006656 5:0.001664 6:0.006656 7:0.001664 8:0.001664 9:0.003328 10:0.004992 11:0.003328 12:0.001664 13:0.004992 15:0.003328 16:0.003328 17:0.014975 18:0.011647 19:0.001664 20:0.001664 21:0.003328 26:0.003328 28:0.001664 31:0.001664 35:0.001664 40:0.001664 41:0.013311 43:0.001664 45:0.003328 46:0.004992 49:0.001664 50:0.004992 51:0.003328 52:0.004992 53:0.008319 54:0.001664 55:0.004992 57:0.003328 58:0.003328 59:0.001664 60:0.003328 61:0.004992 63:0.003328 65:0.001664 66:0.004992 67:0.003328 69:0.001664 70:0.001664 72:0.004992 73:0.001664 74:0.001664 75:0.001664 76:0.001664 77:0.001664 78:0.001664 79:0.003328 81:0.003328 84:0.001664 86:0.003328 88:0.003328 89:0.003328 93:0.001664 94:0.001664 95:0.001664 96:0.001664 97:0.004992 98:0.006656 101:0.004992 103:0.009983 104:0.003328 105:0.006656 106:0.011647 107:0.001664 108:0.008319 109:0.004992 110:0.011647 111:0.001664 114:0.004992 115:0.008319 116:0.008319 117:0.003328 118:0.008319 119:0.001664 120:0.004992 121:0.003328 125:0.001664 126:0.001664 131:0.001664 132:0.001664 133:0.001664 135:0.001664 138:0.001664 140:0.001664 141:0.001664 143:0.004992 144:0.003328 145:0.001664 146:0.004992 147:0.001664 148:0.001664 150:0.008319 151:0.001664 152:0.003328 153:0.006656 154:0.001664 156:0.006656 157:0.001664 158:0.003328 160:0.001664 161:0.006656 163:0.004992 164:0.001664 165:0.003328 166:0.006656 167:0.001664 168:0.003328 169:0.001664 171:0.001664 172:0.004992 173:0.001664 174:0.001664 175:0.001664 176:0.004992 177:0.001664 178:0.001664 180:0.001664 181:0.006656 183:0.001664 184:0.003328 185:0.004992 186:0.009983 188:0.003328 189:0.004992 190:0.008319 191:0.001664 192:0.001664 193:0.008319 194:0.001664 195:0.003328 196:0.003328 197:0.004992 198:0.009983 200:0.001664 201:0.001664 203:0.001664 206:0.001664 207:0.001664 208:0.004992 212:0.003328 213:0.003328 216:0.003328 217:0.004992 218:0.003328 221:0.003328 224:0.001664 225:0.001664 226:0.004992 228:0.001664 229:0.003328 230:0.004992 232:0.003328 233:0.003328 234:0.001664 235:0.001664 237:0.001664 238:0.004992 241:0.004992 242:0.001664 243:0.003328 244:0.001664 245:0.001664 246:0.004992 247:0.001664 249:0.004992 250:0.006656 251:0.004992 252:0.001664 255:0.004992 256:0.001664 258:0.003328 260:0.004992 261:0.001664 262:0.001664 263:0.003328 264:0.001664 265:0.001664 266:0.004992 268:0.001664 269:0.001664 270:0.003328 271:0.001664 272:0.001664 273:0.001664 274:0.001664 276:0.001664 280:0.001664 281:0.001664 282:0.003328 283:0.006656 284:0.003328 288:0.008319 289:0.003328 290:0.006656 291:0.001664 293:0.001664 295:0.001664 297:0.003328 298:0.003328 299:0.001664 303:0.004992 304:0.003328 306:0.006656 307:0.001664 308:0.003328 310:0.003328 311:0.001664 315:0.001664 316:0.001664 317:0.008319 318:0.004992 319:0.001664 320:0.006656 321:0.003328 323:0.003328 324:0.003328 326:0.008319 328:0.008319 329:0.003328 330:0.003328 331:0.001664 332:0.001664 333:0.003328 334:0.001664 335:0.004992 336:0.003328 337:0.006656 338:0.009983 339:0.001664 341:0.011647 342:0.003328 343:0.006656 344:0.001664 345:0.001664 346:0.008319 347:0.001664 348:0.003328 349:0.009983 350:0.006656 351:0.001664 352:0.001664 353:0.004992 354:0.004992 355:0.003328 356:0.001664 357:0.004992 358:0.006656 360:0.001664 364:0.001664 365:0.001664 366:0.001664 370:0.001664 372:0.001664 374:0.003328 377:0.001664 381:0.004992 383:0.001664 384:0.001664 386:0.004992 389:0.003328 390:0.003328 394:0.003328 396:0.006656 397:0.001664 398:0.001664 
8192 3:0.009009 4:0.018018 6:0.009009 8:0.009009 9:0.004505 10:0.009009 14:0.004505 18:0.013514 45:0.004505 50:0.009009 53:0.004505 55:0.009009 57:0.004505 58:0.009009 60:0.004505 61:0.009009 64:0.031532 66:0.013514 67:0.004505 68:0.013514 69:0.009009 72:0.004505 75:0.013514 76:0.004505 78:0.009009 81:0.004505 83:0.009009 84:0.013514 86:0.009009 90:0.004505 101:0.009009 103:0.004505 104:0.013514 106:0.027027 107:0.004505 108:0.009009 109:0.018018 110:0.004505 112:0.004505 115:0.004505 116:0.004505 117:0.004505 118:0.004505 124:0.004505 126:0.004505 128:0.004505 131:0.004505 132:0.004505 135:0.004505 141:0.013514 144:0.013514 146:0.013514 148:0.018018 149:0.004505 150:0.009009 151:0.004505 155:0.004505 156:0.022523 157:0.009009 160:0.004505 161:0.013514 165:0.004505 166:0.004505 167:0.004505 168:0.013514 169:0.004505 170:0.004505 175:0.004505 176:0.004505 177:0.004505 181:0.009009 183:0.004505 184:0.004505 186:0.004505 187:0.004505 188:0.009009 195:0.022523 196:0.004505 197:0.004505 198:0.009009 201:0.004505 205:0.004505 206:0.004505 207:0.004505 210:0.004505 213:0.004505 228:0.004505 229:0.004505 230:0.004505 243:0.004505 258:0.009009 277:0.004505 278:0.004505 281:0.004505 283:0.004505 286:0.009009 287:0.004505 288:0.013514 289:0.004505 290:0.004505 295:0.004505 298:0.022523 303:0.004505 304:0.009009 305:0.004505 306:0.004505 310:0.004505 311:0.004505 314:0.004505 315:0.004505 318:0.009009 324:0.004505 325:0.013514 328:0.004505 330:0.004505 331:0.004505 337:0.004505 341:0.009009 343:0.004505 345:0.004505 346:0.004505 348:0.013514 349:0.018018 350:0.013514 351:0.009009 353:0.004505 356:0.009009 358:0.009009 385:0.004505 388:0.004505 
3472.003447897061 1:0.006231 3:0.006231 4:0.012461 6:0.009346 8:0.012461 9:0.003115 10:0.012461 11:0.003115 13:0.006231 14:0.003115 15:0.003115 16:0.003115 17:0.003115 18:0.006231 19:0.003115 23:0.003115 37:0.006231 41:0.003115 42:0.003115 43:0.003115 44:0.003115 45:0.003115 46:0.003115 48:0.003115 50:0.003115 52:0.003115 53:0.009346 55:0.006231 57:0.003115 58:0.009346 60:0.003115 61:0.003115 63:0.003115 65:0.003115 68:0.003115 69:0.006231 70:0.018692 73:0.006231 75:0.006231 76:0.006231 77:0.003115 80:0.003115 81:0.003115 85:0.003115 90:0.003115 92:0.003115 94:0.003115 95:0.003115 97:0.003115 98:0.006231 100:0.003115 101:0.009346 104:0.003115 105:0.006231 106:0.006231 107:0.003115 108:0.003115 109:0.003115 110:0.009346 111:0.003115 112:0.012461 113:0.006231 116:0.006231 118:0.003115 123:0.006231 126:0.006231 127:0.015576 129:0.006231 133:0.003115 136:0.003115 138:0.003115 141:0.012461 146:0.003115 147:0.003115 148:0.003115 150:0.003115 151:0.003115 153:0.006231 157:0.003115 158:0.015576 160:0.003115 161:0.006231 163:0.003115 165:0.003115 168:0.003115 173:0.009346 177:0.006231 179:0.003115 180:0.003115 181:0.009346 183:0.015576 184:0.003115 185:0.003115 186:0.003115 187:0.006231 188:0.003115 189:0.006231 190:0.021807 191:0.006231 192:0.006231 193:0.006231 195:0.009346 197:0.006231 201:0.006231 206:0.006231 210:0.003115 215:0.006231 217:0.003115 218:0.003115 221:0.003115 222:0.003115 228:0.003115 229:0.003115 233:0.003115 234:0.003115 235:0.003115 236:0.003115 238:0.009346 239:0.003115 241:0.006231 242:0.003115 244:0.018692 246:0.003115 248:0.003115 250:0.006231 252:0.003115 254:0.006231 257:0.003115 258:0.012461 266:0.009346 268:0.003115 272:0.003115 276:0.003115 277:0.006231 281:0.003115 284:0.006231 285:0.003115 286:0.003115 288:0.003115 290:0.003115 291:0.003115 292:0.003115 294:0.003115 297:0.003115 299:0.003115 301:0.009346 306:0.006231 307:0.006231 309:0.003115 313:0.003115 316:0.003115 317:0.006231 318:0.003115 321:0.003115 323:0.003115 324:0.003115 325:0.003115 326:0.006231 327:0.003115 328:0.009346 330:0.009346 332:0.003115 333:0.006231 334:0.006231 336:0.006231 338:0.006231 341:0.009346 343:0.015576 344:0.012461 345:0.003115 346:0.006231 347:0.003115 348:0.003115 349:0.006231 350:0.006231 351:0.006231 356:0.006231 357:0.006231 358:0.006231 366:0.003115 370:0.003115 377:0.003115 378:0.003115 381:0.003115 387:0.003115 390:0.003115 397:0.003115 398:0.003115 400:0.006231 
8192 1:0.009259 3:0.016204 4:0.009259 5:0.011574 6:0.00463 8:0.002315 9:0.006944 10:0.002315 14:0.006944 15:0.006944 16:0.006944 18:0.002315 41:0.006944 43:0.002315 44:0.00463 45:0.002315 46:0.006944 47:0.002315 48:0.00463 50:0.002315 53:0.00463 54:0.002315 55:0.002315 57:0.002315 58:0.009259 60:0.00463 61:0.006944 64:0.006944 65:0.00463 66:0.006944 67:0.006944 68:0.002315 69:0.009259 70:0.002315 72:0.00463 73:0.009259 75:0.006944 77:0.006944 78:0.002315 81:0.00463 83:0.00463 84:0.002315 85:0.00463 86:0.002315 88:0.016204 90:0.002315 92:0.002315 93:0.006944 94:0.006944 96:0.00463 97:0.006944 98:0.002315 100:0.00463 101:0.00463 103:0.002315 104:0.002315 105:0.002315 106:0.006944 108:0.00463 109:0.00463 110:0.013889 113:0.002315 114:0.002315 115:0.009259 116:0.00463 117:0.011574 118:0.002315 119:0.00463 123:0.002315 125:0.002315 126:0.002315 127:0.002315 128:0.002315 129:0.002315 130:0.002315 132:0.002315 133:0.002315 134:0.002315 135:0.002315 136:0.006944 137:0.002315 141:0.00463 144:0.006944 145:0.006944 146:0.009259 147:0.00463 149:0.002315 150:0.00463 153:0.011574 154:0.002315 156:0.009259 157:0.002315 158:0.00463 161:0.006944 166:0.00463 169:0.006944 170:0.002315 172:0.006944 174:0.002315 175:0.002315 176:0.006944 177:0.002315 178:0.002315 180:0.00463 181:0.00463 183:0.009259 184:0.002315 185:0.006944 186:0.00463 187:0.00463 188:0.00463 192:0.006944 193:0.002315 194:0.002315 195:0.00463 196:0.00463 197:0.002315 198:0.00463 199:0.002315 200:0.002315 221:0.009259 227:0.00463 228:0.006944 229:0.002315 230:0.009259 235:0.002315 236:0.00463 243:0.00463 244:0.00463 245:0.00463 246:0.00463 247:0.002315 248:0.009259 250:0.00463 254:0.00463 255:0.002315 256:0.00463 258:0.002315 261:0.00463 263:0.002315 264:0.009259 265:0.006944 266:0.002315 267:0.002315 270:0.002315 276:0.00463 277:0.002315 278:0.002315 281:0.006944 283:0.002315 284:0.009259 285:0.00463 286:0.006944 287:0.002315 288:0.00463 290:0.002315 292:0.00463 294:0.006944 296:0.002315 297:0.002315 298:0.002315 300:0.002315 301:0.00463 303:0.002315 304:0.00463 305:0.00463 306:0.002315 307:0.002315 308:0.002315 309:0.00463 310:0.006944 312:0.00463 313:0.00463 315:0.00463 316:0.006944 317:0.006944 318:0.009259 319:0.002315 321:0.002315 323:0.00463 324:0.006944 325:0.002315 326:0.00463 327:0.002315 328:0.00463 329:0.00463 330:0.009259 332:0.002315 333:0.002315 335:0.002315 336:0.00463 337:0.00463 339:0.002315 340:0.002315 341:0.006944 343:0.002315 344:0.00463 345:0.002315 346:0.009259 348:0.002315 349:0.002315 350:0.002315 355:0.00463 357:0.006944 358:0.00463 360:0.002315 364:0.002315 365:0.002315 372:0.00463 375:0.002315 381:0.002315 383:0.002315 384:0.002315 385:0.002315 390:0.002315 393:0.002315 395:0.006944 
8192 1:0.006289 3:0.002096 4:0.006289 6:0.004193 9:0.012579 10:0.008386 12:0.008386 13:0.006289 14:0.002096 15:0.002096 17:0.010482 18:0.006289 20:0.002096 21:0.004193 22:0.002096 24:0.002096 26:0.004193 30:0.004193 33:0.002096 35:0.008386 36:0.002096 37:0.002096 38:0.002096 41:0.002096 45:0.002096 46:0.004193 48:0.002096 49:0.006289 51:0.002096 54:0.004193 58:0.006289 60:0.002096 61:0.006289 62:0.004193 63:0.002096 64:0.012579 65:0.002096 66:0.004193 67:0.006289 68:0.004193 69:0.002096 70:0.008386 71:0.006289 72:0.004193 73:0.004193 74:0.002096 75:0.002096 76:0.002096 78:0.002096 81:0.002096 86:0.006289 89:0.004193 90:0.006289 92:0.004193 94:0.002096 96:0.004193 98:0.002096 100:0.002096 101:0.008386 102:0.002096 104:0.004193 106:0.010482 107:0.002096 108:0.006289 110:0.008386 111:0.004193 112:0.002096 115:0.004193 116:0.008386 117:0.004193 119:0.002096 120:0.002096 125:0.004193 127:0.010482 128:0.002096 129:0.002096 131:0.004193 132:0.002096 133:0.004193 136:0.002096 138:0.002096 141:0.004193 142:0.008386 143:0.004193 144:0.002096 145:0.002096 146:0.004193 148:0.002096 150:0.002096 153:0.004193 154:0.004193 155:0.002096 156:0.006289 161:0.004193 164:0.002096 165:0.006289 166:0.002096 167:0.002096 168:0.002096 169:0.002096 170:0.014675 173:0.004193 174:0.002096 176:0.004193 177:0.004193 178:0.004193 180:0.002096 181:0.014675 182:0.002096 183:0.002096 184:0.008386 185:0.002096 186:0.008386 187:0.002096 188:0.006289 189:0.006289 190:0.010482 191:0.002096 193:0.006289 194:0.006289 195:0.006289 196:0.008386 197:0.006289 198:0.012579 199:0.002096 200:0.006289 201:0.004193 203:0.002096 204:0.002096 205:0.002096 206:0.002096 210:0.002096 212:0.006289 216:0.002096 218:0.004193 220:0.002096 222:0.002096 228:0.008386 229:0.002096 230:0.006289 231:0.002096 232:0.002096 233:0.004193 234:0.002096 236:0.004193 237:0.004193 238:0.002096 240:0.002096 241:0.004193 243:0.002096 244:0.010482 246:0.004193 249:0.002096 250:0.006289 251:0.002096 252:0.002096 253:0.002096 255:0.002096 256:0.006289 258:0.002096 260:0.002096 261:0.002096 263:0.004193 264:0.002096 265:0.002096 266:0.004193 268:0.004193 270:0.006289 275:0.004193 276:0.006289 278:0.002096 279:0.002096 281:0.006289 282:0.002096 283:0.002096 289:0.002096 290:0.008386 292:0.002096 295:0.002096 296:0.002096 297:0.002096 298:0.008386 300:0.002096 301:0.004193 302:0.006289 303:0.002096 304:0.006289 305:0.004193 306:0.004193 307:0.006289 308:0.004193 309:0.004193 310:0.010482 311:0.002096 312:0.002096 313:0.006289 315:0.002096 316:0.012579 317:0.002096 318:0.002096 321:0.002096 323:0.002096 324:0.006289 326:0.004193 329:0.004193 330:0.002096 332:0.002096 334:0.004193 335:0.002096 336:0.004193 338:0.004193 340:0.002096 341:0.002096 342:0.002096 343:0.004193 344:0.008386 345:0.002096 347:0.002096 348:0.002096 349:0.004193 350:0.014675 351:0.002096 352:0.002096 353:0.002096 354:0.006289 355:0.002096 356:0.002096 357:0.004193 360:0.002096 363:0.002096 366:0.002096 367:0.002096 381:0.002096 382:0.002096 384:0.002096 385:0.004193 388:0.002096 389:0.002096 392:0.002096 393:0.002096 394:0.004193 396:0.004193 398:0.002096 400:0.002096 
